tree
version=v2
num_class=1
num_tree_per_iteration=1
label_index=0
max_feature_idx=12
objective=lambdarank
feature_names=Column_0 Column_1 Column_2 Column_3 Column_4 Column_5 Column_6 Column_7 Column_8 Column_9 Column_10 Column_11 Column_12
feature_infos=[0:0.68572283700000003] [4497:114304] [416:12203] [0.3685159387035975:274.76923076923077] [0.060393442999999998:0.31926283] [0.150578606:0.46589915799999998] [1.6159344876055972e-05:1.2549383482087817] [0.090899999999999995:1] [0.00020000000000000001:0.89759999999999995] [0:0.94069999999999998] [0:0.6409999999999999] [0:0.70279999999999998] [0.0064000000000000003:1]
tree_sizes=1320 1332 1321 1314 1319 1321 1326 1327 1328 1322 1323 1320 1322 1335 1323 1324 1325 1335 1326 1322 1335 1333 1341 1325 1328 1337 1330 1325 1332 1341 1331 1342 1338 1344 1342 1330 1344 1337 1348 1352 1359 1346 1352 1349 1333 1348 1355 1364 1346 1347 1356 1346 1344 1345 1353 1355 1340 1359 1355 1340 1352 1357 1346 1363 1357 1345 1347 1343 1356 1348 1351 1342 1356 1338 1340 1363 1348 1352 1341 1346 1356 1356 1361 1361 1355 1355 1353 1368 1351 1343 1357 1344 1345 1365 1358 1366 1357 1367 1345 1337

Tree=0
num_leaves=16
num_cat=0
split_feature=7 4 3 12 12 7 0 6 2 4 4 6 5 0 4
split_gain=72.7311 12.0511 8.54367 10.8412 5.45345 4.15086 3.60693 3.37857 2.95049 2.22338 1.98275 1.93384 1.93339 1.71736 1.57802
threshold=0.70715000000000006 0.19927119500000004 62.529706720977607 0.81270000000000009 0.045250000000000005 0.41430000000000006 0.23008589700000001 0.74864069236441744 561.00000000000011 0.23054816550000004 0.10297660750000001 0.022577225906565555 0.15929331000000002 0.14292196900000004 0.21930847100000003
decision_type=2 2 2 2 2 2 2 2 2 2 2 2 2 2 2
left_child=1 13 4 -4 6 -3 9 8 10 -2 -6 -7 14 -1 -10
right_child=2 5 3 -5 7 11 -8 -9 12 -11 -12 -13 -14 -15 -16
leaf_value=-0.012827246049734946 -0.030467804299885382 0.033521181746228361 -0.035039859509761163 0.041418885759986875 0.019241168870240348 0.011747326445919873 0.044243089230015187 0.02673975539835742 -0.039048712145625511 0.024484035622964046 -0.02835844287064155 -0.033232503106962678 -0.04468998351843164 0.044913116153271322 0.035182011530362545
leaf_count=12 48 10 26 6 19 14 6 6 20 15 89 37 487 70 5
internal_value=0 0.346006 -0.264632 0.0452906 -0.325881 -0.0337773 -0.0282147 -0.37463 -0.390926 -0.173125 -0.14638 -0.201095 -0.429236 0.438186 -0.0272412
internal_count=870 143 727 32 695 61 69 626 620 63 108 51 512 82 25
shrinkage=0.1


Tree=1
num_leaves=16
num_cat=0
split_feature=7 12 7 0 12 2 1 6 6 10 11 10 12 5 12
split_gain=1273.95 318.31 206.898 208.801 199.25 174.495 160.983 108.649 105.651 99.7264 90.9357 86.9674 80.7492 69.1922 111.555
threshold=0.58570000000000011 0.052550000000000006 0.96875000000000011 0.062927734000000013 0.047900000000000005 561.00000000000011 23053.000000000004 0.08220442190764686 0.22168217187777414 0.60420000000000007 0.64835000000000009 0.42740000000000006 0.032750000000000008 0.35129339050000008 0.045250000000000005
decision_type=2 2 2 2 2 2 2 2 2 2 2 2 2 2 2
left_child=1 6 13 8 -5 10 9 -3 -4 12 -6 -9 -1 -2 -15
right_child=2 7 3 4 5 -7 -8 11 -10 -11 -12 -13 -14 14 -16
leaf_value=0.041125899331342114 -0.038756830936691293 -0.038209441402121222 -0.017952203656168661 0.029273505072943601 0.0052468114022511166 -0.03905860353176497 0.04629305271911615 -0.030453192389034513 0.032248566052063228 -0.0091499446853684756 -0.048412704597540934 0.019863232256770377 0.007311568708104549 0.016705969409300785 -0.034502888355883748
leaf_count=19 286 16 28 14 68 202 14 10 20 25 30 15 20 23 80
internal_value=0 0.252284 -0.190261 -0.08774 -0.177147 -0.242949 0.342282 -0.0576805 0.185253 0.191392 -0.0338593 0.0727591 0.281114 -0.323643 -0.159032
internal_count=870 119 751 362 314 300 78 41 48 64 98 25 39 389 103
shrinkage=0.1


Tree=2
num_leaves=16
num_cat=0
split_feature=7 3 12 0 12 1 8 0 0 7 2 12 5 6 7
split_gain=697.994 125.214 125.431 88.849 67.7163 63.0838 84.5286 94.8578 73.0248 61.9591 56.4907 51.3625 34.2977 34.1472 27.8904
threshold=0.58570000000000011 56.113929543907425 0.026000000000000006 0.15486446500000003 0.60785000000000011 11801.500000000002 0.59375000000000011 0.12531495000000001 0.22159805500000002 0.96875000000000011 1088.5000000000002 0.81270000000000009 0.32250225700000007 0.12199083044221225 0.81665000000000021
decision_type=2 2 2 2 2 2 2 2 2 2 2 2 2 2 2
left_child=3 2 10 -1 -3 -4 7 9 14 -7 -2 13 -12 -11 -9
right_child=1 4 5 -5 -6 6 -8 8 -10 11 12 -13 -14 -15 -16
leaf_value=-0.012576080810921337 -0.031028027524475039 -0.025686791175536874 -0.03587366457433655 0.032166407456208045 0.030682186472389253 -0.037538611292226014 -0.037992846632190928 0.0056773487508817661 0.0081595750157277113 -0.047633024532211993 -0.028977463380329128 -0.047146389391587822 0.039377326401382605 0.032424136160498634 -0.038032021360053167
leaf_count=33 17 31 307 86 8 26 136 10 28 6 8 8 6 13 147
internal_value=0 -0.161903 -0.202373 0.282518 0.157044 -0.242161 -0.172469 -0.088625 -0.219993 0.120015 0.163836 0.213547 0.305069 0.280208 -0.334008
internal_count=870 751 712 119 39 681 374 238 185 53 31 27 14 19 157
shrinkage=0.1


Tree=3
num_leaves=16
num_cat=0
split_feature=0 3 12 12 3 2 9 5 5 11 7 0 4 0 8
split_gain=411.761 91.5999 92.42 47.8595 42.8578 35.1796 32.7824 55.528 51.4376 50.7922 47.2074 41.6523 26.0589 24.4272 17.1864
threshold=0.23325574100000004 62.529706720977607 0.026000000000000006 0.054650000000000004 7.9350014617620266 880.00000000000011 0.56725000000000014 0.15929331000000002 0.44865969200000005 0.59855000000000014 0.77500000000000013 0.22159805500000002 0.12121856800000001 0.18827583800000006 0.59525000000000017
decision_type=2 2 2 2 2 2 2 2 2 2 2 2 2 2 2
left_child=1 2 4 -2 14 -5 8 -8 9 10 -4 -12 13 -3 -1
right_child=3 12 6 5 -6 -7 7 -9 -10 -11 11 -13 -14 -15 -16
leaf_value=-0.002951554766445381 0.03290692030515615 0.033632637915460638 0.0062811916523501715 0.020605693771674986 -0.027524125587341183 -0.029590632926723773 0.021262222974594142 -0.031649730552010577 0.032331839148225967 0.035552328054010561 -0.034483784671906333 0.019872865631551846 -0.03322848721642125 -0.039871607401439246 0.038489677089302891
leaf_count=9 57 12 27 12 20 26 10 423 7 5 233 6 10 8 5
internal_value=0 -0.136874 -0.173411 0.277388 0.158175 0.0189525 -0.215855 -0.282167 -0.130937 -0.175295 -0.21644 -0.294764 0.208351 0.277702 0.290871
internal_count=870 775 745 95 34 38 711 433 278 271 266 239 30 20 14
shrinkage=0.1


Tree=4
num_leaves=16
num_cat=0
split_feature=7 12 7 6 1 0 5 10 2 7 8 6 3 6 12
split_gain=269.512 56.7902 49.4462 46.3572 39.7833 35.0213 34.3018 29.8815 26.9481 25.8922 24.1374 20.0508 21.9028 19.2169 19.0176
threshold=0.58570000000000011 0.029750000000000002 0.96875000000000011 0.35631198456018803 11801.500000000002 0.15602046600000002 0.15929331000000002 0.53875000000000017 1088.5000000000002 0.70715000000000006 0.52625000000000011 0.27680349254285458 18.083818236797747 0.48029674733712563 0.044550000000000006
decision_type=2 2 2 2 2 2 2 2 2 2 2 2 2 2 2
left_child=5 8 9 6 -5 -1 -4 13 -2 -3 -9 12 -7 -6 -8
right_child=1 2 3 4 7 11 14 10 -10 -11 -12 -13 -14 -15 -16
leaf_value=-0.01185328451802785 -0.026012827603271282 0.0035659728132987436 0.027541530480871913 -0.036498813517212091 0.03486325677325787 0.018820442271909415 0.019805214597290829 0.018806946611796403 0.026951328680787069 -0.035108342419291449 -0.033129336736103993 0.031788217820318675 -0.035387208314312531 0.0033045304573325455 -0.02865092451981649
leaf_count=35 22 19 5 41 11 45 5 5 19 333 32 33 6 24 235
internal_value=0 -0.139852 -0.175918 -0.0970194 0.0371295 0.223527 -0.213598 0.108912 0.157061 -0.308445 -0.124478 0.254383 0.150634 0.21839 -0.257827
internal_count=870 751 710 358 113 119 245 72 41 352 37 84 51 35 240
shrinkage=0.1


Tree=5
num_leaves=16
num_cat=0
split_feature=7 12 7 1 0 4 4 0 3 1 7 5 12 3 1
split_gain=200.405 41.7518 37.3964 36.2251 28.4586 38.826 46.0705 26.3983 20.1855 20.9599 19.6777 18.2929 17.7261 17.1905 15.7158
threshold=0.58570000000000011 0.029750000000000002 0.96875000000000011 8313.5000000000018 0.062927734000000013 0.12121856800000001 0.099355083000000011 0.15602046600000002 14.032995019199735 26943.000000000004 0.70715000000000006 0.35897947050000006 0.052550000000000006 12.42276699829605 23053.000000000004
decision_type=2 2 2 2 2 2 2 2 2 2 2 2 2 2 2
left_child=7 11 10 -4 8 6 -6 -1 -5 -10 -3 -2 14 -8 -9
right_child=1 2 3 4 5 -7 13 12 9 -11 -12 -13 -14 -15 -16
leaf_value=-0.011541202433438731 -0.0063147915354001688 0.0029461855410335583 -0.028959340605586848 0.035692819612587828 -0.022323496163711196 -0.029248179149355444 -0.040905793252792186 0.019993869359732915 -0.043432378261940484 0.022450966181206729 -0.033594442103055004 0.032805800464142998 0.0054042869480356651 0.034689950918560204 0.037407805713190162
leaf_count=35 32 19 149 9 37 124 7 47 14 5 333 9 23 13 14
internal_value=0 -0.132784 -0.167117 -0.0914274 -0.0164432 -0.0946889 0.0585281 0.212482 0.1892 -0.0576792 -0.294094 0.14541 0.241954 0.285015 0.27959
internal_count=870 751 710 358 209 181 57 119 28 19 352 41 84 20 61
shrinkage=0.1


Tree=6
num_leaves=16
num_cat=0
split_feature=0 3 12 12 6 12 7 7 5 11 2 1 12 2 11
split_gain=171.565 34.539 30.4367 29.876 21.7396 17.2227 16.0822 14.4217 15.4047 14.2738 14.0309 11.9722 11.1144 10.6703 11.6944
threshold=0.22159805500000002 62.529706720977607 0.052550000000000006 0.026000000000000006 0.74864069236441744 0.16680000000000003 0.70715000000000006 0.96875000000000011 0.15929331000000002 0.43395000000000006 1088.5000000000002 14115.000000000002 0.047900000000000005 704.50000000000011 0.60750000000000004
decision_type=2 2 2 2 2 2 2 2 2 2 2 2 2 2 2
left_child=1 3 -2 10 6 -4 9 -8 -9 -5 -1 -12 -10 14 -14
right_child=2 -3 5 4 -6 -7 7 8 12 -11 11 -13 13 -15 -16
leaf_value=-0.028108112804745584 0.027581245454650669 0.017626537741635671 -0.014881434857088528 0.014867105497303175 0.024331855938529136 0.022326347841756605 -0.033882540564927559 0.023574452940796908 0.014136437074057909 -0.0194554198369867 0.026265203648040542 -0.041905590816534784 -0.028244736279794631 -0.030921120095286928 -0.0028405119941823393
leaf_count=18 62 26 48 19 6 9 287 5 9 45 10 6 59 202 59
internal_value=0 -0.128682 0.214673 -0.15785 -0.189861 0.000795653 -0.205743 -0.237506 -0.18188 -0.0396346 0.105499 0.199993 -0.204209 -0.224719 -0.139404
internal_count=870 751 119 725 691 57 685 621 334 64 34 16 329 320 118
shrinkage=0.1


Tree=7
num_leaves=16
num_cat=0
split_feature=0 3 12 12 6 3 7 7 8 2 9 10 9 11 1
split_gain=135.841 27.2355 23.9891 21.0619 15.5769 15.0087 12.215 12.1848 12.5351 10.939 10.374 11.2999 10.7882 14.3449 15.8769
threshold=0.22159805500000002 62.529706720977607 0.026000000000000006 0.052550000000000006 0.74864069236441744 21.407246507874678 0.70715000000000006 0.96875000000000011 0.64215000000000011 1088.5000000000002 0.77465000000000017 0.53875000000000017 0.48445000000000005 0.67135000000000011 18296.000000000004
decision_type=2 2 2 2 2 2 2 2 2 2 2 2 2 2 2
left_child=1 2 9 -2 6 -5 -4 -8 10 -1 11 12 -9 14 -14
right_child=3 -3 4 5 -6 -7 7 8 -10 -11 -12 -13 13 -15 -16
leaf_value=-0.025743823578284277 0.025853250921143146 0.015785789210760102 -0.0039248223470054839 -0.027859496052534561 0.021520037030708223 0.013314966158936022 -0.032556246846540578 -0.03192805068667514 -0.035196957454801191 0.019429235458648202 0.023948626938353999 -0.025892565658469952 0.019327373762169427 -0.034401147993391758 -0.034175488563906849
leaf_count=18 62 26 64 34 6 23 287 34 86 16 6 128 36 27 17
internal_value=0 -0.121309 -0.149859 0.206395 -0.180409 0.00525456 -0.194642 -0.224079 -0.170598 0.103442 -0.12359 -0.148061 -0.0548834 0.013768 0.0987426
internal_count=870 751 725 119 691 57 685 621 334 34 248 242 114 80 53
shrinkage=0.1


Tree=8
num_leaves=16
num_cat=0
split_feature=7 6 0 3 7 12 11 1 1 1 10 12 12 1 7
split_gain=109.14 16.6908 15.4804 14.5421 14.6479 12.1692 12.0157 14.2707 11.1037 9.78198 8.91168 14.2715 11.4362 16.4853 8.69864
threshold=0.58570000000000011 0.072426454303728141 0.15602046600000002 3.9515942028985509 0.93540000000000012 0.026750000000000006 0.65745000000000009 44784.000000000007 9782.5000000000018 23053.000000000004 0.58630000000000015 0.049150000000000006 0.032750000000000008 15497.500000000002 0.70715000000000006
decision_type=2 2 2 2 2 2 2 2 2 2 2 2 2 2 2
left_child=2 -2 -1 -3 5 8 -6 -8 -5 10 12 -12 -4 -14 -7
right_child=1 3 9 4 6 14 7 -9 -10 -11 11 -13 13 -15 -16
leaf_value=-0.011311366744213128 -0.028583475401611193 -0.030491401462666996 0.031973938689251309 0.02347141500463169 0.0050448053975671002 0.0027970130600373836 -0.037229362314525977 0.01739697560573578 -0.037034393756707154 0.03032154680959568 -0.021085781822318329 0.024890663022092349 -0.018708691377339139 0.027846992926814619 -0.027901739911423303
leaf_count=35 177 97 14 10 167 16 51 6 13 23 16 6 19 6 214
internal_value=0 -0.121724 0.188191 -0.0865702 -0.0586179 -0.164641 0.00678861 -0.203881 0.0817277 0.215647 0.150513 -0.00320516 0.20946 0.0635823 -0.225931
internal_count=870 751 119 574 477 253 224 57 23 84 61 22 39 25 230
shrinkage=0.1


Tree=9
num_leaves=16
num_cat=0
split_feature=0 3 12 12 3 6 7 3 0 7 5 12 4 11 2
split_gain=89.4344 18.0423 17.061 13.6819 10.3697 10.2635 9.31528 8.7462 8.33311 7.99107 9.08489 8.11179 7.85865 7.78158 7.59812
threshold=0.22159805500000002 62.529706720977607 0.026750000000000006 0.052550000000000006 21.407246507874678 0.74864069236441744 0.70715000000000006 26.243257971751326 0.17522275600000001 0.96875000000000011 0.15929331000000002 0.047900000000000005 0.12121856800000001 0.6020000000000002 704.50000000000011
decision_type=2 2 2 2 2 2 2 2 2 2 2 2 2 2 2
left_child=1 2 8 -2 -5 6 13 -6 -1 -8 -11 -12 -3 -4 -13
right_child=3 12 5 4 7 -7 9 -9 -10 10 11 14 -14 -15 -16
leaf_value=0.017239483993194655 0.024490456084040373 0.020899851448217259 0.0063205173833618929 -0.025518175812929762 0.034871553958438654 0.018876050638422834 -0.03068911048098243 -0.0030500272240212485 -0.035591449254582803 0.021939120164591486 0.016784940350396873 -0.012170704328217256 -0.029685728189479212 -0.027696783228746188 -0.029375014095418039
leaf_count=25 62 16 36 34 5 6 285 18 12 5 9 118 10 27 202
internal_value=0 -0.110553 -0.137624 0.193254 0.019359 -0.167112 -0.180585 0.127635 0.103157 -0.210428 -0.162345 -0.183044 0.13974 -0.0292532 -0.20424
internal_count=870 751 725 119 57 688 682 23 37 619 334 329 26 63 320
shrinkage=0.1


Tree=10
num_leaves=16
num_cat=0
split_feature=0 3 12 12 8 4 0 3 2 3 11 5 12 5 4
split_gain=74.1063 14.3066 12.6683 10.7296 8.99964 12.3814 8.44663 7.75439 7.53722 7.20424 6.73648 7.27487 6.65512 5.87478 7.08974
threshold=0.22159805500000002 62.529706720977607 0.026000000000000006 0.033550000000000003 0.49405000000000004 0.10297660750000001 0.15656109150000003 1.7531070440202967 1088.5000000000002 16.329189618486605 0.46905000000000002 0.32529163050000004 0.039000000000000007 0.15929331000000002 0.21930847100000003
decision_type=2 2 2 2 2 2 2 2 2 2 2 2 2 2 2
left_child=1 2 8 -2 5 6 -4 -7 -1 -5 -3 -12 -11 14 -6
right_child=3 10 4 9 13 7 -8 -9 -10 12 11 -13 -14 -15 -16
leaf_value=-0.025912232113544899 0.027671615723885108 0.031023490249514091 0.032094018924943936 -0.0082827478816088589 -0.028441019262123498 0.024054702565301234 -0.021928628517044531 -0.021980305842113145 0.018942105794344299 -0.024334669867753355 0.012728364792941916 -0.039754055179426158 0.018992567098197032 -0.02110636680572817 0.021843442294151243
leaf_count=18 33 5 6 41 20 5 18 95 16 6 8 13 39 540 7
internal_value=0 -0.104598 -0.129862 0.187661 -0.155636 -0.0325226 0.192189 -0.153394 0.0948251 0.0984923 0.129003 -0.0281104 0.157341 -0.192885 0.0216154
internal_count=870 751 725 119 691 124 24 100 34 86 26 21 45 567 27
shrinkage=0.1


Tree=11
num_leaves=16
num_cat=0
split_feature=7 7 0 12 0 0 5 11 0 8 8 3 5 12 3
split_gain=65.8228 11.886 11.8007 10.2037 8.90895 10.9474 11.5542 9.7456 8.82516 9.77886 8.79621 11.2131 6.66406 6.45725 6.27505
threshold=0.70715000000000006 0.93540000000000012 0.22159805500000002 0.026000000000000006 0.062927734000000013 0.054990520500000008 0.22814719250000001 0.37865000000000004 0.33280894700000002 0.45180000000000003 0.49650000000000005 27.74280534971507 0.35897947050000006 0.048500000000000008 28.10376082020839
decision_type=2 2 2 2 2 2 2 2 2 2 2 2 2 2 2
left_child=8 3 4 12 5 6 -3 -6 9 -1 11 -9 -2 -12 -4
right_child=1 2 14 -5 7 -7 -8 10 -10 -11 13 -13 -14 -15 -16
leaf_value=0.022862030109345656 -0.026502269980075835 0.016760083519959227 0.029669031362087178 -0.027729330919135736 0.0099998176764314259 0.026376692293858334 -0.03834128798748708 -0.03288559214173592 0.02687366820341347 0.0017227683688248825 0.0096386346126834908 0.023652112843054761 0.023961917841396695 -0.02708680622335919 -0.019060798799829318
leaf_count=28 17 8 8 326 29 12 29 29 26 89 9 8 6 241 5
internal_value=0 -0.115047 -0.0610741 -0.222914 -0.0950047 0.0578841 -0.125894 -0.143513 0.165194 0.105249 -0.1874 0.0290782 0.0526775 -0.239988 0.194517
internal_count=870 727 378 349 365 49 37 316 143 117 287 37 23 250 13
shrinkage=0.1


Tree=12
num_leaves=16
num_cat=0
split_feature=7 6 4 2 8 0 8 8 8 11 0 11 9 6 8
split_gain=54.2355 10.0221 9.37588 10.9917 8.8359 8.34892 8.21568 6.57059 6.27129 5.26362 14.0648 11.6978 6.30677 5.61693 5.21733
threshold=0.70715000000000006 0.115583681081497 0.21930847100000003 704.50000000000011 0.58020000000000016 0.33280894700000002 0.45180000000000003 0.60585000000000011 0.52215000000000011 0.46905000000000002 0.13337612050000006 0.60750000000000004 0.49890000000000007 0.46117991129098007 0.47475000000000006
decision_type=2 2 2 2 2 2 2 2 2 2 2 2 2 2 2
left_child=5 -2 3 9 -4 6 -1 -6 -8 12 11 -11 -3 -14 -5
right_child=1 2 4 14 7 -7 8 -9 -10 10 -12 -13 13 -15 -16
leaf_value=0.021200060486016612 -0.024612900402158338 -0.026071191147491641 -0.01881841673154639 -0.0011708309736639388 0.033007173626017093 0.025881106726122219 -0.013154123931197382 -0.013255410888036893 0.0098369047303906668 -0.034739221808698602 -0.036289800474295211 0.019213508569381081 -0.022970422254591429 0.033144002637021074 -0.023864203789105115
leaf_count=28 225 10 33 47 7 26 39 17 50 19 48 22 9 5 285
internal_value=0 -0.111783 -0.0710512 -0.108946 0.105001 0.153134 0.0940395 0.226074 0.0128117 0.00166278 -0.06913 0.071145 0.148715 0.242463 -0.194877
internal_count=870 727 502 445 57 143 117 24 89 113 89 41 24 14 332
shrinkage=0.1


Tree=13
num_leaves=16
num_cat=0
split_feature=7 12 7 0 12 0 1 12 10 3 0 8 4 6 0
split_gain=45.5724 9.28954 8.04477 8.17412 7.95825 7.57925 8.82532 7.49958 7.38654 6.40884 10.6276 8.118 6.49141 4.91281 4.53838
threshold=0.70715000000000006 0.020900000000000005 0.93540000000000012 0.19751850800000001 0.026000000000000006 0.14335971750000001 8313.5000000000018 0.047900000000000005 0.38900000000000007 33.196502495640154 0.28471647800000005 0.45180000000000003 0.12121856800000001 0.077372854138387112 0.12903513700000005
decision_type=2 2 2 2 2 2 2 2 2 2 2 2 2 2 2
left_child=1 -1 4 5 -2 6 14 -7 -3 10 11 -10 -13 -8 -4
right_child=2 8 3 -5 -6 7 13 -9 9 -11 -12 12 -14 -15 -16
leaf_value=0.027448647392211301 0.006408873108874895 -0.0063685647093442614 -0.030530375106490953 0.014641099786451534 -0.026007854080675144 0.020343830938261045 -0.020985221875387323 -0.031529614689467564 0.027541405857588266 0.03042973704764414 -0.023944350664579651 0.020259682215773046 -0.018790203999740927 0.0070311533786135251 0.0031994246590306163
leaf_count=24 23 39 88 26 326 5 33 128 15 11 13 9 32 80 18
internal_value=0 0.142445 -0.10876 -0.0597523 -0.207171 -0.0953592 -0.0427771 -0.247164 0.0872046 0.141722 0.0819583 0.150517 -0.0129931 0.0291197 -0.216831
internal_count=870 143 727 378 349 352 219 133 119 80 69 56 41 113 106
shrinkage=0.1


Tree=14
num_leaves=16
num_cat=0
split_feature=0 7 6 3 12 3 0 9 9 3 4 8 3 8 6
split_gain=43.111 8.76023 6.44519 7.24865 5.1877 6.61218 4.42949 6.00365 6.91015 6.8652 5.8825 10.7467 13.845 5.0658 5.58278
threshold=0.23325574100000004 0.34845000000000004 0.072426454303728141 3.9515942028985509 0.054650000000000004 56.113929543907425 0.14335971750000001 0.5303000000000001 0.51875000000000016 4.2370532311601039 0.16308893000000005 0.50085000000000013 68.168810232004773 0.58020000000000016 0.2274107675527843
decision_type=2 2 2 2 2 2 2 2 2 2 2 2 2 2 2
left_child=1 -1 -3 -4 -2 -6 10 8 -8 -9 11 -5 -13 -12 -15
right_child=4 2 3 6 5 -7 7 9 -10 -11 13 12 -14 14 -16
leaf_value=0.023136407509343357 0.022093638851354694 -0.022421463825450471 -0.028045111145988618 0.018464462609330708 -0.014595060064878505 0.029422455457943926 -0.011438191932485188 0.024076928809042688 0.021679347748052677 -0.026669266299808893 -0.010638331924463239 -0.031561821272608974 0.018941484166204448 0.025741665043085955 -0.033128831073345813
leaf_count=10 57 197 99 18 33 5 81 5 17 163 32 108 8 25 12
internal_value=0 -0.087176 -0.102331 -0.0718046 0.185337 0.0146147 -0.0467266 -0.110712 -0.00978184 -0.213791 0.00925069 -0.0692038 -0.177682 0.122922 0.204939
internal_count=870 775 765 568 95 38 469 266 98 168 203 134 116 69 37
shrinkage=0.1


Tree=15
num_leaves=16
num_cat=0
split_feature=7 0 6 10 4 3 1 8 8 8 6 0 6 7 2
split_gain=36.2046 6.24447 5.94168 7.96618 5.24256 5.17621 6.9435 4.37828 4.18949 3.98454 5.21895 5.84463 3.74249 4.6102 4.33271
threshold=0.58570000000000011 0.15602046600000002 0.115583681081497 0.60420000000000007 0.21930847100000003 21.407246507874678 14115.000000000002 0.58020000000000016 0.65520000000000012 0.48135000000000006 0.18187407247503801 0.13219348950000001 0.27680349254285458 0.29285000000000005 1513.5000000000002
decision_type=2 2 2 2 2 2 2 2 2 2 2 2 2 2 2
left_child=1 -1 -2 4 5 9 -7 -6 -8 -4 11 -11 13 -3 -15
right_child=2 12 3 -5 7 6 8 -9 -10 10 -12 -13 -14 14 -16
leaf_value=-0.0091810450676616702 -0.021152669652482848 0.029121993098792681 0.0053711713924927589 -0.026951130481806612 -0.014815802468402662 0.029724372674429456 -0.012109310023551527 0.021956984748311936 0.0141188483973755 0.024347161812705242 -0.024055015033576072 -0.030483197140150211 0.024222109204812079 -0.020849680002325469 0.010478243936890357
leaf_count=35 229 6 33 104 24 5 79 21 17 12 207 20 33 16 29
internal_value=0 0.156278 -0.0953493 -0.0614572 -0.0286812 -0.0616258 0.0273763 0.128999 -0.0428193 -0.131293 -0.177288 0.0426897 0.183617 0.106611 0.0369288
internal_count=870 119 751 522 418 373 101 45 96 272 239 32 84 51 45
shrinkage=0.1


Tree=16
num_leaves=16
num_cat=0
split_feature=0 7 3 12 4 1 6 12 3 1 4 9 5 7 7
split_gain=31.6177 5.20971 4.64739 4.38177 5.26402 5.99916 3.92185 3.73584 3.26777 6.24925 7.26566 4.5982 3.29474 3.09996 2.75569
threshold=0.23325574100000004 0.34845000000000004 62.529706720977607 0.020900000000000005 0.076600252500000007 11801.500000000002 0.74864069236441744 0.026750000000000006 9.5592552895875524 14115.000000000002 0.19541213500000001 0.65605000000000013 0.15929331000000002 0.58570000000000011 0.70715000000000006
decision_type=2 2 2 2 2 2 2 2 2 2 2 2 2 2 2
left_child=1 -1 6 -2 -5 -6 7 -3 14 10 11 -10 -11 -7 -9
right_child=3 2 -4 4 5 13 -8 8 9 12 -12 -13 -14 -15 -16
leaf_value=0.019372639517114654 0.027874162024996391 0.004871996994549186 0.0075463822236387359 -0.032001865342015816 -0.016957762133250932 0.022622808566055988 0.019526478588238159 -0.0052970006892674075 0.023960373871156154 0.014316085707741464 -0.01631816298695063 -0.035378370292922311 -0.019948901392350837 0.0006754778589345968 -0.023757473015311517
leaf_count=10 17 34 30 7 17 27 6 36 22 8 64 10 227 27 328
internal_value=0 -0.0825687 -0.0950335 0.170571 0.115252 0.140213 -0.113866 -0.123599 -0.140755 -0.0933932 0.029194 0.178805 -0.172746 0.182476 -0.200791
internal_count=870 775 765 95 78 71 735 729 695 331 96 32 235 54 364
shrinkage=0.1


Tree=17
num_leaves=16
num_cat=0
split_feature=0 12 11 12 0 0 0 2 3 4 8 4 12 7 0
split_gain=26.3922 4.76902 4.53331 5.65562 6.14007 5.53217 4.85488 4.23015 4.07531 4.00592 3.68503 6.64818 3.05563 3.68345 2.99538
threshold=0.23325574100000004 0.054650000000000004 0.45300000000000001 0.026000000000000006 0.062927734000000013 0.054990520500000008 0.11691208950000001 880.00000000000011 7.9350014617620266 0.21930847100000003 0.49405000000000004 0.11175200050000002 0.16680000000000003 0.64585000000000015 0.17104698450000003
decision_type=2 2 2 2 2 2 2 2 2 2 2 2 2 2 2
left_child=2 -2 6 8 5 9 -1 -3 -4 -5 11 -6 13 -8 -12
right_child=1 7 3 4 10 -7 12 -9 -10 -11 14 -13 -14 -15 -16
leaf_value=-0.029085405908715747 0.020434257566213428 0.013960870747504284 0.022296257367214689 -0.029250641118660908 0.019041559708635622 0.021311581008065475 0.011571567478006368 -0.023528481434054983 -0.022879943617486076 0.0080625397329736493 -0.026545515727693338 -0.022429390929093136 0.015308356471354319 -0.017680616302333769 -0.010722160187249327
leaf_count=32 57 12 9 50 17 14 17 26 16 15 316 64 38 71 116
internal_value=0 0.163824 -0.0773835 -0.112001 -0.137002 0.017942 0.0152325 -0.0124033 0.107784 -0.123559 -0.179883 -0.0445357 0.0564619 -0.036816 -0.217499
internal_count=870 95 775 617 592 79 158 38 25 65 513 81 126 88 432
shrinkage=0.1


Tree=18
num_leaves=16
num_cat=0
split_feature=0 11 0 12 0 1 4 8 11 12 3 0 3 4 3
split_gain=24.9523 4.52844 4.98726 4.1751 3.97464 3.51848 3.41327 3.43081 3.92235 3.24965 3.0248 3.2569 3.06717 3.01101 2.99553
threshold=0.23325574100000004 0.45300000000000001 0.074194183500000024 0.019850000000000003 0.11691208950000001 7408.0000000000009 0.19541213500000001 0.49405000000000004 0.63300000000000012 0.054650000000000004 14.032995019199735 0.023539373500000006 46.256688031628137 0.19067984450000003 56.113929543907425
decision_type=2 2 2 2 2 2 2 2 2 2 2 2 2 2 2
left_child=1 4 5 -4 -1 -3 7 8 -5 -2 11 -7 -12 -9 -11
right_child=9 2 3 6 -6 10 -8 13 -10 14 12 -13 -14 -15 -16
leaf_value=-0.027859195750946288 0.019752251125682633 -0.029969795133130035 0.012938986603510198 -0.011991453744529262 0.0053889307089211996 -0.028734001091283434 -0.027334274754543076 -0.020446430869426175 0.027216700937311496 -0.011066346679041269 -0.027456077648301491 0.021378670690925333 0.015595360463052741 0.013356269982433952 0.022872971017665403
leaf_count=32 57 26 10 44 126 13 213 237 5 33 27 25 5 12 5
internal_value=0 -0.0787528 -0.11512 -0.155886 0.0165643 0.0142547 -0.17624 -0.123866 0.0309228 0.163781 0.0637182 0.155675 -0.104335 -0.174703 0.0104608
internal_count=870 775 617 521 158 96 511 298 49 95 70 38 32 249 38
shrinkage=0.1


Tree=19
num_leaves=16
num_cat=0
split_feature=7 6 10 1 9 4 3 3 0 3 1 8 12 8 6
split_gain=22.7197 4.52784 4.58845 3.92322 4.40864 3.59061 3.69051 4.34973 4.10821 3.2847 3.20123 2.96392 2.51914 2.47386 2.47687
threshold=0.64585000000000015 0.115583681081497 0.60420000000000007 23053.000000000004 0.70855000000000012 0.21930847100000003 21.407246507874678 28.784003030153769 0.14403429850000002 56.113929543907425 19607.500000000004 0.58020000000000016 0.59865000000000013 0.48135000000000006 0.18187407247503801
decision_type=2 2 2 2 2 2 2 2 2 2 2 2 2 2 2
left_child=3 -2 5 4 10 6 13 12 9 -9 -1 -7 -8 -3 -15
right_child=1 2 -4 -5 -6 11 7 8 -10 -11 -12 -13 -14 14 -16
leaf_value=0.013761054083554245 -0.021235445375745014 0.0041102583650598108 -0.024836450651389591 0.023462184392093924 -0.026651841796562482 -0.014091357621319059 0.022081723146725529 -0.019821999081897513 -0.027186489272572341 0.019277353377148383 -0.015536178623545458 0.020576479636328276 -0.036210917704319792 0.0010175230778523734 -0.02224091356587167
leaf_count=73 227 32 102 27 19 24 23 17 44 9 12 21 5 31 204
internal_value=0 -0.0910445 -0.0568692 0.137446 0.08164 -0.028749 -0.0611735 0.0261489 -0.0795237 0.0544418 0.109195 0.120293 0.17865 -0.130431 -0.172808
internal_count=870 739 512 131 104 410 365 98 70 26 85 45 28 267 235
shrinkage=0.1


Tree=20
num_leaves=16
num_cat=0
split_feature=7 0 12 7 5 8 3 6 11 5 1 1 8 5 1
split_gain=19.7157 4.15788 4.06919 5.67948 4.35615 3.71138 3.67776 3.27226 3.86849 3.81122 2.64166 3.05315 2.27305 2.17277 2.16577
threshold=0.70715000000000006 0.33280894700000002 0.045250000000000005 0.96875000000000011 0.35897947050000006 0.45180000000000003 4.1137130461346256 0.077372854138387112 0.65745000000000009 0.25730755100000008 4877.0000000000009 8313.5000000000018 0.52110000000000012 0.23320458150000004 14115.000000000002
decision_type=2 2 2 2 2 2 2 2 2 2 2 2 2 2 2
left_child=1 5 4 -4 -2 -1 -5 -8 10 -10 -9 -12 -7 -14 -13
right_child=2 -3 3 6 -6 12 7 8 9 -11 11 14 13 -15 -16
leaf_value=0.018324469467459727 -0.011469278806111413 0.022926503961603992 -0.025017751667463891 -0.027646246988002526 0.021783597165550464 -0.013065690146168752 -0.023413617175043606 0.030240964505261033 0.011261453594107046 -0.03424506017418933 -0.027157793791754939 0.01686451287795419 0.02354468253921814 -0.00061657270751802129 -0.0013912854177219212
leaf_count=28 57 26 303 82 17 37 67 7 7 44 33 24 8 44 86
internal_value=0 0.127491 -0.0906085 -0.118284 0.0567651 0.0698734 -0.0670174 -0.0379857 -0.00658115 -0.198819 0.0373663 0.0106236 -0.00243342 0.0616944 0.0425817
internal_count=870 143 727 653 74 117 350 268 201 51 150 143 89 52 110
shrinkage=0.1


Tree=21
num_leaves=16
num_cat=0
split_feature=7 6 6 10 3 4 7 12 3 12 1 6 4 3 3
split_gain=17.3253 3.39933 3.16861 3.75897 2.60811 2.39244 2.34801 2.19276 2.08949 1.88458 1.86521 1.74324 2.54467 3.20918 2.78261
threshold=0.64585000000000015 0.27680349254285458 0.115583681081497 0.60420000000000007 3.9515942028985509 0.21930847100000003 0.29285000000000005 0.05290000000000001 1.4468115942028987 0.019000000000000003 16586.000000000004 0.52496656171906475 0.12121856800000001 24.301822341557969 9.9877916620297515
decision_type=2 2 2 2 2 2 2 2 2 2 2 2 2 2 2
left_child=1 6 9 4 -4 11 10 -3 -8 -2 -1 12 13 -6 -14
right_child=2 7 3 -5 5 -7 8 -9 -10 -11 -12 -13 14 -15 -16
leaf_value=0.029361263456818127 0.013866887695484094 0.024324326008904173 -0.02427021036664824 -0.024058333530038369 -0.0092347474867784437 0.012872011325443756 0.016756654649400012 0.0053948849962036586 -0.0052104292222815906 -0.022130593933026112 -0.016314433043359954 -0.015211177980157996 0.0012233461942975188 0.014507923947522223 -0.02714511807730606
leaf_count=5 5 27 61 102 80 34 11 20 62 222 6 84 48 41 62
internal_value=0 0.128555 -0.0854637 -0.0546999 -0.0273106 -0.00849392 0.0503666 0.197597 0.00302184 -0.194202 0.218314 -0.037956 -0.00661198 0.0554213 -0.113929
internal_count=870 131 739 512 410 349 84 47 73 227 11 315 231 121 110
shrinkage=0.1


Tree=22
num_leaves=16
num_cat=0
split_feature=0 12 1 4 7 7 12 6 0 11 2 12 4 0 3
split_gain=15.5676 2.95624 3.02108 3.56255 2.90377 2.90658 3.60344 2.27879 2.28422 3.80703 4.28345 3.60032 2.52149 2.13624 2.07605
threshold=0.23008589700000001 0.020900000000000005 11801.500000000002 0.076600252500000007 0.70715000000000006 0.96875000000000011 0.026000000000000006 0.077372854138387112 0.062927734000000013 0.65085000000000004 561.00000000000011 0.047900000000000005 0.099355083000000011 0.023539373500000006 1.3830219780219781
decision_type=2 2 2 2 2 2 2 2 2 2 2 2 2 2 2
left_child=4 -2 -3 -4 14 6 -6 -7 13 10 12 -12 -10 -9 -1
right_child=1 2 3 -5 5 7 -8 8 9 -11 11 -13 -14 -15 -16
leaf_value=0.021078864650552382 0.026237655390563316 -0.017243317707525414 -0.030966045517458553 0.015625264145773771 0.0057235647775892712 -0.020539571285598999 -0.024773777220283656 -0.023868926705531129 -0.014835506204643467 -0.028297433139399548 0.020008661485949424 -0.022353867287442077 0.0154555520790443 0.017912057431774306 -0.0022997706806653141
leaf_count=9 17 17 7 60 22 95 311 12 15 66 6 113 34 18 68
internal_value=0 0.147352 0.0941407 0.128459 -0.0713838 -0.0986042 -0.188511 -0.0579292 -0.0296909 -0.0647411 -0.0173764 -0.148113 0.0908887 0.112203 0.0356117
internal_count=870 101 84 67 769 692 333 359 264 234 168 119 49 30 77
shrinkage=0.1


Tree=23
num_leaves=16
num_cat=0
split_feature=7 6 11 9 0 0 6 8 0 4 1 3 7 4 3
split_gain=13.942 2.78366 2.33978 3.40859 3.32882 3.17832 2.56779 2.41001 2.24346 2.18265 2.10102 2.01271 2.01176 2.37743 1.91213
threshold=0.58570000000000011 0.27680349254285458 0.43395000000000006 0.46160000000000007 0.074194183500000024 0.11691208950000001 0.14293955701560015 0.49405000000000004 0.054990520500000008 0.209926945 4877.0000000000009 18.083818236797747 0.34845000000000004 0.18310882150000005 19.095117263843651
decision_type=2 2 2 2 2 2 2 2 2 2 2 2 2 2 2
left_child=1 11 3 -2 8 -5 -6 -8 9 -4 -9 12 13 -1 -7
right_child=2 -3 4 5 6 14 7 10 -10 -11 -12 -13 -14 -15 -16
leaf_value=-0.013157779958933106 -0.026074130215210496 0.020112420111488304 -0.026264600675877176 -0.032452160654978413 -0.027550684472892883 0.00094437544747194438 0.0038227517044576624 0.0074098800698527536 0.014561280860570642 0.0065354242259834452 -0.017943689987354763 -0.029318608840878058 -0.00037306898054939456 0.026057616743461267 0.023973019363841858
leaf_count=10 41 40 49 23 178 47 53 24 27 18 278 9 50 10 13
internal_value=0 0.130474 -0.0774558 0.0181344 -0.105731 0.0799863 -0.144834 -0.106394 0.0216946 -0.0937141 -0.148582 0.0538057 0.0773409 0.184854 0.128566
internal_count=870 119 751 124 627 83 533 355 94 67 302 79 70 20 60
shrinkage=0.1


Tree=24
num_leaves=16
num_cat=0
split_feature=12 0 11 0 10 2 4 2 8 0 2 11 11 9 4
split_gain=12.333 3.86191 3.45635 3.19741 2.69893 3.22243 2.46553 2.24264 2.23762 2.18786 2.01948 2.17533 2.69496 2.56212 1.84397
threshold=0.052550000000000006 0.23008589700000001 0.43395000000000006 0.062927734000000013 0.34655000000000008 528.50000000000011 0.19541213500000001 1088.5000000000002 0.55035000000000012 0.054990520500000008 561.00000000000011 0.65085000000000004 0.60750000000000004 0.5303000000000001 0.21930847100000003
decision_type=2 2 2 2 2 2 2 2 2 2 2 2 2 2 2
left_child=1 7 4 9 5 -2 10 -1 -9 14 11 12 13 -5 -4
right_child=2 -3 3 6 -6 -7 -8 8 -10 -11 -12 -13 -14 -15 -16
leaf_value=-0.015378479307676282 0.01277535369491218 0.018027482823306431 -0.02563690238954874 0.014150539784092316 0.013197110009501974 -0.027642076329105748 -0.028939539681606757 -0.0083769310663794668 0.016343852429861437 0.01789685214417085 -0.01836864660375586 -0.034745233763580463 0.019426805929455764 -0.029939763234862651 0.0073464973351487373
leaf_count=62 10 58 45 7 44 54 183 42 38 14 245 15 11 27 15
internal_value=0 0.112939 -0.0842772 -0.124687 0.0309914 -0.107774 -0.164628 0.00936 0.0723737 0.021022 -0.118801 -0.0201131 0.0330079 -0.122257 -0.0961686
internal_count=870 200 670 562 108 64 488 142 80 74 305 60 45 34 60
shrinkage=0.1


Tree=25
num_leaves=16
num_cat=0
split_feature=7 12 7 5 0 3 8 6 4 8 11 0 2 3 11
split_gain=11.2441 2.56644 3.29324 2.67971 2.4449 2.19641 2.17431 1.80238 1.73166 2.83419 1.4188 1.43851 2.32836 2.71839 2.00781
threshold=0.70715000000000006 0.045250000000000005 0.96875000000000011 0.35897947050000006 0.33280894700000002 4.1137130461346256 0.45180000000000003 0.077372854138387112 0.12121856800000001 0.63924999999999998 0.68080000000000018 0.062927734000000013 561.00000000000011 4.4667100072131376 0.65085000000000004
decision_type=2 2 2 2 2 2 2 2 2 2 2 2 2 2 2
left_child=4 3 -3 -2 6 -4 -1 -7 -8 -10 11 -9 14 -14 -13
right_child=1 2 5 -5 -6 7 8 10 9 -11 -12 12 13 -15 -16
leaf_value=0.016604776129368521 -0.010308723849571324 -0.023116309749276587 -0.025735561483720377 0.02014949093890633 0.020818798925394288 -0.021484947343018236 0.010965483600264657 0.013658397262846331 -0.019805174017083024 0.011635627771297318 -0.02811635984667505 0.007741622039304754 0.019540902764887947 -0.025043231956195039 -0.032848386937604106
leaf_count=28 57 303 82 17 26 67 21 20 51 17 20 50 6 90 15
internal_value=0 -0.0818706 -0.108666 0.0542875 0.113371 -0.0629263 0.0626106 -0.0365299 -0.000923557 -0.077328 -0.00970563 0.00625163 -0.0294269 -0.161816 0.0429881
internal_count=870 727 653 74 143 350 117 268 89 68 201 181 161 96 65
shrinkage=0.1


Tree=26
num_leaves=16
num_cat=0
split_feature=7 6 6 10 3 10 12 12 1 2 0 3 3 6 12
split_gain=9.88995 2.10966 1.73494 2.3678 1.78263 1.58894 1.63283 1.50391 1.38464 1.35976 1.49691 1.33819 1.99748 1.84347 1.3421
threshold=0.58570000000000011 0.27680349254285458 0.115583681081497 0.60420000000000007 3.9515942028985509 0.58630000000000015 0.035050000000000005 0.05290000000000001 15497.500000000002 2112.0000000000005 0.18506507350000004 4.6183454975500808 7.3650019776780349 0.52496656171906475 0.46625000000000005
decision_type=2 2 2 2 2 2 2 2 2 2 2 2 2 2 2
left_child=1 5 -2 4 -4 6 -1 8 -3 -7 -11 14 -13 -14 -6
right_child=2 7 3 -5 11 9 -8 -9 -10 10 -12 12 13 -15 -16
leaf_value=0.018875663722716169 -0.016902814315746535 0.0062444956990100661 -0.023382156273863336 -0.021749024960014018 0.022663463831380553 -0.022918856046067335 -0.0039632322865059922 0.0030816292489281895 0.027776241498415285 -0.022682976003031104 0.01992277084549858 -0.023277066594015787 0.0034566967127603199 -0.014653971102934916 -0.031585718246487086
leaf_count=19 229 9 61 104 13 20 27 15 16 8 5 62 197 76 9
internal_value=0 0.119885 -0.0726078 -0.0471793 -0.0223504 0.0469621 0.108865 0.18739 0.230549 -0.0776321 0.0535734 -0.00510115 -0.0228373 0.000457231 0.161881
internal_count=870 119 751 522 418 79 46 40 25 33 13 357 335 273 22
shrinkage=0.1


Tree=27
num_leaves=16
num_cat=0
split_feature=0 12 4 1 7 6 3 0 0 12 0 4 3 6 7
split_gain=9.08931 2.08534 1.7445 1.98287 1.6817 1.77773 1.57939 1.59191 1.62447 1.54336 1.50606 1.46257 2.69183 1.64279 1.39425
threshold=0.23008589700000001 0.020900000000000005 0.076600252500000007 11801.500000000002 0.70715000000000006 0.072426454303728141 4.1137130461346256 0.14335971750000001 0.19751850800000001 0.044550000000000006 0.17481504 0.16308893000000005 27.74280534971507 0.70307111879899475 0.96875000000000011
decision_type=2 2 2 2 2 2 2 2 2 2 2 2 2 2 2
left_child=4 -2 -3 -4 -1 -6 -7 11 9 10 -9 12 13 -8 -10
right_child=1 2 3 -5 5 6 7 8 14 -11 -12 -13 -14 -15 -16
leaf_value=0.0030636439104839274 0.024963672687835201 -0.028531132823030849 -0.014998613945999374 0.013595259233149602 -0.021473256631041826 -0.021898803047745503 -0.02869769248951537 0.021096169063478463 -0.021076804821931337 -0.024850033935744968 -0.030916956564339543 0.0097613033306218674 0.0060742078535957929 0.013619539497822054 0.011540246569977567
leaf_count=77 17 7 17 60 173 101 86 6 41 150 14 63 37 5 16
internal_value=0 0.133219 0.0816067 0.101379 -0.0633707 -0.0878898 -0.0636699 -0.0427418 -0.116061 -0.186925 0.033733 0.00796415 -0.0564857 -0.212413 0.0148871
internal_count=870 101 84 77 769 692 519 418 227 170 20 191 128 91 57
shrinkage=0.1


Tree=28
num_leaves=16
num_cat=0
split_feature=7 0 12 2 8 8 5 0 4 7 7 6 12 8 3
split_gain=8.10083 1.74558 1.50209 2.20087 1.87099 1.7502 2.46522 1.72723 1.5266 1.44811 1.42062 1.68813 1.79283 1.2853 1.16096
threshold=0.58570000000000011 0.15602046600000002 0.051350000000000007 704.50000000000011 0.58710000000000018 0.59270000000000012 0.46510340150000001 0.044820842000000007 0.19541213500000001 0.70715000000000006 0.29285000000000005 0.27680349254285458 0.058700000000000009 0.60585000000000011 1.7531070440202967
decision_type=2 2 2 2 2 2 2 2 2 2 2 2 2 2 2
left_child=1 -1 4 8 -2 6 7 -5 -4 -9 -3 14 -13 -6 -12
right_child=2 10 3 5 13 -7 -8 9 -10 -11 11 12 -14 -15 -16
leaf_value=-0.0066608925205104046 -0.010777170061305335 0.025364998379652823 0.0024162101263937321 0.0075472094412053535 0.025524985335300746 -0.026519954348749639 0.021947170464563671 0.0093394271071800226 -0.016592631779613953 -0.02328907502541977 0.019791711003083724 0.02327192484557784 -0.0050712758335613633 -0.00028094530206549111 -0.0046337677379402987
leaf_count=35 71 13 96 20 9 191 7 6 72 247 5 16 10 32 40
internal_value=0 0.115815 -0.0687847 -0.0942631 0.0236253 -0.155296 -0.0964996 -0.140716 -0.0221557 -0.192331 0.141069 0.103156 0.176071 0.126896 0.0101696
internal_count=870 119 751 639 112 471 280 273 168 253 84 71 26 41 45
shrinkage=0.1


Tree=29
num_leaves=16
num_cat=0
split_feature=0 12 11 8 8 6 10 0 0 8 4 12 4 12 2
split_gain=7.3142 1.69303 1.59805 1.9097 2.42542 1.83731 1.58063 1.53316 1.44658 1.46001 2.90427 1.39763 1.49218 1.28968 1.35759
threshold=0.23008589700000001 0.020900000000000005 0.45300000000000001 0.65575000000000006 0.63924999999999998 0.077372854138387112 0.093300000000000022 0.11691208950000001 0.12531495000000001 0.49650000000000005 0.16308893000000005 0.028400000000000005 0.076600252500000007 0.057600000000000005 880.00000000000011
decision_type=2 2 2 2 2 2 2 2 2 2 2 2 2 2 2
left_child=2 -2 7 4 5 -4 -6 -1 9 -7 -11 -3 -13 -14 -15
right_child=1 11 3 -5 6 8 -8 -9 -10 10 -12 12 13 14 -16
leaf_value=-0.024142403730280166 0.024238124047666593 -0.022829183502777795 -0.025303288602182467 -0.02662722917360066 0.02247878491966494 0.020303032567463533 -0.031799562294370552 0.0048482964006772798 -0.012352600005397174 -0.023567326319663538 0.010705462438709953 -0.026499829374216379 0.017614997267269634 0.012787227211872429 -0.017982335533518454
leaf_count=32 17 7 126 98 15 10 13 125 240 73 37 7 31 10 29
internal_value=0 0.127923 -0.0594892 -0.0911303 -0.0676787 -0.0948032 0.150392 0.0174963 -0.0629625 0.0157142 -0.0433125 0.079439 0.100632 0.120987 -0.00211345
internal_count=870 101 769 612 514 486 28 157 360 120 110 84 77 70 39
shrinkage=0.1


Tree=30
num_leaves=16
num_cat=0
split_feature=7 3 12 3 4 4 11 0 1 12 10 11 11 7 3
split_gain=6.75859 1.6319 1.27245 1.47395 2.48283 2.9867 1.57889 1.32767 1.42005 1.23788 1.47186 1.46561 1.49592 1.23399 1.29875
threshold=0.58570000000000011 58.462771241181535 0.029750000000000002 21.407246507874678 0.12121856800000001 0.099355083000000011 0.65085000000000004 0.062927734000000013 8313.5000000000018 0.033550000000000003 0.60420000000000007 0.34845000000000009 0.45055000000000006 0.96875000000000011 14.032995019199735
decision_type=2 2 2 2 2 2 2 2 2 2 2 2 2 2 2
left_child=1 9 -2 7 5 -5 -7 8 -4 10 -1 -11 -13 -10 -15
right_child=2 -3 3 4 -6 6 -8 -9 13 11 -12 12 -14 14 -16
leaf_value=0.020626910928423527 0.0067504246067777111 0.025866276952985157 -0.026857597408646051 -0.0091639528445964218 -0.020030766863031638 0.024220027515412416 -0.031205465996534867 -0.015967885386865603 -0.015993642939557313 -0.033729225973498221 -0.0069781313445787738 0.012751121805280026 -0.0085533580386766145 0.024255450074646752 -0.022433872072623529
leaf_count=25 41 9 30 59 83 16 8 466 33 5 10 30 40 9 6
internal_value=0 0.112548 -0.0657838 -0.0823545 -0.0134976 0.0551922 0.198975 -0.12413 -0.00702437 0.0793806 0.153174 0.0182566 0.0457179 0.0660796 0.16014
internal_count=870 119 751 710 166 83 24 544 78 110 35 75 70 48 15
shrinkage=0.1


Tree=31
num_leaves=16
num_cat=0
split_feature=0 11 8 8 5 5 6 0 12 10 12 1 4 12 2
split_gain=6.28589 2.16906 1.47199 1.85813 1.57076 1.51818 1.62478 1.43325 1.23401 1.20716 1.13135 1.22944 1.12802 1.02847 1.17753
threshold=0.25117760250000004 0.43195000000000006 0.65575000000000006 0.63924999999999998 0.35897947050000006 0.29238723000000005 0.21533836658188424 0.11691208950000001 0.2960000000000001 0.093300000000000022 0.020900000000000005 11801.500000000002 0.076600252500000007 0.052550000000000006 1088.5000000000002
decision_type=2 2 2 2 2 2 2 2 2 2 2 2 2 2 2
left_child=1 7 3 4 5 6 -3 -1 -8 -5 -2 -12 -13 14 -6
right_child=10 2 -4 9 13 -7 8 -9 -10 -11 11 12 -14 -15 -16
leaf_value=-0.022561985555371578 0.024519794482517808 -0.018799925776146288 -0.024233702572240792 0.018996814823680343 -0.027592463884554455 -0.024696705811882758 0.0061512171610175167 0.00805472898689597 -0.026767092806474432 -0.031328728602738914 -0.012855989668722902 -0.022964130260032609 0.015039047048867922 -0.0074542349977586688 0.016946159125919256
leaf_count=30 15 148 106 16 10 167 62 102 20 13 15 6 41 100 19
internal_value=0 -0.0520525 -0.0865314 -0.0663235 -0.0894484 -0.135702 -0.0802203 0.048029 0.0116434 0.127836 0.140063 0.0939984 0.128007 0.00238423 0.110317
internal_count=870 793 661 555 526 397 230 132 82 29 77 62 47 129 29
shrinkage=0.1


Tree=32
num_leaves=16
num_cat=0
split_feature=7 0 8 12 7 6 6 11 12 8 9 6 11 6 6
split_gain=5.86081 1.5334 1.51964 1.35128 1.9358 1.15029 1.52828 2.10482 1.52901 1.36566 1.29237 1.47507 1.31557 1.17831 1.15675
threshold=0.70715000000000006 0.33280894700000002 0.45180000000000003 0.029750000000000002 0.96875000000000011 0.35631198456018803 0.39979260179237408 0.47185000000000005 0.37815000000000004 0.51700000000000013 0.6351500000000001 0.22465207273362117 0.65745000000000009 0.039813888354833252 0.48845904781213811
decision_type=2 2 2 2 2 2 2 2 2 2 2 2 2 2 2
left_child=1 2 -1 -2 -5 10 -7 9 14 -8 -6 12 13 -12 -9
right_child=3 -3 -4 4 5 6 7 8 -10 -11 11 -13 -14 -15 -16
leaf_value=0.015933668688550895 0.0083776440112682538 0.019849559701088329 -0.00085770605833273216 -0.019791945451950552 -0.020881290389797455 0.02297915280205402 -0.033246648434379432 -0.031626764308410049 -0.030815026918551976 0.020220786545995961 -0.030073743809835237 -0.029591075930273204 -0.015700402384442896 0.017178212932756936 0.0073513184419541668
leaf_count=28 36 26 89 333 125 9 6 17 43 15 16 32 45 27 23
internal_value=0 0.100723 0.0544279 -0.071038 -0.0892096 -0.0477859 0.0168382 -0.0322735 -0.136478 0.137833 -0.104971 -0.0296069 0.0282781 0.118608 -0.0155231
internal_count=870 143 117 727 691 358 113 104 83 21 245 120 88 43 40
shrinkage=0.1


Tree=33
num_leaves=16
num_cat=0
split_feature=7 3 12 2 5 8 5 0 0 3 5 12 8 10 4
split_gain=5.2552 1.4632 1.27348 1.66881 1.40077 1.13811 2.14159 1.33097 0.927137 0.916038 0.908069 0.867986 0.811363 1.67468 1.40714
threshold=0.70715000000000006 58.462771241181535 0.045250000000000005 704.50000000000011 0.35897947050000006 0.6190500000000001 0.46510340150000001 0.044820842000000007 0.054990520500000008 8.0405517520549861 0.35897947050000006 0.020900000000000005 0.63924999999999998 0.31145000000000006 0.17294456550000004
decision_type=2 2 2 2 2 2 2 2 2 2 2 2 2 2 2
left_child=1 10 4 8 -2 6 7 9 -4 -5 11 -1 14 -14 -10
right_child=2 -3 3 5 -6 -7 -8 -9 12 -11 -12 -13 13 -15 -16
leaf_value=0.019691161997374303 -0.0090461089599096402 0.025062752865099621 -0.030034156325067941 -0.032254734726083742 0.018038682400267139 -0.028980686740982083 0.019186490722778424 -0.020959485844994703 0.001457544776835679 0.015133113421587791 -0.0062081058702634717 0.0056681467024177418 0.018996267384255638 -0.030723881111018189 -0.023230756697183094
leaf_count=16 57 9 20 12 17 141 9 303 63 12 32 86 15 14 64
internal_value=0 0.0967563 -0.0695815 -0.0934059 0.0481435 -0.156912 -0.113537 -0.160645 -0.023819 0.0501943 0.0676339 0.0931309 -0.00521152 0.105044 -0.0488001
internal_count=870 143 727 653 74 477 336 327 176 24 134 102 156 29 127
shrinkage=0.1


Tree=34
num_leaves=16
num_cat=0
split_feature=0 11 8 8 5 8 0 4 0 8 12 10 1 10 6
split_gain=4.79355 1.77259 1.07074 1.38839 1.26922 1.17454 1.64619 1.26895 1.01868 0.94307 0.918688 0.911387 0.892264 0.904962 0.883396
threshold=0.25117760250000004 0.43195000000000006 0.65575000000000006 0.63924999999999998 0.35897947050000006 0.49405000000000004 0.056584752500000009 0.10477905750000001 0.11691208950000001 0.58020000000000016 0.020900000000000005 0.093300000000000022 11801.500000000002 0.38900000000000007 0.52496656171906475
decision_type=2 2 2 2 2 2 2 2 2 2 2 2 2 2 2
left_child=1 8 3 4 5 7 9 -3 -1 -7 -2 -5 -12 -14 -10
right_child=10 2 -4 11 -6 6 -8 -9 14 -11 12 -13 13 -15 -16
leaf_value=-0.020657529174341289 0.02359484982786491 0.016449842124485949 -0.02300300501366135 0.017906999602792736 0.0002236643224218122 -0.01642306185319457 -0.023459880055578378 -0.013285989097635549 0.010207516842750862 0.016439839228624801 -0.01164622622284173 -0.030673184032705521 -0.0049155587994476274 0.016261627795685362 -0.01866692369091064
leaf_count=30 15 14 106 16 129 22 288 58 86 15 15 13 16 31 16
internal_value=0 -0.0489619 -0.0829852 -0.0647838 -0.0858461 -0.130926 -0.177541 -0.0117546 0.0472425 0.0122933 0.131823 0.120381 0.0879591 0.118801 0.0756089
internal_count=870 793 661 555 526 397 325 72 132 37 77 29 62 47 102
shrinkage=0.1


Tree=35
num_leaves=16
num_cat=0
split_feature=7 9 2 10 6 10 9 11 0 6 8 0 3 3 4
split_gain=4.40638 1.96403 1.04331 0.867809 0.816322 1.25423 0.81271 1.25372 1.18218 1.26521 1.07376 1.23426 1.14881 1.26092 0.94428
threshold=0.58570000000000011 0.70760000000000012 1987.5000000000002 1.0000000180025095e-35 0.27913720241177226 0.58630000000000015 0.45480000000000004 0.43395000000000006 0.11691208950000001 0.52496656171906475 0.49405000000000004 0.074194183500000024 6.131402653265476 14.032995019199735 0.10477905750000001
decision_type=2 2 2 2 2 2 2 2 2 2 2 2 2 2 2
left_child=1 3 -3 -1 5 -5 -2 8 -8 -10 14 12 -12 -14 -9
right_child=6 2 -4 4 -6 -7 7 10 9 -11 11 -13 13 -15 -16
leaf_value=-0.024146071009853956 -0.024547481953932637 -0.028967346928096788 0.014530239678138749 0.015316905407283511 0.019827324052268648 -0.0061911446046830475 -0.030707263468006892 0.017162109879213076 0.012455584784930369 -0.035967619961164071 -0.029691512240824731 -0.01467008087486471 0.016051748918133994 -0.012298602991230322 -0.0075849420226650997
leaf_count=6 47 16 5 34 32 26 23 19 53 9 32 451 28 32 57
internal_value=0 0.100915 -0.15905 0.128832 0.138422 0.0811656 -0.0604307 -0.0507123 0.0540147 0.0902803 -0.0785932 -0.105184 0.00206313 0.051732 0.0404913
internal_count=870 119 21 98 92 60 751 704 85 62 619 543 92 60 76
shrinkage=0.1


Tree=36
num_leaves=16
num_cat=0
split_feature=7 3 11 3 6 4 9 12 5 8 11 0 9 11 0
split_gain=4.12266 1.01691 0.776838 0.850288 1.0392 1.12842 0.922955 0.832885 1.42502 1.40531 0.754207 1.5046 2.22843 1.15762 1.07353
threshold=0.58570000000000011 58.462771241181535 0.6856000000000001 7.3650019776780349 0.52496656171906475 0.24984239550000001 0.45480000000000004 0.051350000000000007 0.46510340150000001 0.63280000000000014 0.43395000000000006 0.13308095500000003 0.52385000000000015 0.60750000000000004 0.13888982200000002
decision_type=2 2 2 2 2 2 2 2 2 2 2 2 2 2 2
left_child=1 -1 3 7 5 6 -5 -2 -9 -10 14 13 -13 -12 -8
right_child=2 -3 -4 4 -6 -7 10 8 9 -11 11 12 -14 -15 -16
leaf_value=0.0073244242534902795 0.0017938066198695448 0.024033453733392763 -0.026341678238768696 -0.028200615664722473 -0.015190273783414393 -0.019210397477779376 -0.022021714551463456 -0.025339431833476735 0.019988966636542919 -0.029538821295380997 -0.0083446455742901583 0.012394768835405275 -0.023207349540343401 0.016104983513042053 0.019247751744233686
leaf_count=110 35 9 29 18 88 68 13 225 8 17 46 35 106 41 22
internal_value=0 0.102738 -0.0574023 -0.0489944 -0.0216016 0.0039453 0.0259972 -0.121031 -0.171517 0.0283521 0.0387692 0.00544908 -0.0998428 0.0899157 0.139245
internal_count=870 119 751 722 437 349 281 285 250 25 263 228 141 87 35
shrinkage=0.1


Tree=37
num_leaves=16
num_cat=0
split_feature=7 0 8 3 5 8 12 0 0 4 11 2 3 3 6
split_gain=3.78221 1.07848 1.15882 0.995644 1.10111 0.896406 0.796884 0.606255 1.40941 0.770803 0.703558 0.651 0.648177 1.30233 1.12681
threshold=0.70715000000000006 0.33280894700000002 0.45180000000000003 7.3650019776780349 0.42860172600000007 0.6190500000000001 0.026000000000000006 0.19751850800000001 0.14335971750000001 0.099355083000000011 0.48240000000000005 528.50000000000011 13.943547486862391 27.74280534971507 0.2274107675527843
decision_type=2 2 2 2 2 2 2 2 2 2 2 2 2 2 2
left_child=1 2 -1 4 6 -6 -2 8 12 -9 11 -11 14 -14 -5
right_child=3 -3 -4 7 5 -7 -8 9 -10 10 -12 -13 13 -15 -16
leaf_value=0.014836941426874832 0.004055696277638735 0.018211662969424509 -0.0012879929087387949 0.013671781405231976 0.0098452532200275292 -0.027890967523324886 -0.026277869544333428 -0.011610876945607798 -0.019178938055252163 -0.030599352872208094 -0.0064919262529373571 0.023401281823740114 -0.024878503369899503 0.001722832243143711 -0.02005165183013341
leaf_count=28 6 26 89 49 23 21 240 35 158 5 30 12 65 54 29
internal_value=0 0.0889527 0.0470899 -0.0648105 -0.14847 0.00199792 -0.219194 -0.0334532 -0.0605199 0.0476833 0.115831 0.19565 -0.00865268 -0.0646431 0.0693686
internal_count=870 143 117 727 290 44 246 437 355 82 47 17 197 119 78
shrinkage=0.1


Tree=38
num_leaves=16
num_cat=0
split_feature=12 1 10 7 2 8 5 4 3 0 7 7 9 1 11
split_gain=3.48455 1.70084 1.25352 1.02817 0.894124 1.07544 0.901319 0.798002 0.708472 0.683205 0.849549 0.688263 0.682044 0.654002 0.973059
threshold=0.052550000000000006 23053.000000000004 0.58630000000000015 0.34845000000000004 704.50000000000011 0.59270000000000012 0.46510340150000001 0.19541213500000001 107.93617345696792 0.044820842000000007 0.81665000000000021 0.55400000000000016 0.46355000000000007 14115.000000000002 0.66435000000000011
decision_type=2 2 2 2 2 2 2 2 2 2 2 2 2 2 2
left_child=1 2 -1 -2 7 6 9 13 -3 -6 11 -11 -13 14 -5
right_child=3 8 -4 4 5 -7 -8 -9 -10 10 -12 12 -14 -15 -16
leaf_value=0.0086316556044889487 0.016657811749573644 0.024736580830102224 -0.0095390772692348462 0.017554870973414762 0.0069857817579739292 -0.024369696079467668 0.017801376240261877 -0.015122256264799658 -0.0091050672891480038 -0.018023736873727759 -0.021276639685702127 -0.022583952569341009 0.015191013588127612 -0.0035669030556632468 -0.030381261927408788
leaf_count=110 12 23 60 22 20 191 7 71 7 15 230 7 19 64 12
internal_value=0 0.086687 0.0373105 -0.0642312 -0.0766235 -0.122137 -0.0757075 -0.0190387 0.216015 -0.101472 -0.133329 -0.0320028 0.0681008 0.0210468 0.120832
internal_count=870 200 170 670 658 489 298 169 30 291 271 41 26 98 34
shrinkage=0.1


Tree=39
num_leaves=16
num_cat=0
split_feature=0 12 1 7 6 3 3 6 10 3 3 12 6 1 3
split_gain=3.17184 0.939103 0.823013 0.68667 0.699036 0.633219 0.576965 0.707158 0.574869 1.03018 1.05739 0.889509 0.63372 0.605312 1.43083
threshold=0.23008589700000001 0.057600000000000005 23053.000000000004 0.70715000000000006 0.072426454303728141 3.9515942028985509 1.3830219780219781 0.16725186106520504 0.53875000000000017 12.824408347206409 13.943547486862391 0.55715000000000015 0.48845904781213811 16586.000000000004 41.362023485364197
decision_type=2 2 2 2 2 2 2 2 2 2 2 2 2 2 2
left_child=3 2 -2 6 -5 -6 -1 -8 13 -10 -11 12 -12 -7 -15
right_child=1 -3 -4 4 5 8 7 -9 9 10 11 -13 -14 14 -16
leaf_value=0.017013770629547623 0.0089936864278849782 -0.0026223840564690922 0.024681023327612656 -0.018155324185068003 -0.019352892277910837 0.0058430820140570987 -0.013979019693127554 0.0061827215562481157 -0.024189681780291107 0.023421513893995816 -0.014216308335131933 -0.027350486390017689 0.010732507406029027 -0.025157170819139166 0.0087638036236737556
leaf_count=9 43 42 16 173 96 123 35 33 103 8 49 23 30 66 21
internal_value=0 0.107689 0.145053 -0.0492389 -0.0716099 -0.0514867 0.0255369 -0.0166736 -0.0347951 -0.0912218 -0.0247462 -0.0819615 -0.00251244 0.00783324 -0.0800397
internal_count=870 101 59 769 692 519 77 68 423 213 110 102 79 210 87
shrinkage=0.1


Tree=40
num_leaves=16
num_cat=0
split_feature=7 0 8 3 5 12 8 8 5 9 8 12 7 0 0
split_gain=2.9362 0.897511 0.859191 0.769627 0.826047 0.731695 0.616692 0.567794 0.543978 0.605555 0.503067 0.507067 0.73095 0.701774 1.48586
threshold=0.70715000000000006 0.33280894700000002 0.45180000000000003 7.3650019776780349 0.42860172600000007 0.026000000000000006 0.6190500000000001 0.52215000000000011 0.23320458150000004 0.68620000000000014 0.71995000000000009 0.029750000000000002 0.96875000000000011 0.19291247500000003 0.14335971750000001
decision_type=2 2 2 2 2 2 2 2 2 2 2 2 2 2 2
left_child=1 2 -1 4 5 -2 -6 -4 -9 -10 11 -5 -13 14 -14
right_child=3 -3 7 10 6 -7 -8 8 9 -11 -12 12 13 -15 -16
leaf_value=0.013691941719525799 0.0052185951672074305 0.017422480045599664 -0.010311407893458486 0.011400618262716856 0.0085203857716849886 -0.025523268259664719 -0.026463645451566362 0.019654964589913407 0.0053993392432727036 -0.020415536220335668 -0.027688159899020345 -0.014266886629869538 0.0013093508632946033 0.012616659139110512 -0.026619256422062872
leaf_count=28 6 26 39 20 23 240 21 8 24 18 30 193 109 19 66
internal_value=0 0.0827061 0.0427384 -0.0619802 -0.142323 -0.208294 0.000939965 -0.0106781 0.0456876 -0.00757633 -0.0327235 -0.0241391 -0.0399695 -0.00575595 -0.0398464
internal_count=870 143 117 727 290 246 44 89 50 42 437 407 387 194 175
shrinkage=0.1


Tree=41
num_leaves=16
num_cat=0
split_feature=0 12 6 12 1 3 1 7 1 3 8 3 0 12 3
split_gain=2.66098 0.875311 0.820147 0.895288 0.738231 0.591067 0.785921 1.0439 0.850555 0.844713 1.07842 0.978517 0.592862 0.564185 0.874736
threshold=0.23008589700000001 0.020900000000000005 0.57712476840190552 0.028400000000000005 11801.500000000002 62.529706720977607 16586.000000000004 0.44095000000000006 23053.000000000004 24.301822341557969 0.56500000000000006 13.761331280474494 0.17596866300000005 0.071600000000000011 12.824408347206409
decision_type=2 2 2 2 2 2 2 2 2 2 2 2 2 2 2
left_child=5 -2 3 -3 -5 6 7 -1 -8 11 -11 12 13 -9 -15
right_child=1 2 -4 4 -6 -7 8 9 -10 10 -12 -13 -14 14 -16
leaf_value=0.022541160420506197 0.021614967438576826 -0.022654035280492389 -0.01512651203362376 -0.011087511018844943 0.014468076578603127 0.0071105861672722849 -0.026390282232608964 0.0045990712070495465 -0.0058529326377712793 0.018917502151495926 -0.023618607183850105 -0.026418347329738287 -0.018707473897931769 -0.011249185834219315 0.018537541924403805
leaf_count=6 17 7 9 15 53 30 101 93 113 16 15 70 75 239 11
internal_value=0 0.100798 0.0581306 0.0882998 0.113359 -0.047641 -0.0608692 -0.0335125 -0.145723 -0.0492598 0.0952518 -0.0734793 -0.048656 -0.0252379 -0.075872
internal_count=870 101 84 75 68 769 739 525 214 519 31 488 418 343 250
shrinkage=0.1


Tree=42
num_leaves=16
num_cat=0
split_feature=7 3 6 6 3 7 4 3 5 12 12 8 8 9 11
split_gain=2.53112 0.933089 0.74909 0.726937 0.695206 0.708965 0.879663 0.66493 0.727289 0.641413 0.605117 0.519294 0.437517 0.434317 0.512213
threshold=0.70715000000000006 58.462771241181535 0.59711284323788083 0.27680349254285458 18.083818236797747 0.34845000000000004 0.18310882150000005 7.3650019776780349 0.42860172600000007 0.05290000000000001 0.026000000000000006 0.6190500000000001 0.71995000000000009 0.45480000000000004 0.47680000000000006
decision_type=2 2 2 2 2 2 2 2 2 2 2 2 2 2 2
left_child=1 2 3 4 5 6 -1 8 10 -5 -2 -10 13 -9 -15
right_child=7 -3 -4 9 -6 -7 -8 12 11 -11 -12 -13 -14 14 -16
leaf_value=-0.014908841160040154 0.0039071308550755988 0.023595614423099896 -0.024641044149986441 0.020384846208776529 -0.027179189239151254 -0.0025213918012313347 0.023290722935459928 -0.023968119465042841 0.0077677261093313582 0.0009192775264500599 -0.025003586052285198 -0.025825982838232377 -0.027383056906498213 0.0059622404583557437 -0.0047890811820846787
leaf_count=10 6 9 6 20 10 60 10 28 23 18 240 21 30 90 289
internal_value=0 0.0797523 0.0534664 0.0663083 0.0138608 0.0361176 0.150067 -0.0599039 -0.138119 0.140614 -0.204037 -0.000143522 -0.0318049 -0.0236834 -0.0143467
internal_count=870 143 134 128 90 80 20 727 290 38 246 44 437 407 379
shrinkage=0.1


Tree=43
num_leaves=16
num_cat=0
split_feature=7 3 3 5 12 12 12 4 12 11 11 7 0 8 6
split_gain=2.31382 0.803785 0.66849 0.677647 0.554015 0.549882 0.684768 0.606426 0.570039 0.652643 0.659276 0.568845 0.591903 0.448114 0.418203
threshold=0.70715000000000006 58.462771241181535 7.3650019776780349 0.42860172600000007 0.026000000000000006 0.020900000000000005 0.029750000000000002 0.085576386000000018 0.032750000000000008 0.34845000000000009 0.6020000000000002 0.24875000000000003 0.29252109350000005 0.6190500000000001 0.039813888354833252
decision_type=2 2 2 2 2 2 2 2 2 2 2 2 2 2 2
left_child=1 5 3 4 -2 11 -7 -8 -9 -10 -11 -1 -13 -5 -4
right_child=2 -3 14 13 -6 6 7 8 9 10 -12 12 -14 -15 -16
leaf_value=0.029383838786684241 0.0032036523921802362 0.022895131223785007 -0.018312340320717213 0.0070140844927216797 -0.024802994232977379 -0.023306903980340656 -0.02196205839342991 0.025228954325102984 -0.031696437807541146 0.0094685212086386642 -0.010058179864468105 -0.014036604908567802 0.017084225021119424 -0.025321580130712031 -0.0016814679917345702
leaf_count=6 6 9 62 23 240 10 7 5 5 54 31 8 8 21 375
internal_value=0 0.0791689 -0.0571703 -0.137549 -0.20253 0.0541352 0.0234824 0.0425755 0.0603515 0.0359782 0.0530808 0.151806 0.0605192 -0.00163117 -0.0291538
internal_count=870 143 727 290 246 134 112 102 95 90 85 22 16 44 437
shrinkage=0.1


Tree=44
num_leaves=16
num_cat=0
split_feature=0 7 12 0 6 1 1 0 3 10 3 11 10 8 3
split_gain=2.16311 0.673703 0.617327 0.52856 0.526757 0.668769 0.470684 0.823351 0.461088 0.526352 0.430297 0.611621 0.422712 0.397969 0.361509
threshold=0.25117760250000004 0.34845000000000004 0.020900000000000005 0.153463184 0.115583681081497 9416.5000000000018 15497.500000000002 0.26566886100000003 3.9515942028985509 0.62860000000000005 12.824408347206409 0.42695000000000005 0.38900000000000007 0.46685000000000004 15.411303053830229
decision_type=2 2 2 2 2 2 2 2 2 2 2 2 2 2 2
left_child=1 3 -2 -1 5 10 7 -4 -6 -10 11 -3 -8 -13 -12
right_child=2 4 6 -5 8 -7 12 -9 9 -11 14 13 -14 -15 -16
leaf_value=-0.031210392284554047 0.02251894291528762 0.0053898265987876344 0.021889895370166404 0.023252619797957411 -0.016724406454891882 -0.02206537612966265 -0.0038338717570582958 -0.013637969820737089 -0.00059170935604390795 -0.028065061338642623 0.021493089791824425 0.0033308003833178537 0.016288731770214514 -0.028079648501296958 -0.028499210104667039
leaf_count=6 15 24 6 5 88 130 12 22 412 27 5 10 22 78 8
internal_value=0 -0.0392418 0.111784 0.162299 -0.0484004 -0.117045 0.0692992 -0.0308052 -0.0264204 -0.014039 -0.0408162 -0.0908994 0.119743 -0.202107 0.135299
internal_count=870 793 77 11 782 255 62 28 527 439 125 112 34 88 13
shrinkage=0.1


Tree=45
num_leaves=16
num_cat=0
split_feature=7 0 7 6 12 9 9 9 5 1 1 6 6 6 11
split_gain=2.13695 0.61052 0.535067 0.570698 0.924502 0.468063 0.674328 0.592663 0.927292 0.520592 0.487195 0.923249 0.672951 0.601474 0.532757
threshold=0.58570000000000011 0.14292196900000004 0.29285000000000005 0.27680349254285458 0.058700000000000009 0.45480000000000004 0.52355000000000007 0.56555000000000011 0.42860172600000007 16586.000000000004 23053.000000000004 0.38135931229252062 0.115583681081497 0.36645887220117107 0.53655000000000019
decision_type=2 2 2 2 2 2 2 2 2 2 2 2 2 2 2
left_child=1 -1 -3 -4 -5 -2 9 8 -8 -7 11 13 -12 -9 -14
right_child=5 2 3 4 -6 6 7 10 -10 -11 12 -13 14 -15 -16
leaf_value=-0.011486391369245624 -0.02198166236555894 0.022483581983468462 0.00092995983749850377 0.021240052128494745 -0.0074825576435121992 0.0090782218017033279 -0.028179638746499831 -0.0060845683578114066 0.009160815696463832 -0.014283791841564071 -0.029290897561458681 -0.02494694868852183 0.017979110836598582 0.021130066005446587 -0.0017485717936646693
leaf_count=23 47 13 55 18 10 97 96 254 10 34 36 92 15 5 65
internal_value=0 0.0908047 0.108491 0.0787337 0.145518 -0.0494092 -0.0405045 -0.0661512 -0.186094 0.04919 -0.0444752 -0.0794792 0.027615 -0.0376889 0.0608857
internal_count=870 119 96 83 28 751 704 573 106 131 467 351 116 259 80
shrinkage=0.1


Tree=46
num_leaves=16
num_cat=0
split_feature=7 3 3 5 12 10 6 10 9 7 8 12 7 0 5
split_gain=1.93671 0.630446 0.525332 0.56648 0.526685 0.451285 0.571895 0.523073 0.417304 0.397684 0.372986 0.417344 0.579605 0.525968 1.20982
threshold=0.70715000000000006 58.462771241181535 7.3650019776780349 0.42860172600000007 0.026000000000000006 0.58630000000000015 0.45115708452471914 0.33050000000000007 0.73785000000000012 0.34845000000000004 0.71995000000000009 0.029750000000000002 0.96875000000000011 0.19291247500000003 0.33959668750000005
decision_type=2 2 2 2 2 2 2 2 2 2 2 2 2 2 2
left_child=1 5 3 4 -2 6 7 9 -7 -1 11 -4 -13 14 -14
right_child=2 -3 10 -5 -6 8 -8 -9 -10 -11 -12 12 13 -15 -16
leaf_value=0.019348428919511752 0.0045800100367912582 0.022227846038703522 0.011694536434512959 -2.5759746961725216e-05 -0.024250131566971585 0.00054491323185482457 -0.0067206599374269637 0.0199209476959257 -0.031364939270376958 -0.001526686416478267 -0.027170290610143123 -0.013610440939002006 0.0009053306600425873 0.011861474226065434 -0.029063743924086095
leaf_count=9 6 9 20 44 240 41 14 26 12 32 30 193 120 19 55
internal_value=0 0.0788019 -0.0537844 -0.129912 -0.1942 0.055097 0.0914434 0.124655 -0.0229522 0.0464819 -0.0283758 -0.0208479 -0.0361824 -0.00354625 -0.0356829
internal_count=870 143 727 290 246 134 81 67 53 41 437 407 387 194 175
shrinkage=0.1


Tree=47
num_leaves=16
num_cat=0
split_feature=0 12 12 9 10 10 12 8 12 6 8 8 9 3 0
split_gain=1.77352 0.602486 0.531653 0.419588 0.754405 0.671255 0.579608 0.537531 0.79674 0.484368 0.481649 0.773503 0.869933 0.541185 0.434558
threshold=0.22877845600000002 0.020900000000000005 0.028400000000000005 0.53205000000000013 0.33830000000000005 0.093300000000000022 0.038750000000000007 0.63924999999999998 0.11895000000000001 0.018614274110167552 0.61125000000000018 0.58020000000000016 0.6351500000000001 32.486988074012082 0.13666761050000004
decision_type=2 2 2 2 2 2 2 2 2 2 2 2 2 2 2
left_child=3 -2 -3 4 6 7 -1 8 14 -6 11 13 -13 -7 -5
right_child=1 2 -4 5 9 10 -8 -9 -10 -11 -12 12 -14 -15 -16
leaf_value=0.0074558745178690336 0.021197637364313047 -0.021532119037997455 0.0077325867757827545 0.013325965080696967 -0.022574070870378216 -0.020095275228682475 -0.018368416714267814 0.0081218301212029956 -0.028704459668122906 0.010215232404575791 -0.021048477941190989 -0.030424630883985476 0.014412419238177154 0.0012425593376769234 -0.011849716780507832
leaf_count=14 17 7 80 24 12 160 103 66 38 85 148 19 33 22 42
internal_value=0 0.0972759 0.0573385 -0.0413451 0.0105535 -0.0674718 -0.0985431 0.00236077 -0.0802775 0.0772898 -0.114173 -0.0736276 0.0609222 -0.139858 0.0153922
internal_count=870 104 87 766 214 552 117 170 104 97 382 234 52 182 66
shrinkage=0.1


Tree=48
num_leaves=16
num_cat=0
split_feature=12 1 10 9 10 3 5 9 8 9 2 1 3 6 2
split_gain=1.6971 0.806505 0.626018 0.542346 1.35363 0.717061 0.695629 0.632574 0.448488 0.741778 0.468942 0.44053 0.408974 0.361661 0.346673
threshold=0.052550000000000006 23053.000000000004 0.58630000000000015 0.53205000000000013 0.33830000000000005 9.5592552895875524 0.34361232750000004 0.56555000000000011 0.50465000000000015 0.6351500000000001 495.50000000000006 18296.000000000004 107.93617345696792 0.50223462153940057 3051.5000000000005
decision_type=2 2 2 2 2 2 2 2 2 2 2 2 2 2 2
left_child=1 2 -1 4 -2 14 7 -7 -9 -10 -11 -6 -3 -4 -5
right_child=3 12 13 5 11 6 -8 8 9 10 -12 -13 -14 -15 -16
leaf_value=0.007828160990543221 -0.017212031354196546 0.022484846977210066 -0.012609219716382359 -0.026538411765473242 0.014774821602051178 -0.029779094892002551 -0.020150270438043252 0.019196592100991564 -0.020150783363944925 -0.027949148195264263 0.0070500059321783153 -0.0027330540897426772 -0.008930021773247164 0.013972342606916155 -0.0088153274753439686
leaf_count=110 102 23 55 166 56 23 85 8 47 19 66 28 7 5 70
internal_value=0 0.075969 0.0360247 -0.05259 0.0079416 -0.0882837 -0.0452001 -0.00549445 0.0187178 -0.0126434 0.0435508 0.0886789 0.192163 -0.0785386 -0.193685
internal_count=870 200 170 670 186 484 248 163 140 132 85 84 30 60 236
shrinkage=0.1


Tree=49
num_leaves=16
num_cat=0
split_feature=7 6 3 12 1 12 7 2 9 3 8 4 8 6 0
split_gain=1.65345 0.551518 0.475053 0.42134 0.40165 0.392945 0.630832 0.402763 0.373839 0.365287 0.631831 0.393892 0.374045 0.399683 0.400854
threshold=0.70715000000000006 0.27680349254285458 18.083818236797747 0.05290000000000001 15497.500000000002 0.029750000000000002 0.89445000000000008 1088.5000000000002 0.70760000000000012 54.531137791741479 0.64215000000000011 0.12121856800000001 0.63924999999999998 0.039813888354833252 0.062927734000000013
decision_type=2 2 2 2 2 2 2 2 2 2 2 2 2 2 2
left_child=1 2 8 4 -3 7 -7 -2 -1 10 12 -11 13 -8 -15
right_child=5 3 -4 -5 -6 6 9 -9 -10 11 -12 -13 -14 14 -16
leaf_value=0.0060016448653491712 -0.014634577956966797 0.0060691763566619898 -0.025184833812031727 0.0032155090363040779 0.024050155073924301 -0.018995944951912435 -0.027010809423058443 0.013421373549080413 -0.019863358670953714 0.012417045482602918 -0.02176612150626597 -0.020593211071476034 0.01708947923580997 0.0089463684691597403 -0.0062638149464299339
leaf_count=63 20 13 10 23 17 225 43 16 17 12 95 10 8 22 276
internal_value=0 0.0763406 0.0182171 0.133094 0.182438 -0.0532028 -0.0674997 0.061362 0.039513 -0.0433477 -0.0618324 0.0675771 -0.0352803 -0.0491851 -0.034384
internal_count=870 143 90 53 30 727 691 36 80 466 444 22 349 341 298
shrinkage=0.1


Tree=50
num_leaves=16
num_cat=0
split_feature=7 3 12 7 5 10 6 10 6 0 3 1 4 4 12
split_gain=1.52843 0.490732 0.352373 0.574011 0.369586 0.334032 0.392021 0.416478 0.327262 0.38953 0.591804 0.57422 0.510909 0.869601 0.514812
threshold=0.70715000000000006 58.462771241181535 0.029750000000000002 0.89445000000000008 0.35897947050000006 0.58630000000000015 0.45115708452471914 0.33050000000000007 0.077372854138387112 0.062927734000000013 21.407246507874678 4991.5000000000009 0.12121856800000001 0.099355083000000011 0.18145000000000003
decision_type=2 2 2 2 2 2 2 2 2 2 2 2 2 2 2
left_child=1 5 4 -4 -2 6 7 -1 -5 -10 11 -11 13 14 -12
right_child=2 -3 3 8 -6 -7 -8 -9 9 10 12 -13 -14 -15 -16
leaf_value=0.0042956916207296204 -0.005346506907119142 0.021399428874886064 -0.018550759310498859 -0.016046688918719954 0.018733615449215629 -0.0019171607703506828 -0.0055040512721369729 0.018853215780664245 0.0077122798934898141 0.0065413257042840102 0.0093659547470154366 -0.016659435378809422 -0.018467849159993898 0.018945405162526484 -0.021102733785092444
leaf_count=41 28 9 225 97 8 53 14 26 36 28 18 227 28 14 18
internal_value=0 0.0749436 -0.0520011 -0.0657611 0.0586021 0.0529764 0.0863474 0.115576 -0.0424821 -0.0263932 -0.0511964 -0.117586 0.0216374 0.0640681 -0.0792049
internal_count=870 143 727 691 36 134 81 67 466 369 333 255 78 50 36
shrinkage=0.1


Tree=51
num_leaves=16
num_cat=0
split_feature=7 6 1 8 8 0 4 3 5 6 6 6 3 6 3
split_gain=1.38818 0.460175 0.414898 0.452955 0.881934 0.380434 0.457777 0.360703 0.483468 0.382649 0.539107 0.511801 0.505806 0.435079 0.938317
threshold=0.70715000000000006 0.27680349254285458 4877.0000000000009 0.63924999999999998 0.41470000000000007 0.44645176100000006 0.076600252500000007 7.3650019776780349 0.42860172600000007 0.52496656171906475 0.44704576944608837 0.39089991791774242 24.301822341557969 0.36299580434535278 13.943547486862391
decision_type=2 2 2 2 2 2 2 2 2 2 2 2 2 2 2
left_child=1 2 -1 4 -4 6 -3 8 -2 10 11 13 -12 14 -9
right_child=7 5 3 -5 -6 -7 -8 9 -10 -11 12 -13 -14 -15 -16
leaf_value=0.022963168660370424 -0.018931304554169623 -0.022977920671078414 0.012485420702812678 0.013145442095204105 -0.014646020667774524 0.029475599756726551 0.011881772248438749 0.0045965994199972859 0.00054054936314405853 -0.0134131137148326 -0.014114326168754524 -0.027388228672956757 0.017563485100254933 0.015862160911920688 -0.016147138620690553
leaf_count=5 246 5 15 17 53 6 42 114 44 85 25 30 26 16 141
internal_value=0 0.0721726 0.0185217 -0.00630378 -0.0527218 0.126867 0.0976869 -0.0504792 -0.120238 -0.0274176 -0.00613792 -0.0390188 0.110565 -0.0191377 -0.043358
internal_count=870 143 90 85 68 53 47 727 290 437 352 301 51 271 255
shrinkage=0.1


Tree=52
num_leaves=16
num_cat=0
split_feature=7 0 7 6 2 6 6 3 6 4 12 5 12 6 11
split_gain=1.28829 0.413659 0.432972 0.448591 0.407876 0.316565 0.534326 1.11972 0.456976 0.595889 0.479791 0.495015 0.453473 0.42679 0.37067
threshold=0.58570000000000011 0.14292196900000004 0.29285000000000005 0.16725186106520504 1765.0000000000002 0.52496656171906475 0.43711337775551357 21.407246507874678 0.39089991791774242 0.10297660750000001 0.044300000000000013 0.35897947050000006 0.16755000000000003 0.74864069236441744 0.47065000000000007
decision_type=2 2 2 2 2 2 2 2 2 2 2 2 2 2 2
left_child=1 -1 -3 4 -4 6 8 -8 9 -2 11 -11 -12 -7 -9
right_child=5 2 3 -5 -6 13 7 14 -10 10 12 -13 -14 -15 -16
leaf_value=-0.010442633278505269 0.011462192876284742 0.021973995311771757 -0.024631991484963575 0.011715007237371608 0.0030143440781606606 -0.017273701205868502 -0.02343902196062294 0.02602692322304874 -0.027478448628308033 -0.0089409603174067567 -0.020747209782457282 0.014454099040649157 -0.0057368374401961719 0.01141377085006421 0.0039251874167515423
leaf_count=23 39 13 15 44 24 107 51 8 38 44 218 15 200 6 25
internal_value=0 0.0807557 0.098109 0.0678638 -0.0286991 -0.0431752 -0.0273928 0.0760737 -0.0529051 -0.0402216 -0.0652755 0.0327418 -0.1023 -0.126484 0.16615
internal_count=870 119 96 83 39 751 638 84 554 516 477 59 418 113 33
shrinkage=0.1


Tree=53
num_leaves=16
num_cat=0
split_feature=12 1 9 10 3 9 0 1 1 3 2 9 8 9 2
split_gain=1.19929 0.544164 0.459471 1.08686 0.512864 0.554231 0.488774 0.464592 0.398051 0.380821 0.297493 0.270866 0.262812 0.652844 0.371889
threshold=0.052550000000000006 23053.000000000004 0.53205000000000013 0.33050000000000007 9.5592552895875524 0.56555000000000011 0.14335971750000001 19607.500000000004 21204.500000000004 107.93617345696792 3051.5000000000005 0.47445000000000004 0.51930000000000009 0.6351500000000001 495.50000000000006
decision_type=2 2 2 2 2 2 2 2 2 2 2 2 2 2 2
left_child=1 8 3 -2 10 -6 12 -5 -1 -3 -4 -9 -7 -14 -15
right_child=2 9 4 7 5 6 -8 11 -10 -11 -12 -13 13 14 -16
leaf_value=0.0046586679141694754 -0.017566562195324726 0.02146271158731879 -0.025659196006713111 0.014464244707356909 -0.028861992466846793 0.017465756551827458 -0.015822805358279037 0.015144160561813761 -0.028538720048115571 -0.011263393790141739 -0.0079468653508091881 -0.011680327752014996 -0.021194088471134902 -0.030907400321848213 0.0077843636039821064
leaf_count=158 92 23 166 64 35 7 94 5 12 7 70 25 40 13 59
internal_value=0 0.0702161 -0.0479176 0.01111 -0.0846582 -0.0439315 -0.0192606 0.0827031 0.0352016 0.177706 -0.181093 -0.0449536 0.0229112 -0.00415663 0.0537072
internal_count=870 200 670 186 484 248 213 94 170 30 236 30 119 112 72
shrinkage=0.1


Tree=54
num_leaves=16
num_cat=0
split_feature=7 6 6 10 12 12 9 9 4 4 9 8 8 8 3
split_gain=1.18236 0.367846 0.371624 0.367858 0.288402 0.272843 0.268074 0.326129 0.418031 0.467659 0.365934 0.830647 0.418467 0.714701 0.516755
threshold=0.58570000000000011 0.3320414976952028 0.57712476840190552 0.58630000000000015 0.17795000000000002 0.035050000000000005 0.45480000000000004 0.52355000000000007 0.095808165000000015 0.12121856800000001 0.6351500000000001 0.49405000000000004 0.57780000000000009 0.60435000000000005 68.168810232004773
decision_type=2 2 2 2 2 2 2 2 2 2 2 2 2 2 2
left_child=1 3 4 5 -3 -1 -2 8 -8 -10 11 -9 -12 -14 -15
right_child=6 2 -4 -5 -6 -7 7 10 9 -11 12 -13 13 14 -16
leaf_value=0.015607247750550852 -0.020056758092716301 0.02129803358967582 -0.0034403084630869004 -0.0072056924462716556 -0.0059935525444175658 0.00023234804890776394 -0.018499643204206103 0.0088681797838511024 0.018294984786556927 -0.0030742633253374686 -0.015943626734978796 -0.01797532977940269 0.017611709112013128 -0.0080591454746625473 0.017837729730792014
leaf_count=20 47 20 8 36 5 30 27 24 28 76 85 234 34 191 5
internal_value=0 0.0797953 0.144022 0.0321548 0.184704 0.0832966 -0.0434583 -0.0357284 0.0364866 0.0756389 -0.057194 -0.11619 -0.0189483 0.0113246 -0.0422511
internal_count=870 119 33 86 25 50 751 704 131 104 573 258 315 230 196
shrinkage=0.1


Tree=55
num_leaves=16
num_cat=0
split_feature=7 3 3 5 12 3 12 12 0 4 4 4 12 12 6
split_gain=1.10818 0.375479 0.283188 0.372379 0.34296 0.293307 0.260955 0.406424 0.309038 0.277773 0.29864 0.272709 0.264605 0.26323 0.258119
threshold=0.70715000000000006 58.462771241181535 7.3650019776780349 0.42860172600000007 0.026000000000000006 4.6605917933136594 0.020900000000000005 0.029750000000000002 0.29252109350000005 0.29847616550000006 0.22262855250000002 0.076600252500000007 0.052200000000000003 0.057600000000000005 0.52496656171906475
decision_type=2 2 2 2 2 2 2 2 2 2 2 2 2 2 2
left_child=1 6 3 4 -2 -5 8 -8 -1 10 11 -9 -13 -14 -4
right_child=2 -3 14 5 -6 -7 7 9 -10 -11 -12 12 13 -15 -16
leaf_value=-0.0010195656426587774 0.0040912756259440033 0.020634477912325103 -0.00074764192278012538 0.0058491093833053821 -0.023002135183163658 -0.028870496361465294 -0.021220104414031427 -0.022114313247289213 0.021694990314973531 0.023305971120567138 -0.014084198030091602 0.012272053629097817 -0.024588375057984335 0.0031276927524749969 -0.012129351890880755
leaf_count=10 6 9 352 29 240 15 10 5 12 6 21 30 10 30 85
internal_value=0 0.0697957 -0.0483823 -0.114246 -0.180155 0.00145303 0.0493289 0.0238756 0.137076 0.0428842 0.0254584 0.048846 0.0638509 -0.00663056 -0.0261982
internal_count=870 143 727 290 246 44 134 112 22 102 96 75 70 40 437
shrinkage=0.1


Tree=56
num_leaves=16
num_cat=0
split_feature=7 0 8 8 12 12 7 12 10 3 3 6 12 3 6
split_gain=1.01495 0.360998 0.386977 0.334881 0.313938 0.271918 0.406963 0.288789 0.250979 0.45149 0.463335 0.427262 0.4343 0.308956 0.441495
threshold=0.70715000000000006 0.33280894700000002 0.45180000000000003 0.55035000000000012 0.035050000000000005 0.029750000000000002 0.89445000000000008 0.01545 0.53875000000000017 12.824408347206409 13.973632422243169 0.45115708452471914 0.5597000000000002 27.74280534971507 0.36299580434535278
decision_type=2 2 2 2 2 2 2 2 2 2 2 2 2 2 2
left_child=1 2 -1 4 -4 7 -7 -2 13 -10 -11 -12 -13 -8 -15
right_child=5 -3 3 -5 -6 6 8 -9 9 10 11 12 -14 14 -16
leaf_value=0.012443179038630464 -0.026465523074493066 0.01528792502947089 -0.028166478695528342 0.0065586970100466506 -0.0032746954299789468 -0.017338319674038656 -0.0046550032096117381 0.010119272111691183 -0.019966688550747083 0.019766328577507569 -0.020073415320534922 0.012079254095507592 -0.02705766275051627 -0.014626060012383181 0.015409382474259013
leaf_count=28 6 26 9 43 37 225 192 30 138 9 57 27 9 18 16
internal_value=0 0.0677683 0.0353605 -0.0104748 -0.0808262 -0.0466645 -0.0601339 0.0595498 -0.0388298 -0.0870644 -0.0216529 -0.0761389 0.0342738 -0.00217935 0.0841333
internal_count=870 143 117 89 46 727 691 36 466 240 102 93 36 226 34
shrinkage=0.1


Tree=57
num_leaves=16
num_cat=0
split_feature=7 3 3 5 12 8 3 7 10 0 5 9 12 0 11
split_gain=0.961058 0.330967 0.242278 0.347034 0.291039 0.275269 0.254651 0.434947 0.388891 0.331259 0.514014 0.312101 0.50043 0.434187 0.272069
threshold=0.70715000000000006 58.462771241181535 7.3650019776780349 0.42860172600000007 0.026000000000000006 0.6190500000000001 9.6985411097488896 0.96875000000000011 0.55715000000000015 0.19429009300000002 0.33959668750000005 0.67190000000000005 0.17095000000000002 0.056584752500000009 0.68080000000000018
decision_type=2 2 2 2 2 2 2 2 2 2 2 2 2 2 2
left_child=1 -1 3 4 -2 -5 8 -8 -4 10 11 12 -9 -14 -13
right_child=2 -3 6 5 -6 -7 7 9 -10 -11 -12 14 13 -15 -16
leaf_value=0.0047399173788971911 0.0034905593128255158 0.020027934524130743 0.012088540552462336 0.0070701002246797073 -0.022629696060835036 -0.023553213390904514 -0.015127937979021941 0.0090395213496607275 -0.020264239029528022 0.01029928291513953 -0.027748247859113419 0.012106477781191075 0.0016379614707402212 -0.028055855902616222 -0.023720480582459673
leaf_count=134 6 9 37 23 240 21 190 20 29 19 48 24 11 49 10
internal_value=0 0.0670349 -0.0462991 -0.109788 -0.177819 0.00293103 -0.0254637 -0.0460456 0.0642584 -0.00919765 -0.0447384 -0.00973359 -0.0715055 -0.165656 0.0823927
internal_count=870 143 727 290 246 44 437 371 66 181 162 114 80 60 34
shrinkage=0.1


Tree=58
num_leaves=16
num_cat=0
split_feature=12 0 3 8 2 1 8 8 3 6 8 10 9 4 12
split_gain=0.910539 0.464121 0.282127 0.426021 0.282261 0.270335 0.269601 0.321859 0.301186 0.399069 0.256248 0.307978 0.464509 0.402338 0.406538
threshold=0.052550000000000006 0.23008589700000001 68.168810232004773 0.64215000000000011 495.50000000000006 23053.000000000004 0.54690000000000005 0.46115000000000006 7.4402447972201395 0.51924776947870377 0.63924999999999998 0.33050000000000007 0.54125000000000012 0.10297660750000001 0.12200000000000001
decision_type=2 2 2 2 2 2 2 2 2 2 2 2 2 2 2
left_child=1 6 3 10 -4 -3 7 -1 -8 -10 11 13 -13 14 -2
right_child=2 5 4 -5 -6 -7 8 -9 9 -11 -12 12 -14 -15 -16
leaf_value=0.002207055614363337 0.0099856150496549761 0.0078919501469917521 -0.022150509273882811 -0.018164081243696426 0.014563367818567791 0.021537706793760266 0.014243772955034035 -0.021481863033546673 -0.015360583703574524 0.02119367937363428 0.015917605848116131 0.0052930556521221606 -0.0089016327720861984 -0.020918785654213422 -0.024710960699246637
leaf_count=25 29 42 8 145 12 16 29 42 41 5 10 108 205 135 18
internal_value=0 0.06579 -0.0461634 -0.0584143 0.0845475 0.121703 -0.00135509 -0.0839527 0.0567548 -0.0498522 -0.0369523 -0.0464757 -0.0151646 -0.121653 -0.00217659
internal_count=870 200 670 650 20 58 142 67 75 46 505 495 313 182 47
shrinkage=0.1


Tree=59
num_leaves=16
num_cat=0
split_feature=7 7 6 1 9 3 12 0 2 3 5 3 12 3 7
split_gain=0.860303 0.320758 0.369862 0.30835 0.268777 0.268577 0.267621 0.224564 0.237117 0.215264 0.313595 0.243159 0.23953 0.201282 0.363331
threshold=0.70715000000000006 0.29285000000000005 0.18330088525234681 18296.000000000004 0.68980000000000008 4.9840579710144937 0.05290000000000001 0.33280894700000002 1513.5000000000002 7.3650019776780349 0.42860172600000007 4.6605917933136594 0.026000000000000006 9.6985411097488896 0.96875000000000011
decision_type=2 2 2 2 2 2 2 2 2 2 2 2 2 2 2
left_child=1 4 3 5 -1 -3 7 8 -4 10 12 -12 -2 -11 -15
right_child=9 2 6 -5 -6 -7 -8 -9 -10 13 11 -13 -14 14 -16
leaf_value=0.02102787861843719 0.0023654472505798443 0.0050561959685701506 0.0047574233118003384 -0.0293233280902431 -0.03068509350906953 -0.014560685780955575 -0.00083147732088544436 0.02563098306386943 0.026130115890004718 0.0056921225092500917 0.0056572449162513357 -0.02829617795839864 -0.02232731988310584 -0.014432115719118774 -0.00096258254701804969
leaf_count=13 6 34 25 9 6 20 24 7 5 66 29 15 240 190 181
internal_value=0 0.0644859 0.0418888 -0.0346572 0.18204 -0.00399177 0.0895968 0.133404 0.091018 -0.0459988 -0.108635 0.00247684 -0.176746 -0.0256966 -0.0447537
internal_count=870 143 124 63 19 54 61 37 30 727 290 44 246 437 371
shrinkage=0.1


Tree=60
num_leaves=16
num_cat=0
split_feature=12 0 7 3 5 5 8 1 1 0 1 6 4 8 0
split_gain=0.825699 0.376036 0.250837 0.285592 0.292202 0.28612 0.287159 0.240208 0.536351 0.340414 0.23615 0.233439 0.276325 0.232412 0.204046
threshold=0.052550000000000006 0.23008589700000001 0.34845000000000004 8.6336674882834341 0.37914371300000005 0.46510340150000001 0.63280000000000014 14579.000000000002 32858.000000000007 0.17596866300000005 9042.5000000000018 0.52496656171906475 0.24984239550000001 0.43425000000000008 0.15486446500000003
decision_type=2 2 2 2 2 2 2 2 2 2 2 2 2 2 2
left_child=1 7 -2 5 11 13 -7 9 -9 14 -3 12 -5 -4 -1
right_child=2 10 3 4 -6 6 -8 8 -10 -11 -12 -13 -14 -15 -16
leaf_value=0.00052032717252948235 0.013959202248288949 -0.0041065762981660958 0.0025922285854392971 0.0024669233470392452 -0.019369078552817068 0.013601698476808352 -0.023352976835028138 -0.030056296608741498 0.0089363434257461842 -0.013736724203759619 0.014118255487754453 -0.012093437835363895 -0.018797485938579869 -0.019874649698170817 0.016964146123032788
leaf_count=33 12 10 19 208 57 8 17 46 10 31 48 48 51 250 22
internal_value=0 0.0650874 -0.0449649 -0.0531103 -0.0266396 -0.120623 0.0273354 0.00273767 -0.108848 0.0436668 0.117408 -0.0114024 0.00885637 -0.163587 0.0925324
internal_count=870 200 670 658 364 294 25 142 56 86 58 307 259 269 55
shrinkage=0.1


Tree=61
num_leaves=16
num_cat=0
split_feature=12 0 1 1 3 10 3 8 2 6 6 6 1 1 12
split_gain=0.746318 0.343696 0.312185 0.281963 0.308579 0.245748 0.222505 0.374858 0.240701 0.215488 0.263819 0.258603 0.218688 0.552661 0.244526
threshold=0.052550000000000006 0.15486446500000003 14579.000000000002 23053.000000000004 107.93617345696792 0.58630000000000015 68.168810232004773 0.65575000000000006 495.50000000000006 0.077372854138387112 0.084255939332196508 0.115583681081497 11801.500000000002 4877.0000000000009 0.61985000000000012
decision_type=2 2 2 2 2 2 2 2 2 2 2 2 2 2 2
left_child=1 2 -1 5 -5 -3 7 9 -8 -2 -11 -12 13 -13 -14
right_child=6 3 -4 4 -6 -7 8 -9 -10 10 11 12 14 -15 -16
leaf_value=-0.00020598165120869175 -0.013035757678108037 0.0090295459377843102 -0.034562009186159148 0.021904025563535757 -0.011651330340555065 -0.0042611161144737748 -0.02149355858820752 -0.019707648839452765 0.013546230088279355 0.018522381658528764 -0.028276760115195195 0.010571929105714294 0.0022850178331103471 -0.022033267099678556 -0.016052878073141735
leaf_count=33 135 77 24 20 7 39 8 119 12 8 30 26 209 105 18
internal_value=0 0.0627979 -0.0671694 0.0864059 0.177227 0.0536559 -0.0432978 -0.0546959 0.0768594 -0.0369534 -0.0194686 -0.0310652 -0.0212972 -0.107165 0.00385559
internal_count=870 200 57 143 27 116 670 650 20 531 396 388 358 131 227
shrinkage=0.1


Tree=62
num_leaves=16
num_cat=0
split_feature=7 11 8 7 0 12 1 3 12 11 4 8 8 9 5
split_gain=0.719958 0.347629 0.366904 0.40805 0.376809 0.276506 0.347036 0.263422 0.392158 0.260868 0.25516 0.310533 0.247583 0.441731 0.34401
threshold=0.43305000000000005 0.46970000000000006 0.51700000000000013 0.58570000000000011 0.13888982200000002 0.17795000000000002 23053.000000000004 21.983023037328149 0.035650000000000008 0.43655000000000005 0.23054816550000004 0.5494500000000001 0.49405000000000004 0.63070000000000015 0.23320458150000004
decision_type=2 2 2 2 2 2 2 2 2 2 2 2 2 2 2
left_child=5 2 3 9 -4 6 10 8 -6 -2 11 -1 -3 -14 -15
right_child=1 12 4 -5 7 -7 -8 -9 -10 -11 -12 -13 13 14 -16
leaf_value=0.0088204060618092654 0.0093764209410050255 0.0018875397281739139 -0.0094115995436235104 -0.020400174577171637 0.018923978151616873 -0.016957359082999574 0.027778933330908626 0.0188062465097594 -0.0081197058958167503 -0.027277758872155684 0.024373249235777793 -0.018608578376055295 -0.017769667180736106 0.0068905011179129644 -0.0082563999268600082
leaf_count=24 14 89 46 73 12 5 10 23 57 5 5 10 206 64 227
internal_value=0 -0.0241116 0.0266048 -0.0673131 0.0733284 0.112074 0.132887 0.113632 0.0349879 0.0401578 0.0783625 0.0300171 -0.0553736 -0.0799564 -0.0356066
internal_count=870 816 230 92 138 54 49 92 69 19 39 34 586 497 291
shrinkage=0.1


Tree=63
num_leaves=16
num_cat=0
split_feature=12 12 0 12 12 1 9 10 3 9 0 0 1 8 0
split_gain=0.747283 0.32349 0.307784 0.282107 0.294814 0.278219 0.233887 0.447427 0.337741 0.343476 0.31468 0.205099 0.195572 0.191252 0.189806
threshold=0.052550000000000006 0.054650000000000004 0.15486446500000003 0.020900000000000005 0.024200000000000003 14579.000000000002 0.53205000000000013 0.33050000000000007 9.5592552895875524 0.56555000000000011 0.14335971750000001 0.086518282000000016 19607.500000000004 0.58990000000000009 0.12480561050000001
decision_type=2 2 2 2 2 2 2 2 2 2 2 2 2 2 2
left_child=2 -2 5 -4 -5 11 7 -3 -8 -10 14 -1 -9 -12 -11
right_child=1 6 3 4 -6 -7 8 12 9 10 13 -13 -14 -15 -16
leaf_value=0.013972550096147278 -0.032396440211625986 -0.013313306747070553 0.016959460971903061 -0.032927786607914379 0.0062077149390735459 -0.033667251210815853 -0.016452005058321374 0.011702071234106111 -0.026570697362771213 -0.0025747105877491298 -0.0049140970210596263 -0.010931581773647966 -0.0029112929064110497 -0.029057713203882625 0.010199445931244224
leaf_count=8 14 86 32 7 104 24 234 63 35 84 49 25 29 43 33
internal_value=0 -0.0446127 0.064808 0.0880174 0.0491488 -0.0610341 -0.0370482 0.013856 -0.067875 -0.0302294 -0.00839594 0.000478443 0.0680026 -0.140267 0.0306347
internal_count=870 670 200 143 111 57 656 178 478 244 209 33 92 92 117
shrinkage=0.1


Tree=64
num_leaves=16
num_cat=0
split_feature=7 11 0 8 11 8 3 12 3 3 0 12 6 8 9
split_gain=0.66695 0.277518 0.310654 0.321124 0.335466 0.242451 0.233082 0.246796 0.217778 0.218918 0.260386 0.310338 0.289663 0.28739 0.278569
threshold=0.43305000000000005 0.46970000000000006 0.13888982200000002 0.51700000000000013 0.42695000000000005 0.65575000000000006 24.301822341557969 0.03450000000000001 3.9515942028985509 4.9840579710144937 0.13219348950000001 0.22940000000000002 0.17388882633034661 0.63924999999999998 0.7481000000000001
decision_type=2 2 2 2 2 2 2 2 2 2 2 2 2 2 2
left_child=-1 2 -2 4 -4 8 7 -5 -3 -10 13 12 -12 14 -11
right_child=1 5 3 6 -6 -7 -8 -9 9 10 11 -13 -14 -15 -16
leaf_value=0.011242901888546125 -0.011086005214032309 -0.015947499481024488 0.0031764453795358662 0.017665620744562172 -0.024537883521474391 -0.018366054304290471 0.018561809123628297 -0.0045329514037320742 0.011612094654225531 -0.0060162114991875138 -0.021679170466402279 -0.027553114505137057 -0.00078791513442065617 0.018756152180599624 0.016008646191971908
leaf_count=54 71 103 35 11 32 94 20 61 40 104 58 42 120 9 16
internal_value=0 -0.0237673 0.0236752 0.05361 -0.0438404 -0.052158 0.105835 0.0347218 -0.0378548 -0.0224523 -0.0377622 -0.0914191 -0.0546417 0.0144624 -0.0207954
internal_count=870 816 230 159 67 586 92 72 492 389 349 220 178 129 120
shrinkage=0.1


Tree=65
num_leaves=16
num_cat=0
split_feature=7 7 6 3 8 0 8 3 5 3 12 1 11 0 11
split_gain=0.651631 0.227043 0.243638 0.242739 0.227801 0.1982 0.18436 0.17054 0.24433 0.182156 0.181434 0.172502 0.269053 0.310024 0.218042
threshold=0.70715000000000006 0.29285000000000005 0.18330088525234681 5.4917808391558633 0.45375000000000004 0.15602046600000002 0.74070000000000003 7.3650019776780349 0.42860172600000007 4.6605917933136594 0.094750000000000015 14579.000000000002 0.33255000000000007 0.13888982200000002 0.67135000000000011
decision_type=2 2 2 2 2 2 2 2 2 2 2 2 2 2 2
left_child=1 5 3 4 -3 -1 -6 8 10 -10 -2 14 13 -13 -9
right_child=7 2 -4 -5 6 -7 -8 11 9 -11 -12 12 -14 -15 -16
leaf_value=-0.030590980524049113 -0.0085585417352391936 0.013452815066528094 0.0083353582475120657 -0.017736462093496122 -0.013850005079089201 0.019837712590985653 0.011258733269647115 0.0045939025352047386 0.0052532534430262548 -0.027871711295425268 -0.027248285408174467 -0.031093445328105082 -0.0085181918213546402 0.017277227000525582 -0.019743078784553142
leaf_count=6 106 13 61 22 23 13 5 131 29 15 140 9 262 10 25
internal_value=0 0.061723 0.041189 -0.0271819 0.0229539 0.17202 -0.0615198 -0.04359 -0.105577 0.00243468 -0.172479 -0.0242082 -0.0575049 0.0948698 0.0237008
internal_count=870 143 124 63 41 19 28 727 290 44 246 437 281 19 156
shrinkage=0.1


Tree=66
num_leaves=16
num_cat=0
split_feature=7 3 12 7 12 4 12 11 11 0 11 3 5 1 9
split_gain=0.615488 0.2247 0.170066 0.234952 0.21883 0.224824 0.193447 0.223462 0.188574 0.184693 0.164507 0.173796 0.222112 0.175935 0.287174
threshold=0.70715000000000006 58.462771241181535 0.020900000000000005 0.24875000000000003 0.029750000000000002 0.076600252500000007 0.032750000000000008 0.34845000000000009 0.6020000000000002 0.29252109350000005 0.69540000000000013 7.3650019776780349 0.35897947050000006 14579.000000000002 0.66465000000000007
decision_type=2 2 2 2 2 2 2 2 2 2 2 2 2 2 2
left_child=1 2 3 -1 -4 -6 -7 -8 -9 -5 11 12 -2 -13 -15
right_child=10 -3 4 9 5 6 7 8 -10 -11 -12 13 -14 14 -16
leaf_value=0.028245082325859747 -0.018382433018885088 0.019189290554417551 -0.018850853451550107 -0.010641926204091944 -0.023431169685389445 0.023022550277057303 -0.029194096636916328 0.0075976520889296725 -0.0068215026393193771 0.014514490496154428 -0.03127746715561177 0.0031023989230704301 -0.00185939644658534 -0.010569464762628572 0.0034593557237884778
leaf_count=6 216 9 10 8 5 5 5 55 32 8 16 148 69 186 92
internal_value=0 0.0609543 0.0433496 0.127767 0.019904 0.0355176 0.0488358 0.0309476 0.0437007 0.0464419 -0.0426335 -0.038264 -0.102082 -0.0184074 -0.0524333
internal_count=870 143 134 22 112 102 97 92 87 16 727 711 285 426 278
shrinkage=0.1


Tree=67
num_leaves=16
num_cat=0
split_feature=7 6 1 7 0 4 11 12 12 7 5 0 11 3 9
split_gain=0.570517 0.204622 0.23374 0.224412 0.214874 0.24584 0.167796 0.188483 0.156271 0.222154 0.16287 0.151346 0.15078 0.14738 0.174188
threshold=0.70715000000000006 0.27680349254285458 16586.000000000004 0.29285000000000005 0.44645176100000006 0.076600252500000007 0.6020000000000002 0.05290000000000001 0.029750000000000002 0.89445000000000008 0.35897947050000006 0.16770703600000003 0.69540000000000013 3.9515942028985509 0.46355000000000007
decision_type=2 2 2 2 2 2 2 2 2 2 2 2 2 2 2
left_child=1 2 3 -1 5 -3 7 -7 10 -10 11 -2 13 -11 -15
right_child=8 4 -4 -5 -6 6 -8 -9 9 12 -12 -13 -14 14 -16
leaf_value=0.022487986177208315 -0.022364452915453619 -0.02091959507085743 -0.015547101757782089 0.0012202718641734663 0.028761970317395438 0.019864135146145632 -0.0033752925091926262 0.0040200308869948282 -0.015300185689563945 -0.015241270760999834 0.016822337096679272 0.0057259300674060293 -0.03007739471202758 -0.022138517950291557 -0.0008229024328391208
leaf_count=5 14 5 20 65 6 15 13 14 225 91 8 14 16 29 330
internal_value=0 0.0598895 0.0135052 0.0427197 0.106675 0.0813778 0.10192 0.134073 -0.0411389 -0.0531387 0.0537316 -0.0385632 -0.0348828 -0.0293785 -0.0175105
internal_count=870 143 90 70 53 47 42 29 727 691 36 28 466 450 359
shrinkage=0.1


Tree=68
num_leaves=16
num_cat=0
split_feature=7 0 8 11 6 3 3 4 9 3 1 3 10 4 6
split_gain=0.547607 0.190422 0.165102 0.158825 0.145992 0.251445 0.332999 0.185117 0.321228 0.216593 0.306224 0.286862 0.203762 0.197455 0.209939
threshold=0.70715000000000006 0.33280894700000002 0.45180000000000003 0.38165000000000004 0.115583681081497 13.843461625405014 8.6336674882834341 0.21930847100000003 0.66465000000000007 21.407246507874678 14115.000000000002 10.260708961721251 0.53875000000000017 0.12860954900000002 0.51898256392941067
decision_type=2 2 2 2 2 2 2 2 2 2 2 2 2 2 2
left_child=1 2 -1 -3 5 6 -2 9 -9 11 -11 12 -6 14 -12
right_child=4 3 -4 -5 7 -7 -8 8 -10 10 13 -13 -14 -15 -16
leaf_value=0.010205896029604443 -0.020925361045396069 -0.0015663592332345853 -0.0002998475982727393 0.017927394387283538 0.002356161427122614 -0.027442603300048246 0.0053835846470577549 -0.010365354160552029 0.017282679688981738 0.023269421946570099 0.0048337086797285381 -0.019860721290476731 -0.014539386986015168 -0.027707675777098102 -0.01232834519230932
leaf_count=28 109 7 89 19 106 69 47 33 24 5 56 120 104 17 37
internal_value=0 0.0598925 0.0324172 0.135953 -0.0404486 -0.106539 -0.0506289 -0.0240764 0.0688017 -0.0425081 0.00932572 -0.0888189 -0.0339884 -0.0228742 -0.00200001
internal_count=870 143 117 26 727 225 156 502 57 445 115 330 210 110 93
shrinkage=0.1


Tree=69
num_leaves=16
num_cat=0
split_feature=7 6 3 0 4 9 8 8 0 2 9 12 7 4 11
split_gain=0.553551 0.176573 0.192842 0.190524 0.208537 0.167612 0.161874 0.171355 0.194354 0.130602 0.131872 0.154174 0.173122 0.146981 0.139291
threshold=0.70715000000000006 0.27680349254285458 18.083818236797747 0.44645176100000006 0.076600252500000007 0.73785000000000012 0.65520000000000012 0.46660000000000007 0.28471647800000005 3363.0000000000005 0.45480000000000004 0.029750000000000002 0.89445000000000008 0.21930847100000003 0.69540000000000013
decision_type=2 2 2 2 2 2 2 2 2 2 2 2 2 2 2
left_child=1 2 5 4 -3 6 7 -1 -9 10 -2 13 -13 -12 -14
right_child=9 3 -4 -5 -6 -7 -8 8 -10 -11 11 12 14 -15 -16
leaf_value=0.0062581276890119678 -0.019433996758475153 -0.019549216420083365 -0.022330209936767615 0.028549508824977216 0.01009160240166574 -0.030320083646138619 0.017182344744640431 -0.021256570222012355 0.007162989291835906 -0.020980755875590194 -0.0015611708548549108 -0.013855454699312472 -0.0019557566366855748 0.019435920937160442 -0.029881362215494381
leaf_count=36 42 5 10 6 42 10 10 17 7 66 22 191 382 9 15
internal_value=0 0.0605976 0.0167577 0.105582 0.0816182 0.0344734 0.046228 0.0146442 -0.0949802 -0.0414286 -0.035506 -0.0289434 -0.0416806 0.0706861 -0.0250906
internal_count=870 143 90 53 47 80 70 60 24 727 661 619 588 31 397
shrinkage=0.1


Tree=70
num_leaves=16
num_cat=0
split_feature=0 12 1 4 3 6 10 1 3 2 2 0 11 0 11
split_gain=0.495882 0.260721 0.209017 0.171282 0.160602 0.208655 0.318815 0.227034 0.172998 0.173808 0.143226 0.14033 0.13503 0.126835 0.130109
threshold=0.22877845600000002 0.020900000000000005 11801.500000000002 0.099355083000000011 1.3830219780219781 0.115583681081497 0.62860000000000005 9416.5000000000018 9.4216167481384741 622.50000000000011 704.50000000000011 0.10966901700000002 0.43195000000000006 0.22334093350000003 0.69540000000000013
decision_type=2 2 2 2 2 2 2 2 2 2 2 2 2 2 2
left_child=4 -2 -3 10 11 7 13 8 12 -10 -4 -1 -6 14 -7
right_child=1 2 3 -5 5 6 -8 -9 9 -11 -12 -13 -14 -15 -16
leaf_value=-0.018246939992473565 0.019609529175871214 -0.012693881594988696 0.0067300047999205876 0.011681029541644627 0.0022979116725561901 5.9118472786675334e-05 -0.028546656101988643 -0.020813755625683241 -0.013271619522216291 0.017456189857247516 -0.012792535274084188 0.015609511710611269 -0.021344525594428041 -0.028300864571048964 -0.031481577014520999
leaf_count=15 17 18 11 37 15 439 35 129 20 6 21 17 67 12 11
internal_value=0 0.0759531 0.0406179 0.0669035 -0.0303534 -0.038359 -0.0181359 -0.109614 -0.0376262 0.0705128 -0.0167605 0.100187 -0.12412 -0.00756208 -0.00331795
internal_count=870 104 87 69 766 734 497 237 108 26 32 32 82 462 450
shrinkage=0.1


Tree=71
num_leaves=16
num_cat=0
split_feature=7 0 6 3 10 1 12 6 3 3 10 11 12 4 1
split_gain=0.490825 0.198458 0.167042 0.239039 0.211072 0.187699 0.154798 0.138622 0.229907 0.211751 0.170206 0.156495 0.155856 0.134378 0.126342
threshold=0.43305000000000005 0.25117760250000004 0.47365561951451313 29.076617647058828 0.58630000000000015 9042.5000000000018 0.085600000000000023 0.115583681081497 13.843461625405014 12.824408347206409 0.62860000000000005 0.43195000000000006 0.035650000000000008 0.19927119500000004 5407.5000000000009
decision_type=2 2 2 2 2 2 2 2 2 2 2 2 2 2 2
left_child=2 7 3 4 5 -1 -3 8 9 11 -9 12 -2 -6 -12
right_child=1 6 -4 -5 13 -7 -8 10 -10 -11 14 -13 -14 -15 -16
leaf_value=0.0010276729503747454 0.014184074649934875 0.0090594695220106575 0.021654752518293831 -0.022653784739944352 -0.013093179669208234 0.026307556876875873 -0.015017177598055454 -0.00099532974413555817 -0.027097787184044254 0.013783729566694956 0.0087656639676301149 -0.015097559510630505 -0.011674237876525028 0.010687543547616678 -0.028144590907076772
leaf_count=8 6 34 10 6 12 11 8 483 69 8 6 143 28 7 31
internal_value=0 -0.0215758 0.107582 0.064184 0.096731 0.178588 0.0611674 -0.0351933 -0.089419 -0.054186 -0.0182906 -0.0908223 0.0121018 -0.0167654 -0.195348
internal_count=870 816 54 44 38 19 42 774 254 185 520 177 34 19 37
shrinkage=0.1


Tree=72
num_leaves=16
num_cat=0
split_feature=7 3 12 12 4 12 11 7 11 11 12 7 0 0 12
split_gain=0.452162 0.167014 0.134708 0.21333 0.155511 0.157892 0.19057 0.148753 0.13896 0.153154 0.123905 0.170196 0.189944 0.280778 0.354984
threshold=0.70715000000000006 58.462771241181535 0.020900000000000005 0.029750000000000002 0.076600252500000007 0.032750000000000008 0.34845000000000009 0.24875000000000003 0.64045000000000007 0.67135000000000011 0.029750000000000002 0.96875000000000011 0.19291247500000003 0.14335971750000001 0.072500000000000023
decision_type=2 2 2 2 2 2 2 2 2 2 2 2 2 2 2
left_child=1 2 7 -4 -5 -6 -7 -1 -8 -10 -2 -12 13 -13 -15
right_child=10 -3 3 4 5 6 8 -9 9 -11 11 12 -14 14 -16
leaf_value=0.0273547650326154 0.0052486913037325372 0.018274415384887572 -0.020395222441480856 -0.021075086338515344 0.023394636397822483 -0.029090990610562212 0.0063069542937110191 0.0057846364484118642 -0.03416365782285806 0.0024256013222444025 -0.011678123230897175 -0.0015395550986591388 0.0077807217062524541 0.0083741599309389864 -0.026836976829816457
leaf_count=6 36 9 10 5 5 5 67 16 10 10 333 216 26 17 99
internal_value=0 0.0577653 0.0414337 0.0196654 0.0362037 0.0479277 0.0313746 0.126945 0.0439324 -0.116286 -0.0378967 -0.0488879 -0.026345 -0.0481904 -0.172257
internal_count=870 143 134 112 102 97 92 22 87 20 727 691 358 332 116
shrinkage=0.1


Tree=73
num_leaves=16
num_cat=0
split_feature=7 3 11 10 3 2 12 1 3 11 12 1 0 3 3
split_gain=0.426534 0.147616 0.122002 0.13245 0.245969 0.252066 0.223762 0.204842 0.482735 0.308219 0.191035 0.190296 0.177465 0.17126 0.150427
threshold=0.70715000000000006 58.462771241181535 0.69540000000000013 0.53875000000000017 12.824408347206409 1223.5000000000002 0.075900000000000009 16586.000000000004 41.362023485364197 0.46825000000000006 0.60785000000000011 84851.000000000015 0.153463184 3.9515942028985509 13.349014336917564
decision_type=2 2 2 2 2 2 2 2 2 2 2 2 2 2 2
left_child=1 -1 3 7 6 14 12 9 -9 -2 -10 -7 -5 -11 -6
right_child=2 -3 -4 4 5 11 -8 8 10 13 -12 -13 -14 -15 -16
leaf_value=0.0041596822124971245 -0.01183676254932617 0.017704463900419336 -0.030207359887836238 -0.028445966427944721 0.013542246509116793 0.019946873882529945 -0.023525372314203728 -0.024285145164731375 -0.015849228690642866 -0.016127682770000779 0.013855932379554084 -0.023275938016181233 0.004612091911945857 0.010016355450759677 -0.0096724679785814647
