tree
version=v2
num_class=1
num_tree_per_iteration=1
label_index=0
max_feature_idx=13
objective=lambdarank
feature_names=Column_0 Column_1 Column_2 Column_3 Column_4 Column_5 Column_6 Column_7 Column_8 Column_9 Column_10 Column_11 Column_12 Column_13
feature_infos=[0.00010438446887576322:0.18988547396267541] [0.0057581573896353169:0.27096335660878701] [3317:214111] [3317:214111] [0.015491964448346886:64.54959300572807] [0.017032063752969933:0.94998301496263293] [0.017032063752969933:0.94998301496263293] [1.1870853535025485e-09:3000.4270736553231] [0.125:1] [0:0.92000000000000004] [0:1] [0:1] [0:0.70279999999999998] [0:1]
tree_sizes=1348 1339 1335 1334 1348 1340 1352 1344 1345 1348 1355 1340 1350 1347 1351 1354 1345 1344 1332 1347 1348 1354 1345 1362 1340 1365 1346 1344 1344

Tree=0
num_leaves=16
num_cat=0
split_feature=1 0 4 4 6 2 1 3 1 4 7 4 5 1 12
split_gain=29.9751 20.9532 9.57255 11.5755 7.19052 6.87289 6.41292 5.57777 5.08563 4.57607 4.04225 7.19136 4.88029 4.72392 3.37217
threshold=0.049674887185997031 0.0017110403921665716 4.7833081195405986 0.14805454742789723 0.66824636590960973 115293.00000000001 0.0085969634365087363 115293.00000000001 0.073296064063411076 0.030888090579429015 0.57726205233582006 0.17914814489775166 0.051478600591620828 0.012237320243830818 0.49240000000000006
decision_type=2 2 2 2 2 2 2 2 2 2 2 2 2 2 2
left_child=1 6 3 7 -5 -4 -1 -3 14 -9 -8 13 -13 -12 -2
right_child=8 2 5 4 -6 -7 10 9 -10 -11 11 12 -14 -15 -16
leaf_value=-0.025117562728434101 -0.012795972700448839 -0.049093638962072021 -0.036468893705574407 -0.042334791468187555 0.012805861864595215 0.018959813131567613 0.024056041878474831 -0.033267742080460884 0.046161471054898359 0.012496787622256105 0.028856887978503484 0.029512486849946104 -0.043844416567095777 -0.01930176329859808 0.026665567470895036
leaf_count=192 98 64 89 1068 49 238 217 30 60 186 93 15 167 58 132
internal_value=0 -0.0764836 -0.197383 -0.262463 -0.376689 0.053501 0.0982264 -0.0447753 0.318596 0.0332596 0.143466 0.0275634 -0.276529 0.17199 0.169276
internal_count=2756 2466 1724 1397 1117 327 742 280 290 216 550 333 182 151 230
shrinkage=0.1


Tree=1
num_leaves=16
num_cat=0
split_feature=1 8 0 5 9 1 5 4 9 1 4 9 4 6 0
split_gain=1638.88 496.015 611.502 473.296 319.252 307.821 318.917 222.296 218.125 192.733 177.751 174.937 171.08 166.56 248.481
threshold=0.073296064063411076 0.51665000000000016 0.0017110403921665716 0.20334608381313682 0.49500000000000005 0.013642308420667078 0.23811584740017713 0.026780544707833656 0.46500000000000002 0.011923131425155399 0.07379827656128897 0.68500000000000016 38.215609967803864 0.26146560649407896 0.020232751471037536
decision_type=2 2 2 2 2 2 2 2 2 2 2 2 2 2 2
left_child=1 -1 5 -2 13 7 11 9 -9 -3 -6 12 -7 14 -4
right_child=3 2 4 -5 10 6 -8 8 -10 -11 -12 -13 -14 -15 -16
leaf_value=0.024052491683790082 0.038136014141423535 0.036524128579496044 -0.038663873171215696 -0.049057909919175559 0.0011561015211927236 0.035550360333306719 -0.046818288262239785 0.024419506327533053 -0.013858418492748811 -0.032832301517699558 -0.028040062085199182 -0.048323267478265458 -0.048365027417613199 0.034250601666835544 0.027020235638600412
leaf_count=108 50 19 137 10 128 53 30 13 577 17 1530 18 5 29 32
internal_value=0 -0.0725125 -0.101001 0.33384 -0.20634 0.0128676 0.201663 -0.0536856 -0.09779 0.224577 -0.250635 0.276227 0.316318 0.0658267 -0.0965847
internal_count=2756 2696 2588 60 1856 732 106 626 590 36 1658 76 58 198 169
shrinkage=0.1


Tree=2
num_leaves=16
num_cat=0
split_feature=1 0 9 1 2 4 5 5 6 11 8 4 7 8 4
split_gain=991.321 522.453 427.552 351.112 242.068 172.879 169.37 319.261 200.075 215.524 167.35 220.418 188.737 156.388 148.623
threshold=0.049674887185997031 0.0015869590501956733 0.43500000000000005 0.0085969634365087363 142059.00000000003 4.7833081195405986 0.12847706258482841 0.1540071165945828 0.31697542618930957 0.28375000000000006 0.51665000000000016 1.9474709214659673 21.967291332985919 0.56695000000000018 0.026780544707833656
decision_type=2 2 2 2 2 2 2 2 2 2 2 2 2 2 2
left_child=1 3 4 -1 -3 -4 8 -8 9 -5 -2 12 -12 -7 -9
right_child=10 2 5 6 -6 13 7 14 -10 -11 11 -13 -14 -15 -16
leaf_value=-0.032370428140621507 0.035310372732500248 -0.031549029225403917 -0.031800413774136574 -0.045114076789166679 0.036895776140685392 0.025295088717433484 0.039431523890183562 0.023717336021406913 -0.03537749674469514 0.018499794460117399 -0.023529045260874598 0.028951153360952331 0.038715608333490303 -0.0179133907957526 -0.0061063572449615048
leaf_count=192 62 56 1351 33 32 13 28 39 92 54 156 67 5 320 256
internal_value=0 -0.0783935 -0.188316 0.0419289 0.186937 -0.24351 0.092849 0.161623 -0.0559242 0.0724378 0.241732 0.124434 -0.0895748 -0.114552 0.0404217
internal_count=2756 2466 1772 694 88 1684 502 323 179 87 290 228 161 333 295
shrinkage=0.1


Tree=3
num_leaves=16
num_cat=0
split_feature=1 0 9 1 1 0 2 2 3 11 2 4 12 4 6
split_gain=583.666 373.923 245.914 178.803 134.954 189.717 126.516 144.542 222.239 118.843 113.697 106.658 104.33 91.6943 85.4794
threshold=0.049674887185997031 0.0017110403921665716 0.43500000000000005 0.0085969634365087363 0.080548841706657145 0.029395734849930539 183118.50000000003 142059.00000000003 115293.00000000001 0.39090000000000008 74438.000000000015 4.7833081195405986 0.38740000000000002 0.14805454742789723 0.22979774810171646
decision_type=2 2 2 2 2 2 2 2 2 2 2 2 2 2 2
left_child=1 3 10 -1 5 -2 7 8 -5 -7 -3 13 14 -4 -13
right_child=4 2 11 6 -6 9 -8 -9 -10 -11 -12 12 -14 -15 -16
leaf_value=-0.026425680321187361 0.021267010094926861 -0.038477552957121332 -0.012936915595750033 -0.036379640226203554 0.033243496143112332 0.014134923466791738 -0.014571654492474046 0.028787684016438088 0.012670667385446921 -0.04183766771703204 0.027151896746882811 0.038906979848482154 -0.01805929828472045 -0.03622552333303982 -0.039234591104547668
leaf_count=192 128 46 269 107 50 28 169 67 207 84 40 7 287 1057 18
internal_value=0 -0.0740609 -0.184839 0.0447235 0.203275 0.102354 0.0869245 0.132 0.04025 -0.193545 0.157382 -0.23371 -0.106194 -0.298719 0.21658
internal_count=2756 2466 1724 742 290 240 550 381 314 112 86 1638 312 1326 25
shrinkage=0.1


Tree=4
num_leaves=16
num_cat=0
split_feature=1 0 8 9 1 4 5 5 6 6 2 5 1 11 3
split_gain=402.524 191.592 217.365 131.019 105.638 105.267 91.2035 87.2446 85.8251 83.9731 78.3023 76.9392 74.3963 73.1653 80.1726
threshold=0.062367144378536632 0.0017110403921665716 0.56695000000000018 0.49500000000000005 0.0085969634365087363 0.07379827656128897 0.66824636590960973 0.11144249945997388 0.058498410393010951 0.26146560649407896 24778.500000000004 0.097703901241543975 0.05366786651578264 0.28375000000000006 212965.50000000003
decision_type=2 2 2 2 2 2 2 2 2 2 2 2 2 2 2
left_child=1 4 -3 9 7 -5 13 -1 -2 12 -10 -7 -4 14 -6
right_child=8 2 3 5 6 11 -8 -9 10 -11 -12 -13 -14 -15 -16
leaf_value=0.017422857926949416 -0.0076048360409506884 0.017587249069360277 -0.036529070050530126 0.0037601833612058606 -0.026826315932068585 -0.015788592708855586 -0.030547881550756939 -0.039198010567701641 -0.046370067224058488 0.024793636238004499 0.033522187334715722 -0.034109378186972364 0.019686642008780564 0.014309916059596523 0.020461012537123173
leaf_count=27 44 88 135 128 102 521 93 165 12 29 64 975 18 345 10
internal_value=0 -0.0494327 -0.124665 -0.173576 0.0475529 -0.218574 0.081768 -0.221609 0.260676 0.055372 0.311864 -0.257235 -0.15338 0.10491 -0.0945941
internal_count=2756 2636 1894 1806 742 1624 550 192 120 182 76 1496 153 457 112
shrinkage=0.1


Tree=5
num_leaves=16
num_cat=0
split_feature=1 0 2 4 1 2 5 8 1 7 3 2 5 2 3
split_gain=308.944 253.011 115.792 110.683 92.0528 72.4441 71.4158 70.6079 60.6982 81.2226 49.7552 48.6529 39.5218 39.1644 113.525
threshold=0.049674887185997031 0.0017110403921665716 142059.00000000003 1.6142277836536751 0.0085969634365087363 175411.00000000003 0.66824636590960973 0.56695000000000018 0.13463341121798708 0.047412353862971386 92735.000000000015 210139.00000000003 0.056121854755729034 142059.00000000003 115293.00000000001
decision_type=2 2 2 2 2 2 2 2 2 2 2 2 2 2 2
left_child=1 4 10 -4 12 -5 11 -7 9 -2 -3 13 -1 14 -6
right_child=8 2 3 5 6 7 -8 -9 -10 -11 -12 -13 -14 -15 -16
leaf_value=0.025924750348692401 -0.017126340902146219 -0.037097049119034935 -0.037083870653384504 0.018019534534754342 -0.035840487721977066 0.030229880944409582 -0.031524794206727019 -0.021547897309339988 0.033925244126165176 0.017940651442420831 -0.017512345686354382 -0.034334221452966433 -0.03317184183571139 0.019303297718614706 0.011016414297963992
leaf_count=6 71 679 271 94 90 9 93 202 20 199 469 37 186 125 205
internal_value=0 -0.0648795 -0.182305 -0.0583112 0.0466292 0.0263425 0.077964 -0.116695 0.181558 0.125814 -0.281529 0.0982265 -0.24978 0.111152 0.0533977
internal_count=2756 2466 1724 576 742 305 550 211 290 270 1148 457 192 420 295
shrinkage=0.1


Tree=6
num_leaves=16
num_cat=0
split_feature=8 7 9 4 4 1 11 0 4 5 6 6 1 0 3
split_gain=225.87 117.376 94.4912 122.194 78.7419 65.3659 81.9313 72.8922 62.9012 56.5467 52.9758 50.0596 46.8812 46.4047 37.1232
threshold=0.70715000000000006 0.084637693011627727 0.56500000000000006 0.026780544707833656 1.7346295331477075 0.049972359299638981 0.54050000000000009 0.0023993745293708585 0.31366195226275723 0.16217379476095545 0.09695096852271691 0.11144249945997388 0.012069556425525324 0.0003569516704238622 201973.00000000003
decision_type=2 2 2 2 2 2 2 2 2 2 2 2 2 2 2
left_child=-1 -2 4 11 8 7 -7 9 -3 14 -11 -4 -6 -13 -5
right_child=1 2 3 5 12 6 -8 -9 -10 10 -12 13 -14 -15 -16
leaf_value=0.019754278080825548 -0.027545089914669016 0.0053209094644355017 0.027494851200219023 0.0042902874143882401 -0.027961200419953581 -0.035686503443060603 0.023622641416622087 -0.027307477389989083 -0.032424627822471894 0.0032564092960037602 -0.031218056504049164 0.034463236783571043 0.021845996905101341 -0.04682443552208098 -0.04235805772738982
leaf_count=208 497 149 29 250 29 39 39 750 184 92 286 5 150 9 40
internal_value=0 -0.0502653 -0.0215202 -0.0749382 0.0884829 -0.118278 0.0925843 -0.151683 -0.0636276 -0.0767271 -0.203234 0.185534 0.186967 -0.177039 0.0135218
internal_count=2756 2548 2051 1539 512 1496 78 1418 333 668 378 43 179 14 290
shrinkage=0.1


Tree=7
num_leaves=16
num_cat=0
split_feature=8 9 4 4 4 4 4 1 9 4 5 1 10 6 4
split_gain=203.028 119.244 165.218 88.0847 77.0126 59.5051 84.4749 82.3116 48.7054 53.1058 47.0759 43.8921 42.6741 42.0149 35.3877
threshold=0.44950000000000007 0.56500000000000006 0.026780544707833656 1.7346295331477075 0.31366195226275723 8.0913256752372362 0.12860352835922401 0.062367144378536632 0.6150000000000001 1.899200906911783 0.26146560649407896 0.012069556425525324 0.75000000000000011 0.26146560649407896 1.9849220387203337
decision_type=2 2 2 2 2 2 2 2 2 2 2 2 2 2 2
left_child=8 3 -3 4 10 6 12 -8 9 -1 -2 -5 -4 -7 -9
right_child=1 2 5 11 -6 13 7 14 -10 -11 -12 -13 -14 -15 -16
leaf_value=-0.012648278158130988 0.014768329751665574 0.021273122472354765 0.00072995014545542249 -0.028657354038108047 -0.027561593204774849 0.0051294550892381071 -0.033434814553232814 -0.038038325224896648 0.036655154124324442 0.026510199494351957 -0.020232616573214037 0.019217274311527869 -0.032155139391689784 -0.018669467048363069 0.036396453175698139
leaf_count=45 107 45 240 36 306 203 1130 19 24 19 84 211 105 177 5
internal_value=0 -0.0399102 -0.10341 0.0641304 -0.0616657 -0.150037 -0.204161 -0.291874 0.241936 0.110667 0.0556195 0.166488 -0.0581502 -0.0374809 0.178427
internal_count=2756 2668 1924 744 497 1879 1499 1154 88 64 191 247 345 380 24
shrinkage=0.1


Tree=8
num_leaves=16
num_cat=0
split_feature=1 0 9 1 2 5 1 12 7 11 5 9 12 12 7
split_gain=173.489 155.304 61.6506 57.1299 50.6394 37.7602 37.6756 56.2256 32.718 32.6243 64.2726 35.0084 30.9352 47.8648 30.2077
threshold=0.049674887185997031 0.0017110403921665716 0.44500000000000006 0.0085969634365087363 183118.50000000003 0.07784884874776922 0.080548841706657145 0.49240000000000006 0.5299729199529073 0.85980000000000012 0.31697542618930957 0.70500000000000007 0.53530000000000011 0.61485000000000001 0.26611223686769264
decision_type=2 2 2 2 2 2 2 2 2 2 2 2 2 2 2
left_child=1 3 5 -1 9 -3 7 -2 14 10 11 -5 -9 -14 -6
right_child=6 2 -4 4 8 -7 -8 12 -10 -11 -12 -13 13 -15 -16
leaf_value=-0.024930064014020162 -0.019545135850683976 0.027721253847498684 -0.020451248207176875 0.014925983426275921 -0.03698881950260792 -0.014805381307101849 0.026306749410424369 0.030657709509603254 -0.037732339584040445 0.026216380589241774 -0.023578180081548585 -0.013536137253685335 -0.038531388159225202 0.014399888130055664 0.014148405551983517
leaf_count=192 104 23 1630 192 28 71 50 24 107 38 87 64 42 70 34
internal_value=0 -0.0566969 -0.167644 0.0438365 0.0705169 0.0849899 0.163068 0.0852435 -0.142967 0.105945 0.0695772 0.114765 0.158821 0.0617573 0.00353189
internal_count=2756 2466 1724 742 550 94 290 240 169 381 343 256 136 112 62
shrinkage=0.1


Tree=9
num_leaves=16
num_cat=0
split_feature=1 0 9 4 5 5 6 7 3 0 1 1 8 4 7
split_gain=137.343 116.862 53.4951 45.2817 65.7894 74.7858 44.7601 50.4057 42.2085 39.2444 30.5631 30.4841 28.7177 32.0411 27.5874
threshold=0.049674887185997031 0.0019794139836356171 0.44500000000000006 0.029418402136691817 0.16217379476095545 0.12847706258482841 0.32721266157026418 0.16682485893838664 115293.00000000001 0.0067270783694669571 0.13463341121798708 0.012799345963900232 0.56695000000000018 4.7833081195405986 0.047412353862971386
decision_type=2 2 2 2 2 2 2 2 2 2 2 2 2 2 2
left_child=1 3 9 -1 5 6 7 -5 -6 -3 14 -9 13 -4 -2
right_child=10 2 12 4 8 -7 -8 11 -10 -11 -12 -13 -14 -15 -16
leaf_value=0.019556971347584731 -0.012364240330684992 0.021544145516457482 -0.028031658825722356 -0.039045818334435788 -0.035236241438584635 0.02336433791758219 -0.036090075635922376 -0.0087391767050485746 -0.0041333146792263843 -0.038486203500471355 0.029935296538393632 0.021473384972797452 -0.022586491417884075 0.028110751335620177 0.014222214132440493
leaf_count=63 71 42 45 44 261 69 94 89 193 44 20 49 1464 9 199
internal_value=0 -0.0540686 -0.163703 0.0330312 -0.00781846 0.0705741 -0.056412 0.0159879 -0.161801 0.0969583 0.153494 0.0915904 -0.201581 0.0483994 0.104887
internal_count=2756 2466 1604 862 799 345 276 182 454 86 290 138 1518 54 270
shrinkage=0.1


Tree=10
num_leaves=16
num_cat=0
split_feature=8 7 9 4 9 4 4 1 4 4 9 12 1 10 6
split_gain=114.094 68.7517 62.3278 51.6153 36.0053 35.0616 60.5759 33.7567 31.4181 43.4498 34.6339 27.9834 26.9685 25.9412 24.5233
threshold=0.70715000000000006 0.084637693011627727 0.56500000000000006 0.026780544707833656 0.36500000000000005 7.8794530815166661 0.12860352835922401 0.062367144378536632 1.7346295331477075 0.19202478532510539 0.53500000000000014 0.61245000000000005 0.011923131425155399 0.55000000000000016 0.26146560649407896
decision_type=2 2 2 2 2 2 2 2 2 2 2 2 2 2 2
left_child=4 -2 8 12 -1 6 11 -8 9 10 -3 -5 -4 -7 -15
right_child=1 2 3 5 -6 13 7 -9 -10 -11 -12 -13 -14 14 -16
leaf_value=-0.033815409471680498 -0.025298049976401511 -0.020709435179539451 0.023753219875179095 0.0064253648237356624 0.019490833266457171 0.03225900816583397 -0.032210377610961634 0.015568061522267515 0.016204234142263536 -0.025104242372451149 0.021724904013528168 -0.021240600044252586 -0.026221155054464981 0.0040432267833691695 -0.018823811979071337
leaf_count=14 497 62 19 181 194 16 804 12 179 214 57 142 24 172 169
internal_value=0 -0.0444037 -0.016655 -0.0741959 0.171903 -0.106908 -0.167002 -0.283879 0.0866626 -0.0244752 0.102054 -0.0259059 0.160123 -0.00816789 -0.04325
internal_count=2756 2548 2051 1539 208 1496 1139 816 512 333 119 323 43 357 341
shrinkage=0.1


Tree=11
num_leaves=16
num_cat=0
split_feature=8 0 9 1 5 1 4 4 7 9 7 7 12 4 5
split_gain=94.1534 51.5293 58.7508 38.214 38.5387 37.996 34.1061 31.725 31.7111 27.9076 27.7846 31.9009 26.4242 25.313 21.188
threshold=0.70715000000000006 0.0019794139836356171 0.47500000000000003 0.013552004951928135 0.23811584740017713 0.062367144378536632 1.7346295331477075 2.0202657960380255 0.17800404817648421 0.68500000000000016 0.57991633574901025 0.62218580709388138 0.48215000000000002 0.071168497940613376 0.12847706258482841
decision_type=2 2 2 2 2 2 2 2 2 2 2 2 2 2 2
left_child=-1 3 6 8 9 10 -3 -7 -2 -5 -4 12 -12 -13 -10
right_child=1 2 5 4 -6 7 -8 -9 14 -11 11 13 -14 -15 -16
leaf_value=0.01589898711749468 -0.031969730445283305 -0.016748287126970622 -0.025939477269064565 0.02141630443670002 -0.037566116833788542 -0.04321725585138908 0.023208954362768829 0.027227076912720978 -0.013614588381670158 -0.039767296651765358 0.041617229660578223 0.0045359445323544271 -0.037417367573682948 -0.022357481889051477 0.0045671332877485352
leaf_count=208 130 110 921 88 46 26 38 8 185 28 7 97 21 476 367
internal_value=0 -0.0420587 -0.10914 0.0269289 0.145282 -0.156653 0.109898 0.134995 -0.0318904 0.185876 -0.184736 -0.0967895 0.240647 -0.145448 -0.00184316
internal_count=2756 2548 1704 844 162 1556 148 34 682 116 1522 601 28 573 552
shrinkage=0.1


Tree=12
num_leaves=16
num_cat=0
split_feature=1 0 2 6 2 2 3 12 11 1 7 7 0 11 0
split_gain=89.3928 74.5582 38.3277 49.2119 28.8962 43.5182 88.7239 23.227 25.9596 22.0698 21.6931 21.6257 21.3091 31.2348 30.8455
threshold=0.049674887185997031 0.0019794139836356171 142059.00000000003 0.19348666312824433 183118.50000000003 142059.00000000003 142059.00000000003 0.48215000000000002 0.42335000000000006 0.13463341121798708 0.5299729199529073 0.26611223686769264 0.00056023906740255741 0.54050000000000009 0.00063623857323066109
decision_type=2 2 2 2 2 2 2 2 2 2 2 2 2 2 2
left_child=1 4 -3 -4 5 6 -1 8 -5 -2 11 -6 13 -8 -14
right_child=9 2 3 7 10 -7 12 -9 -10 -11 -12 -13 14 -15 -16
leaf_value=-0.030497616237804753 0.0094168499450445042 -0.023438513670678746 -0.02291960439853219 0.031805780614649747 -0.035915520541718628 0.020212003277143481 0.019054659121887585 -0.0060847030324901177 -0.028585114099006461 0.028294644715834833 -0.034614342693582704 0.01129167117147235 0.034018066243877897 -0.043890473053344987 0.0055077764508734261
leaf_count=314 270 1058 392 20 37 83 13 112 22 20 136 42 14 40 183
internal_value=0 -0.0494036 -0.148476 -0.0431177 0.0292448 0.0605732 -0.00750669 0.0959327 0.232033 0.139696 -0.143672 -0.0127225 0.0903054 -0.150171 0.12892
internal_count=2756 2466 1604 546 862 647 564 154 42 290 215 79 250 53 197
shrinkage=0.1


Tree=13
num_leaves=16
num_cat=0
split_feature=1 0 2 3 2 4 11 12 7 1 1 7 7 0 4
split_gain=69.1137 60.1795 34.5659 118.119 55.5089 30.7588 27.2225 27.8246 23.6047 20.0828 20.0506 19.1062 21.1611 18.5659 51.8177
threshold=0.049674887185997031 0.0066374673262078691 142059.00000000003 115293.00000000001 183118.50000000003 1.6142277836536751 0.87170000000000003 0.61245000000000005 0.11357464189323084 0.013961698050632703 0.13463341121798708 0.5299729199529073 0.26611223686769264 0.045372631817762764 1.9474709214659673
decision_type=2 2 2 2 2 2 2 2 2 2 2 2 2 2 2
left_child=1 2 3 -1 5 -4 7 8 -5 -9 13 12 -6 -2 -15
right_child=10 -3 4 6 11 -7 -8 9 -10 -11 -12 -13 -14 14 -16
leaf_value=-0.03005370162471746 0.012515710959649949 -0.026898247520483649 -0.033271486920956266 -0.030767356318164601 -0.023975549159641639 0.018473714080971843 0.026255803382237333 -0.030890163013408953 0.01119470939131849 0.0015832330092734011 0.0272746468981509 -0.027238909533182139 0.010051658542127379 -0.040696225172246581 0.026630765804550451
leaf_count=768 200 556 69 48 115 163 20 115 240 91 20 205 76 60 10
internal_value=0 -0.0451522 -0.0149969 -0.0737716 0.0598511 0.156038 0.0445779 0.00139417 0.0744961 -0.156297 0.126527 -0.107126 -0.0156053 0.0834287 -0.0976258
internal_count=2756 2466 1910 1282 628 232 514 494 288 206 290 396 191 270 70
shrinkage=0.1


Tree=14
num_leaves=16
num_cat=0
split_feature=1 4 5 9 6 4 4 10 1 11 1 0 3 7 2
split_gain=70.5731 30.9877 46.189 29.3319 26.2371 21.3607 40.5661 26.6458 21.2891 19.8863 19.7647 18.9884 18.6393 18.2798 16.6826
threshold=0.073296064063411076 0.026780544707833656 0.2314518805887468 0.56500000000000006 0.097703901241543975 8.0913256752372362 0.12860352835922401 0.55000000000000016 0.051967501830379827 0.62860000000000016 0.011923131425155399 0.014699465886212381 115293.00000000001 0.11018994081025442 24778.500000000004
decision_type=2 2 2 2 2 2 2 2 2 2 2 2 2 2 2
left_child=1 10 3 4 -3 6 11 -7 -8 -10 -1 -5 -4 -6 -2
right_child=14 2 12 5 13 7 8 -9 9 -11 -12 -13 -14 -15 -16
leaf_value=0.025232174947671659 -0.016240299454903042 -0.012723783955768618 -0.032015169362448574 -0.0033379995205059343 -0.010364760485127043 0.03051042439778965 -0.027747191586024674 -0.0034838526519889662 -0.017880164350740906 0.026447119838782531 -0.012064108165615491 0.031173946365392714 -0.010240952923800124 0.013999201002356005 0.025158339845734085
leaf_count=20 15 229 450 142 105 18 745 318 76 10 35 8 276 264 45
internal_value=0 -0.0292655 -0.0458494 -0.0125819 0.0608961 -0.0666337 -0.125024 0.0193376 -0.211893 -0.0233976 0.162385 0.0592577 -0.200577 0.105449 0.218072
internal_count=2756 2696 2641 1915 598 1317 981 336 831 86 55 150 726 369 60
shrinkage=0.1


Tree=15
num_leaves=16
num_cat=0
split_feature=1 4 5 0 9 8 12 7 4 2 3 12 7 9 7
split_gain=56.8761 25.6588 39.2698 25.2938 29.8012 26.33 25.4188 24.2712 25.7469 23.7111 23.117 21.9834 18.0095 16.9601 16.1774
threshold=0.080548841706657145 0.026780544707833656 0.21750072081203178 0.001529327994849097 0.49500000000000005 0.51665000000000016 0.43125000000000008 80.000885018408738 1.9849220387203337 149092.50000000003 115293.00000000001 0.50145000000000006 0.084637693011627727 0.80500000000000016 0.22514582177848871
decision_type=2 2 2 2 2 2 2 2 2 2 2 2 2 2 2
left_child=1 -1 3 11 6 -6 -5 8 -7 -10 -4 -3 -13 14 -14
right_child=-2 2 10 4 5 7 -8 -9 9 -11 -12 12 13 -15 -16
leaf_value=0.015685847134267503 0.021416532769385821 -0.032357688755482054 -0.031223232266579134 -0.020304188193592768 0.011920879551624143 -0.025510349923665417 0.015931686071186304 0.031729636802352565 -0.026707811033954261 0.00053512071156656689 -0.0077658791020547681 -0.033605830865087748 0.027558882607628416 -0.034414767601055822 0.0076910723128094938
leaf_count=55 50 44 510 79 58 752 127 5 238 281 320 39 33 19 146
internal_value=0 -0.0258242 -0.041129 -0.00665738 -0.0462281 -0.0928758 0.0880979 -0.128044 -0.146043 -0.0649264 -0.175661 0.0881715 0.115074 0.136503 0.156344
internal_count=2756 2706 2651 1821 1540 1334 206 1276 1271 519 830 281 237 198 179
shrinkage=0.1


Tree=16
num_leaves=16
num_cat=0
split_feature=1 4 4 2 3 2 7 5 13 4 12 11 3 7 6
split_gain=46.4228 24.5349 79.6593 58.619 26.1153 23.5523 18.3925 13.0598 13.0395 12.847 12.8467 22.7181 13.1602 11.9509 11.9427
threshold=0.080548841706657145 0.12860352835922401 1.5783562410390832 105794.50000000001 115293.00000000001 183118.50000000003 0.5299729199529073 0.20334608381313682 1.0000000180025095e-35 0.27705947262376279 0.53585000000000005 0.62860000000000016 173219.50000000003 0.0099815045809607782 0.66824636590960973
decision_type=2 2 2 2 2 2 2 2 2 2 2 2 2 2 2
left_child=1 4 8 -4 -1 -5 -7 13 9 -3 -6 -12 -13 -2 -8
right_child=7 2 3 5 10 6 14 -9 -10 -11 11 12 -14 -15 -16
leaf_value=-0.035666741959735813 -0.020547909893821319 0.013843822672315731 -0.031235458378726641 0.011795313677138776 0.017144966647147219 0.0023638429684526615 -0.032793286663165923 -0.042774439012608169 -0.028090974923294348 -0.021172829051069843 -0.0065342777519783292 -0.041778558909205371 0.023468788238900549 0.024897043997949984 0.02081734706428158
leaf_count=90 8 21 335 342 123 190 147 10 993 148 256 13 39 32 9
internal_value=0 -0.0241163 -0.0595679 0.0177646 0.0566983 0.0609268 -0.0525897 0.200666 -0.232621 -0.0857386 0.080893 0.0233842 0.193096 0.220859 -0.250917
internal_count=2756 2706 2185 1023 521 688 346 50 1162 169 431 308 52 40 156
shrinkage=0.1


Tree=17
num_leaves=16
num_cat=0
split_feature=8 0 9 1 5 5 8 4 1 9 9 1 7 4 2
split_gain=35.3846 24.9212 24.8223 19.2089 18.4936 17.1298 15.3424 15.3029 16.6951 14.6725 14.3507 13.4813 17.1184 15.8598 13.1678
threshold=0.70715000000000006 0.0019794139836356171 0.47500000000000003 0.013552004951928135 0.23811584740017713 0.097936140627007742 0.92820000000000014 0.026780544707833656 0.011923131425155399 0.36500000000000005 0.68500000000000016 0.062367144378536632 0.29400948869256854 2.0202657960380255 11965.500000000002
decision_type=2 2 2 2 2 2 2 2 2 2 2 2 2 2 2
left_child=9 3 5 7 10 6 -3 8 -2 -1 -5 12 -4 -13 -9
right_child=1 2 11 4 -6 -7 -8 14 -10 -11 -12 13 -14 -15 -16
leaf_value=-0.030888649743174641 0.02090963908585395 -0.033669284295134806 -0.026564640484574166 0.018735095309454153 -0.034282075462835022 -0.023439598235748562 0.023297300871543816 -0.021047981725134085 -0.032768934208810586 0.014213682164635214 -0.037387621536880349 -0.040878538958816837 -0.0095006604493374676 0.02294553994547828 -0.0017986124951641605
leaf_count=14 19 39 638 88 46 71 38 224 18 194 28 26 884 8 421
internal_value=0 -0.0315868 -0.091289 0.0262841 0.130587 0.0886605 0.172768 -0.0239971 0.13493 0.12372 0.163377 -0.130141 -0.150383 0.0979526 -0.0629595
internal_count=2756 2548 1704 844 162 148 77 682 37 208 116 1556 1522 34 645
shrinkage=0.1


Tree=18
num_leaves=16
num_cat=0
split_feature=1 4 4 2 3 2 2 7 5 9 6 1 2 6 0
split_gain=32.689 20.3618 66.1335 45.5514 22.2231 18.4449 14.1977 13.4267 11.1735 12.6169 15.9213 11.4414 11.1071 10.2959 9.41808
threshold=0.080548841706657145 0.12860352835922401 1.5783562410390832 105794.50000000001 115293.00000000001 183118.50000000003 24778.500000000004 0.5299729199529073 0.12847706258482841 0.53500000000000014 0.31697542618930957 0.036073510268734614 175411.00000000003 0.66824636590960973 0.00056023906740255741
decision_type=2 2 2 2 2 2 2 2 2 2 2 2 2 2 2
left_child=1 4 -3 -4 -1 8 -2 -7 9 12 -11 -10 -5 -9 -6
right_child=6 2 3 5 14 7 -8 13 11 10 -12 -13 -14 -15 -16
leaf_value=-0.034984684274072114 -0.019010077659276006 -0.02273782759880277 -0.030196619100830692 0.024148321378181788 -0.012015509841120084 0.001697432444826862 0.02264445069339676 -0.031636327775716462 0.023711066068276703 0.0045814813466373942 -0.030504097593556753 -0.035467017804209647 -0.013654943733054077 0.01932428146625912 0.0099427081596302619
leaf_count=90 15 1162 335 35 59 190 35 147 37 177 52 21 20 9 372
internal_value=0 -0.0209373 -0.0557021 0.0174814 0.0555677 0.0561191 0.183 -0.051249 0.108298 0.0584167 -0.0128368 0.2094 0.177768 -0.234027 0.0784846
internal_count=2756 2706 2185 1023 521 688 50 346 342 284 229 58 55 156 431
shrinkage=0.1


Tree=19
num_leaves=16
num_cat=0
split_feature=8 7 9 4 4 3 9 2 0 10 8 0 1 4 11
split_gain=30.5099 18.3921 14.6389 17.5408 35.1482 13.5339 12.8808 17.0886 15.7814 12.6934 11.0172 9.3411 14.077 13.873 12.441
threshold=0.70715000000000006 0.084637693011627727 0.56500000000000006 0.12860352835922401 1.9849220387203337 149092.50000000003 0.6150000000000001 19314.500000000004 0.045372631817762764 0.55000000000000016 0.48075000000000007 0.00056023906740255741 0.011883652304470397 0.035243434781391678 0.50160000000000016
decision_type=2 2 2 2 2 2 2 2 2 2 2 2 2 2 2
left_child=6 -2 -3 5 -5 -4 7 -1 -9 -6 -8 14 -13 -14 -7
right_child=1 2 3 4 9 11 10 8 -10 -11 -12 12 13 -15 -16
leaf_value=-0.041262996314491075 -0.019101105583155659 0.005682473154439583 -0.021308300051939053 -0.030519892218553737 0.019729289843714193 0.018331480961924686 0.029715698438738697 0.015393108301374867 -0.016799997370230031 -0.0062438284095462726 -0.0093598625372837262 0.022134973164839616 -0.021044311338203614 0.0099885644724267524 -0.040512756943619346
leaf_count=27 497 512 107 610 38 9 24 94 31 525 32 42 75 97 36
internal_value=0 -0.0311084 -0.0131012 -0.0495669 -0.105992 0.0328211 0.122436 0.055469 0.0906733 -0.0272059 0.240954 0.068705 0.0982923 0.00210368 -0.167177
internal_count=2756 2548 2051 1539 1173 366 208 152 125 563 56 259 214 172 45
shrinkage=0.1


Tree=20
num_leaves=16
num_cat=0
split_feature=1 4 4 2 3 13 2 7 6 6 6 13 13 9 11
split_gain=29.0616 16.1383 50.7551 31.7439 15.9927 14.2653 12.7602 12.6884 13.7869 13.5101 10.68 9.65176 20.3818 9.06724 8.71937
threshold=0.080548841706657145 0.12860352835922401 1.9474709214659673 105794.50000000001 115293.00000000001 1.0000000180025095e-35 175411.00000000003 0.58431190249892373 0.34281263486567842 0.12141638936285365 0.66824636590960973 0.15000000000000005 0.25000000000000006 0.58500000000000008 0.87170000000000003
decision_type=2 2 2 2 2 2 2 2 2 2 2 2 2 2 2
left_child=1 4 5 -4 -1 -3 13 8 9 -8 -9 -11 -13 -5 -6
right_child=-2 2 3 6 14 -7 7 10 -10 11 -12 12 -14 -15 -16
leaf_value=-0.033365255698487126 0.019248958766795068 -0.0044102457343650784 -0.028896271303770194 0.019609309073836317 0.004414107928561381 -0.026044213085493224 0.013184964076020192 -0.032514830354475589 0.025372039326802986 -0.02575906230880395 0.020271766767073846 0.019755603839865243 -0.023888963677902459 0.0027187000561035013 0.023401036715945452
leaf_count=90 50 183 285 86 413 1075 68 131 18 88 7 26 67 151 18
internal_value=0 -0.0198256 -0.0531326 0.0198135 0.050354 -0.201739 0.0525488 -0.00927669 0.0299355 -0.017682 -0.220167 -0.102373 -0.0110722 0.125235 0.0690961
internal_count=2756 2706 2185 927 521 1258 642 405 267 249 138 181 93 237 431
shrinkage=0.1


Tree=21
num_leaves=16
num_cat=0
split_feature=1 0 11 1 0 9 7 10 0 7 9 1 12 8 4
split_gain=23.7834 26.0804 14.1383 16.4926 12.2937 21.6517 12.4215 16.4346 14.9611 12.3124 12.1638 12.0467 10.804 21.695 20.7018
threshold=0.049674887185997031 0.0067797069757710828 0.21055000000000004 0.0085969634365087363 0.0017110403921665716 0.6150000000000001 0.41153240727817325 0.8500000000000002 0.0015384100703791901 0.26611223686769264 0.68500000000000016 0.011923131425155399 0.49240000000000006 0.23335000000000003 2.0202657960380255
decision_type=2 2 2 2 2 2 2 2 2 2 2 2 2 2 2
left_child=1 2 -1 -4 6 9 10 8 -8 -6 -5 -9 13 -2 -15
right_child=12 -3 3 4 5 -7 7 11 -10 -11 -12 -13 -14 14 -16
leaf_value=-0.012539313007606795 0.026009807849934088 -0.023038979140307572 -0.033840984955213135 0.02020394806118718 -0.015160598087445708 -0.020734738732499574 -0.012736730158118329 0.02467004089372318 0.018050534677121189 0.0098194277935372554 -0.019457820685009123 -0.027979913557684366 0.015537199616329931 -0.035527698448491428 0.012011332364036786
leaf_count=516 10 536 102 78 194 394 258 31 29 280 31 17 162 98 20
internal_value=0 -0.0326379 -0.00841793 0.0164971 0.0281167 -0.0380649 0.076085 0.014086 -0.0597144 0.0405328 0.16532 0.182183 0.101186 -0.0123339 -0.152659
internal_count=2756 2466 1930 1414 1312 868 444 335 287 474 109 48 290 128 118
shrinkage=0.1


Tree=22
num_leaves=16
num_cat=0
split_feature=1 4 4 2 3 2 5 7 12 11 13 3 0 6 5
split_gain=22.281 13.2053 44.8334 29.3729 15.2912 12.7136 7.9042 7.85666 7.09092 14.8051 9.61327 8.35039 7.26002 6.91362 6.82638
threshold=0.080548841706657145 0.14805454742789723 1.5783562410390832 105794.50000000001 115293.00000000001 183118.50000000003 0.20334608381313682 0.5299729199529073 0.53585000000000005 0.62860000000000016 0.15000000000000005 173219.50000000003 0.00056023906740255741 0.66824636590960973 0.12847706258482841
decision_type=2 2 2 2 2 2 2 2 2 2 2 2 2 2 2
left_child=1 4 -3 -4 -1 14 -2 -7 -6 10 -10 -11 -13 -9 -5
right_child=6 2 3 5 8 7 -8 13 9 11 -12 12 -14 -15 -16
leaf_value=-0.032615679586534975 0.020220612507253356 -0.021896106807910598 -0.028460102004785683 0.0058023975631783693 0.01359240570696281 0.00072076760279680052 -0.04100764052996933 -0.029530436344850503 -0.026754496612326803 -0.04095899338924068 -0.00048930965223525132 -0.042272566681634094 0.023510899884802598 0.014763553449114267 0.019642141021925883
leaf_count=106 40 1120 335 284 142 190 10 147 86 14 176 6 33 9 58
internal_value=0 -0.0181283 -0.0521804 0.0148983 0.0445876 0.0492138 0.180643 -0.0493624 0.0635429 0.0162174 -0.0602863 0.170828 0.205551 -0.209676 0.0995112
internal_count=2756 2706 2143 1023 563 688 50 346 457 315 262 53 39 156 342
shrinkage=0.1


Tree=23
num_leaves=16
num_cat=0
split_feature=1 0 1 1 0 1 2 4 4 1 4 9 5 2 1
split_gain=18.5426 11.8424 17.5679 14.5208 16.3245 13.3627 11.7843 13.7816 10.9925 10.5841 10.2707 9.13665 8.74081 8.20581 7.49845
threshold=0.080548841706657145 0.0015869590501956733 0.013642308420667078 0.048711887399693517 0.029395734849930539 0.012318819477703993 142059.00000000003 1.6142277836536751 0.14805454742789723 0.0085969634365087363 1.9474709214659673 0.68500000000000016 0.12847706258482841 175411.00000000003 0.021879544961445462
decision_type=2 2 2 2 2 2 2 2 2 2 2 2 2 2 2
left_child=1 2 5 6 -5 9 8 -8 -3 -1 -6 -4 -11 -9 -15
right_child=-2 3 11 4 10 -7 7 13 -10 12 -12 -13 -14 14 -16
leaf_value=-0.018438056537206721 0.017050947632928703 -0.0061304266603468697 0.020725973266509743 0.011836960873857548 -0.033435735853660963 -0.027087899722955274 -0.026889536266706444 0.012190370613220942 -0.024264881303284403 -0.011518483955750952 0.0058960943991891801 -0.033326298088646671 0.0087316771905736074 0.0018216974104762387 -0.02561195794214742
leaf_count=192 50 298 60 144 106 90 258 99 868 105 20 28 219 124 95
internal_value=0 -0.0166491 0.0371867 -0.0536146 0.0448627 -0.0138094 -0.0954075 -0.0202548 -0.158712 0.0153423 -0.166401 0.179389 0.0484325 0.0286878 -0.0643429
internal_count=2756 2706 694 2012 270 606 1742 576 1166 516 126 88 324 318 219
shrinkage=0.1


Tree=24
num_leaves=16
num_cat=0
split_feature=8 7 2 2 3 3 0 9 9 4 13 2 5 5 2
split_gain=17.3623 12.7618 8.99056 9.5472 29.7662 21.1261 13.2831 8.10189 6.56495 6.52464 6.45218 12.2452 10.0308 8.63029 7.71306
threshold=0.70715000000000006 0.084637693011627727 188529.50000000003 142059.00000000003 115293.00000000001 100579.00000000001 0.055407826773898043 0.36500000000000005 0.49500000000000005 3.8667893683373844 0.15000000000000005 175411.00000000003 0.12847706258482841 0.070716342126032852 173219.50000000003
decision_type=2 2 2 2 2 2 2 2 2 2 2 2 2 2 2
left_child=7 -2 3 4 6 8 -3 -1 -5 -10 11 14 13 -12 -11
right_child=1 2 -4 5 -6 -7 -8 -9 9 10 12 -13 -14 -15 -16
leaf_value=-0.030020982123661506 -0.017916663059032698 -0.026604792680677083 -0.012343338075820708 0.025485448473160307 0.0034961229597751248 -0.031583351822038468 0.018677772015087864 0.012783548293248605 -0.030273140402694278 -0.019181750435398191 0.010058976358523951 -0.032007731813527639 0.028029638481241473 -0.030844657415530153 0.029617832508556225
leaf_count=14 497 687 373 18 590 158 6 194 28 18 77 48 15 25 8
internal_value=0 -0.0254531 -0.00887976 0.00847658 -0.0280549 0.0750281 -0.214371 0.110716 0.113867 0.0770826 0.0941937 -0.0459011 0.142136 0.040697 0.136445
internal_count=2756 2548 2051 1678 1283 395 693 208 237 219 191 74 117 102 26
shrinkage=0.1


Tree=25
num_leaves=16
num_cat=0
split_feature=1 7 8 0 1 1 5 7 9 4 7 4 4 12 1
split_gain=15.4058 8.68614 8.28497 9.63791 14.2081 8.18364 8.16717 8.01716 8.52493 7.88894 9.2522 7.88094 6.73989 8.92427 7.80304
threshold=0.13463341121798708 0.068213853255650617 0.70715000000000006 0.0015869590501956733 0.013642308420667078 0.012265588224203662 0.23811584740017713 0.17454348281147866 0.54500000000000015 3.8667893683373844 10.250263634916815 0.11813639509542616 0.026780544707833656 0.61535000000000006 0.0085969634365087363
decision_type=2 2 2 2 2 2 2 2 2 2 2 2 2 2 2
left_child=1 -1 -3 4 5 12 -6 -5 -9 10 -10 -12 -4 14 -14
right_child=-2 2 3 7 6 -7 -8 8 9 -11 11 -13 13 -15 -16
leaf_value=-0.012187750527579621 0.022937431659699217 0.010639086810468146 0.014008917555449319 -0.025042971176864187 0.020892567386901928 -0.024437614343835998 -0.030989959734177897 0.0058674529402564417 -0.021825110222019856 0.0008543970500760232 0.0078403624931523558 -0.031472863988590907 -0.028667317597881953 -0.017177489502284198 0.0065266052018669351
leaf_count=522 20 124 26 225 43 74 30 250 597 261 73 84 74 176 177
internal_value=0 -0.0114572 0.00263198 -0.013494 0.0368326 -0.0133428 0.177323 -0.0581813 -0.0398097 -0.0815879 -0.141752 -0.00312093 0.0105079 -0.0281295 0.031782
internal_count=2756 2736 2214 2090 600 527 73 1490 1265 1015 754 157 453 427 251
shrinkage=0.1


Tree=26
num_leaves=16
num_cat=0
split_feature=1 4 4 2 3 2 0 2 7 6 4 6 11 1 1
split_gain=13.74 8.77612 30.6137 21.6306 11.2091 8.28986 7.7824 7.05391 6.00134 5.78147 5.58174 7.97644 5.52757 7.92268 7.61137
threshold=0.080548841706657145 0.14805454742789723 1.262744091973093 105794.50000000001 115293.00000000001 183118.50000000003 0.00040897536135919859 24778.500000000004 0.5299729199529073 0.66824636590960973 0.12435429245223176 0.90013507823645289 0.49670000000000009 0.010931482722208079 0.0090774898813384495
decision_type=2 2 2 2 2 2 2 2 2 2 2 2 2 2 2
left_child=1 4 -3 -4 -1 6 -5 -2 -7 -10 11 12 13 -6 -14
right_child=7 2 3 5 10 8 -8 -9 9 -11 -12 -13 14 -15 -16
leaf_value=-0.031998893840413677 -0.019653651366401289 -0.021460707171316748 -0.027354474333717706 -0.044761998189435388 0.013976630082693581 0.0008032203025505598 0.0094893099146069141 0.019928876612445731 -0.028464662689735461 0.014434453290838756 0.024016674735757561 -0.038084766794430597 -0.030928121880909168 -0.01458097169067984 0.01017485702602007
leaf_count=106 15 1010 373 8 22 220 363 35 160 9 33 21 31 128 222
internal_value=0 -0.0153153 -0.0468117 0.00930068 0.0388851 0.0406864 0.0847976 0.159195 -0.0449997 -0.196823 0.055416 0.0386894 0.0501683 -0.0470198 0.0854465
internal_count=2756 2706 2143 1133 563 760 371 50 389 169 457 424 403 150 253
shrinkage=0.1


Tree=27
num_leaves=16
num_cat=0
split_feature=1 7 9 4 4 9 3 2 2 7 9 1 1 4 6
split_gain=12.3082 6.65725 7.14802 7.29047 29.2272 10.3035 8.59536 7.78546 6.5352 8.77256 6.50013 9.70259 6.61711 11.342 9.32812
threshold=0.13463341121798708 0.068213853255650617 0.47500000000000003 0.14805454742789723 3.8667893683373844 0.53500000000000014 115293.00000000001 105794.50000000001 183118.50000000003 0.50484725985206735 0.54500000000000015 0.012498832441643746 0.011923131425155399 0.035243434781391678 0.074828263300649692
decision_type=2 2 2 2 2 2 2 2 2 2 2 2 2 2 2
left_child=1 -1 -3 5 -5 -4 -7 -6 -9 -10 11 -8 -12 -14 -15
right_child=-2 2 3 4 7 6 10 8 9 -11 12 -13 13 14 -16
leaf_value=-0.011077991714301164 0.021961222046480603 0.010017212004336376 -0.03277183553254414 -0.021721816917546856 -0.025196264783454519 -0.031725980704790116 -0.045726543608426005 0.008765970635316412 0.0030369955248451229 -0.027773859282523378 0.011839788373351375 0.030706434842155884 -0.022693690540766979 0.014951097353835081 -0.01455364920492529
leaf_count=522 20 176 39 936 136 84 8 227 105 136 110 17 90 78 72
internal_value=0 -0.0103241 0.00245748 -0.0134466 -0.0497659 0.037298 0.0544038 0.0259375 0.043582 -0.0557267 0.0690753 0.237136 0.04357 -0.023595 0.0567952
internal_count=2756 2736 2214 2038 1540 498 459 604 468 241 375 25 350 240 150
shrinkage=0.1


Tree=28
num_leaves=16
num_cat=0
split_feature=8 7 2 9 2 0 2 3 3 0 8 7 10 7 0
split_gain=11.2428 7.75805 6.51038 6.40674 8.3144 7.45776 6.36872 21.2969 14.5398 9.19794 6.02169 5.95626 7.16953 6.42523 6.5263
threshold=0.70715000000000006 0.084637693011627727 188529.50000000003 0.6150000000000001 19314.500000000004 0.045372631817762764 142059.00000000003 115293.00000000001 100579.00000000001 0.055407826773898043 0.23335000000000003 0.22514582177848871 0.65000000000000002 0.33646971651761898 0.00057470426603335582
decision_type=2 2 2 2 2 2 2 2 2 2 2 2 2 2 2
left_child=3 -2 6 4 -1 -6 7 9 11 -3 -7 12 -8 -13 -15
right_child=1 2 -4 -5 5 10 8 -9 -10 -11 -12 13 -14 14 -16
leaf_value=-0.038174990986132668 -0.015284432432584436 -0.025397731665984108 -0.011500216256269196 0.021138188216419003 0.012184197375693985 0.011281699750870615 0.025967800336164054 0.0029658088887481999 -0.030499147161359902 0.017855160291713707 -0.037304545980012691 -0.019183319411522778 -0.039663790298817496 -0.045225022470435722 0.010437916364316714
leaf_count=27 497 687 373 56 94 5 27 590 158 6 26 30 7 5 168
internal_value=0 -0.0220979 -0.00816318 0.0973836 0.0392203 0.0700897 0.00767242 -0.0246448 0.0664756 -0.205984 -0.171657 0.0994063 0.220455 0.0543386 0.0871447
internal_count=2756 2548 2051 208 152 125 1678 1283 395 693 31 237 34 203 173
shrinkage=0.1


end of trees

feature importances:
Column_1=69
Column_4=69
Column_2=44
Column_7=40
Column_0=37
Column_9=37
Column_5=30
Column_3=24
Column_6=23
Column_8=20
Column_11=15
Column_12=15
Column_10=6
Column_13=6

parameters:
[boosting: gbdt]
[objective: lambdarank]
[metric: ndcg,lambdarank]
[tree_learner: serial]
[device_type: cpu]
[data: ]
[valid: ]
[num_iterations: 100]
[learning_rate: 0.1]
[num_leaves: 16]
[num_threads: -1]
[max_depth: -1]
[min_data_in_leaf: 5]
[min_sum_hessian_in_leaf: 0.001]
[bagging_fraction: 1]
[bagging_freq: 0]
[bagging_seed: 3]
[feature_fraction: 1]
[feature_fraction_seed: 2]
[early_stopping_round: 0]
[max_delta_step: 0]
[lambda_l1: 0]
[lambda_l2: 0]
[min_gain_to_split: 0]
[drop_rate: 0.1]
[max_drop: 50]
[skip_drop: 0.5]
[xgboost_dart_mode: 0]
[uniform_drop: 0]
[drop_seed: 4]
[top_rate: 0.2]
[other_rate: 0.1]
[min_data_per_group: 100]
[max_cat_threshold: 32]
[cat_l2: 10]
[cat_smooth: 10]
[max_cat_to_onehot: 4]
[top_k: 20]
[monotone_constraints: ]
[feature_contri: ]
[forcedsplits_filename: ]
[refit_decay_rate: 0.9]
[verbosity: -1]
[max_bin: 255]
[min_data_in_bin: 3]
[bin_construct_sample_cnt: 200000]
[histogram_pool_size: -1]
[data_random_seed: 1]
[output_model: LightGBM_model.txt]
[snapshot_freq: -1]
[input_model: ]
[output_result: LightGBM_predict_result.txt]
[initscore_filename: ]
[valid_data_initscores: ]
[pre_partition: 0]
[enable_bundle: 1]
[max_conflict_rate: 0]
[is_enable_sparse: 1]
[sparse_threshold: 0.8]
[use_missing: 1]
[zero_as_missing: 0]
[two_round: 0]
[save_binary: 0]
[enable_load_from_binary_file: 1]
[header: 0]
[label_column: ]
[weight_column: ]
[group_column: ]
[ignore_column: ]
[categorical_feature: ]
[predict_raw_score: 0]
[predict_leaf_index: 0]
[predict_contrib: 0]
[num_iteration_predict: -1]
[pred_early_stop: 0]
[pred_early_stop_freq: 10]
[pred_early_stop_margin: 10]
[convert_model_language: ]
[convert_model: gbdt_prediction.cpp]
[num_class: 1]
[is_unbalance: 0]
[scale_pos_weight: 1]
[sigmoid: 1]
[boost_from_average: 1]
[reg_sqrt: 0]
[alpha: 0.9]
[fair_c: 1]
[poisson_max_delta_step: 0.7]
[tweedie_variance_power: 1.5]
[max_position: 20]
[label_gain: ]
[metric_freq: 1]
[is_provide_training_metric: 0]
[eval_at: 3]
[num_machines: 1]
[local_listen_port: 12400]
[time_out: 120]
[machine_list_filename: ]
[machines: ]
[gpu_platform_id: -1]
[gpu_device_id: -1]
[gpu_use_dp: 0]

end of parameters

pandas_categorical:null
