tree
version=v2
num_class=1
num_tree_per_iteration=1
label_index=0
max_feature_idx=13
objective=lambdarank
feature_names=Column_0 Column_1 Column_2 Column_3 Column_4 Column_5 Column_6 Column_7 Column_8 Column_9 Column_10 Column_11 Column_12 Column_13
feature_infos=[4.3251875634222218e-05:0.18988547396267541] [0.0047161030096183679:0.27096335660878701] [3317:214111] [3317:214111] [0.015491964448346886:64.54959300572807] [0.017032063752969933:0.94998301496263293] [0.017032063752969933:0.94998301496263293] [1.1870853535025485e-09:3000.4270736553231] [0.125:1] [0:0.92000000000000004] [0:1] [0:1] [0:0.70279999999999998] [0:1]
tree_sizes=1337 1344 1351 1345 1347 1347 1343 1344 1343 1341 1352 1351 1351 1347 1351 1345 1349 1345 1345 1349 1336 1342 1353 1347 1357 1354 1354 1362 1351 1351 1343 1354 1354 1357 1360 1348 1352 1360 1350 1352 1345 1350 1353 1347 1342 1353 1371 1360 1358 1349 1381 1361 1343 1350 1355 1359 1361 1346 1357 1351 1354 1340 1361 1351 1351 1355 1356 1356 1356 1361 1355 1347 1362 1356 1354 1345 1347 1353 1353 1365 1357 1346 1355 1350 1345 1354 1350 1362 1359 1356 1368 1370 1358 1335 1360 1348 1360 1370 1359 1358

Tree=0
num_leaves=16
num_cat=0
split_feature=1 4 4 3 2 5 2 1 12 7 7 1 11 3 12
split_gain=30.4012 20.7723 36.097 13.4721 8.60329 6.61005 5.39757 5.11807 4.84094 4.79045 4.64663 4.49332 4.12079 3.47466 3.39166
threshold=0.049674887185997031 6.6303717347402324 0.15652894856024197 115293.00000000001 135612.50000000003 0.11764643188621172 184261.00000000003 0.073296064063411076 0.45045000000000007 0.52320384215712423 0.26611223686769264 0.021540186202790509 0.54050000000000009 181506.50000000003 0.49240000000000006
decision_type=2 2 2 2 2 2 2 2 2 2 2 2 2 2 2
left_child=1 2 3 -1 -3 8 -6 14 -4 10 -8 -5 -13 -14 -2
right_child=7 4 5 11 6 -7 9 -9 -10 -11 -12 12 13 -15 -16
leaf_value=-0.04955221931395435 -0.01273894456344149 -0.024229434049041168 0.014973725226131388 0.020239787385372035 0.036292051091350176 -0.046124924480805851 -0.029089516107549236 0.046201954993453358 -0.029804967111621873 -0.042781919115982545 0.030788548330323393 -0.032645894052844647 0.027003533075516957 -0.031851539296985018 0.026741525650703216
leaf_count=117 98 147 72 339 207 917 43 60 422 118 62 54 46 28 132
internal_value=0 -0.0749485 -0.160067 0.0659901 0.16258 -0.371182 0.240977 0.319854 -0.183537 0.0460524 0.161733 0.131677 -0.0626184 0.116362 0.170315
internal_count=2862 2572 1995 584 577 1411 430 290 494 223 105 467 128 74 230
shrinkage=0.1


Tree=1
num_leaves=16
num_cat=0
split_feature=1 5 9 4 4 7 4 6 1 1 1 11 6 7 5
split_gain=1739.48 486.428 381.999 566.085 307.554 407.236 307.356 241.543 351.502 323.962 222.242 227.499 177.786 169.656 153.459
threshold=0.073296064063411076 0.20334608381313682 0.56500000000000006 0.026988386449934752 8.1533655023323686 8.8749729977953304 0.11838486287048762 0.15248835447197226 0.024822247261287386 0.012069556425525324 0.051967501830379827 0.60420000000000007 0.10421096847410645 0.077329368158375225 0.12847706258482841
decision_type=2 2 2 2 2 2 2 2 2 2 2 2 2 2 2
left_child=2 12 7 -4 5 10 -7 -1 9 -9 -5 -12 13 -2 -6
right_child=1 -3 3 4 14 6 -8 8 -10 -11 11 -13 -14 -15 -16
leaf_value=-0.0079273110285004566 -0.023983086343552167 -0.049021951754693177 0.02577313919302528 -0.03379076093517213 -0.010159984443401968 0.018422048966879712 -0.046956951363391272 -0.02509548517375472 -0.020229816139124772 0.032352074527444957 -0.027099149695608948 0.033082007535734988 0.045958792513120163 0.029952058075239631 0.015017931265503125
leaf_count=465 16 10 63 1268 311 92 128 68 112 111 66 17 17 17 101
internal_value=0 0.331675 -0.072084 -0.126741 -0.162891 -0.232681 0.0454027 0.0448537 0.147071 0.243442 -0.295208 -0.0230077 0.377238 0.201816 -0.0445186
internal_count=2862 60 2802 2046 1983 1571 220 756 291 179 1351 83 50 33 412
shrinkage=0.1


Tree=2
num_leaves=16
num_cat=0
split_feature=8 7 1 0 9 7 1 10 5 5 2 11 3 5 4
split_gain=929.086 436.503 346.524 499.017 346.132 325.93 278.497 206.593 194.785 187.911 180.965 160.859 228.487 137.017 126.202
threshold=0.51665000000000016 0.084655366841259128 0.062367144378536632 0.0015895166344457238 0.43500000000000005 0.22688982008444328 0.0088711367149180691 0.65000000000000002 0.66824636590960973 0.07784884874776922 44732.500000000007 0.49670000000000009 207049.00000000003 0.051478600591620828 0.15652894856024197
decision_type=2 2 2 2 2 2 2 2 2 2 2 2 2 2 2
left_child=-1 -2 3 5 9 7 13 -3 11 -5 -4 12 -8 -7 -6
right_child=1 2 10 4 14 6 8 -9 -10 -11 -12 -13 -14 -15 -16
leaf_value=0.030862927966472338 -0.031319418290138075 0.036392141520325424 -0.050338977921090669 0.036189718017591882 -0.0066249197128677648 0.032257900041576686 -0.036045544099839226 -0.045002402446149364 -0.044633014777068603 -0.032539190543784971 0.035689386660196408 0.017420703608002124 0.019322798425398181 -0.034349654589961087 -0.026674759117372888
leaf_count=142 555 47 9 18 277 5 90 38 83 44 37 201 21 194 1101
internal_value=0 -0.0546732 -0.0185756 -0.0460262 -0.163281 0.0669185 -0.00507913 0.302782 0.0665144 0.20425 0.288986 0.0993344 -0.0981945 -0.269622 -0.214222
internal_count=2862 2720 2165 2119 1440 679 594 85 395 62 46 312 111 199 1378
shrinkage=0.1


Tree=3
num_leaves=16
num_cat=0
split_feature=1 0 1 4 1 5 12 2 5 2 6 4 2 7 2
split_gain=619.835 330.146 306.89 265.224 249.221 154.047 145.271 144.476 159.503 140.044 128.727 122.725 105.975 94.0439 91.3157
threshold=0.080548841706657145 0.0015895166344457238 0.049674887185997031 4.1474437029650977 0.0088711367149180691 0.66824636590960973 0.49240000000000006 142059.00000000003 0.074828263300649692 142059.00000000003 0.66824636590960973 0.15652894856024197 210139.00000000003 0.26611223686769264 183118.50000000003
decision_type=2 2 2 2 2 2 2 2 2 2 2 2 2 2 2
left_child=1 4 3 10 9 12 -4 -5 -9 -1 11 -3 -6 -10 -11
right_child=-2 2 6 7 5 -7 -8 8 13 14 -12 -13 -14 -15 -16
leaf_value=-0.034435957895184575 0.034826995001442464 -0.01604371193300462 -0.023673086653362114 -0.033182094538014947 0.016781861148511417 -0.039796155629146825 0.018929475436644454 -0.015336688070775956 -0.01347827203826203 0.021378635091847578 0.011958959276227395 -0.038947364002739307 -0.039064176442770555 0.031686827425604906 -0.033355684964912577
leaf_count=262 50 308 104 152 356 88 136 147 46 20 50 1027 34 40 42
internal_value=0 -0.04176 -0.122885 -0.186614 0.0651788 0.129411 0.0996491 -0.0149011 0.0628786 -0.171176 -0.278433 -0.307939 0.152041 0.219612 0.0593439
internal_count=2862 2812 2010 1770 802 478 240 385 233 324 1385 1335 390 86 62
shrinkage=0.1


Tree=4
num_leaves=16
num_cat=0
split_feature=8 7 0 1 9 7 9 2 4 6 11 0 7 1 11
split_gain=487.554 261.956 186.34 239.938 191.102 160.131 134.747 112.012 109.542 86.6279 85.5204 79.1595 75.5602 69.5738 66.1277
threshold=0.70715000000000006 0.084655366841259128 0.0019599222180971564 0.049972359299638981 0.43500000000000005 0.43200011330485788 0.68500000000000016 175411.00000000003 1.9654240071531792 0.26146560649407896 0.28375000000000006 0.00039778445614002965 22.516104271957271 0.010935951259033483 0.60420000000000007
decision_type=2 2 2 2 2 2 2 2 2 2 2 2 2 2 2
left_child=-1 -2 5 4 9 6 10 11 12 -4 -3 -7 -5 -13 -15
right_child=1 2 3 8 -6 7 -8 -9 -10 -11 -12 13 -14 14 -16
leaf_value=0.0242438580397231 -0.033619897053204763 -0.037216589434046564 -0.035051111867918511 -0.030496045910682119 -0.025857827861125726 -0.035413486894022017 -0.02309369761339243 -0.031128279772109996 0.029337749859884021 0.033990393306880161 0.026554370407403174 0.016636875316458355 0.034333065315033044 -0.017723695118550029 0.0097258521429514355
leaf_count=214 524 34 39 83 1152 66 85 173 37 12 109 108 5 160 61
internal_value=0 -0.0580443 -0.0243544 -0.120284 -0.201698 0.0535503 0.18088 -0.0378477 0.143459 0.191777 0.237788 0.0132939 -0.133761 0.0452209 -0.0472799
internal_count=2862 2648 2124 1328 1203 796 228 568 125 51 143 395 88 329 221
shrinkage=0.1


Tree=5
num_leaves=16
num_cat=0
split_feature=8 7 0 9 4 1 13 5 2 3 2 11 12 11 4
split_gain=315.164 183.677 128.433 154.536 101.047 100.724 99.5435 78.4791 74.0667 211.513 83.0007 63.8181 55.4855 86.399 50.8719
threshold=0.70715000000000006 0.084655366841259128 0.0019599222180971564 0.47500000000000003 1.7524732721136014 0.049972359299638981 0.45000000000000007 0.66824636590960973 142059.00000000003 142059.00000000003 183118.50000000003 0.54050000000000009 0.59815000000000007 0.87170000000000003 32.142189755996966
decision_type=2 2 2 2 2 2 2 2 2 2 2 2 2 2 2
left_child=-1 -2 7 4 -4 -5 -7 8 9 -3 14 -8 -11 -14 -10
right_child=1 2 3 5 -6 6 11 -9 10 12 -12 -13 13 -15 -16
leaf_value=0.020730918559579228 -0.031842858962039991 -0.033751279821492466 -0.020370140434441436 -0.023091190770079088 0.032183266100373392 -0.044785998417134258 -0.032070454391626167 -0.036314882099872436 0.029379335924166517 0.01782585644388816 -0.0060525045240329414 0.029266390837232495 -0.018457379899464062 0.031747467660278639 -0.010120126815667594
leaf_count=214 524 237 79 1115 29 50 25 108 63 125 124 30 110 10 19
internal_value=0 -0.0533957 -0.0227849 -0.11025 0.16019 -0.172441 0.0581596 0.0495638 0.0666827 -0.00338446 0.165795 0.188349 0.0979279 -0.0461352 0.24882
internal_count=2862 2648 2124 1328 108 1220 105 796 688 482 206 55 245 120 82
shrinkage=0.1


Tree=6
num_leaves=16
num_cat=0
split_feature=1 0 9 1 2 5 0 6 3 0 1 4 2 2 9
split_gain=253.299 245.744 95.7719 80.9873 59.4196 56.0309 55.6537 84.8556 64.019 57.7632 54.3524 56.0294 124.182 51.5258 73.3056
threshold=0.048711887399693517 0.0019599222180971564 0.44500000000000006 0.008600155082338275 142059.00000000003 0.66824636590960973 0.00064537516489687784 0.66824636590960973 4915.5000000000009 0.00056023906740255741 0.13463341121798708 1.919651029673521 142059.00000000003 142059.00000000003 0.69500000000000006
decision_type=2 2 2 2 2 2 2 2 2 2 2 2 2 2 2
left_child=1 3 -3 4 -1 6 9 8 -8 -5 11 12 -2 14 -10
right_child=10 2 -4 5 -6 -7 7 -9 13 -11 -12 -13 -14 -15 -16
leaf_value=-0.032379588375265722 0.013841776083400587 0.011245472689158306 -0.023344561078942408 6.4730473803833812e-05 0.0068797818055121394 -0.032905350774920197 -0.035152643462921955 -0.040557670884329294 -0.012566190105663084 0.036325216384174207 0.03379034344106701 0.023926136646911102 -0.040920415732395632 0.019199962836175494 0.016615288543959574
leaf_count=248 118 82 1502 35 52 97 43 66 188 20 20 84 98 127 82
internal_value=0 -0.0572714 -0.193265 0.0385084 -0.168612 0.0738307 0.0885365 0.0478624 0.0739357 0.238501 0.177155 0.121718 0.0166132 0.0961056 0.0128127
internal_count=2862 2542 1584 958 300 658 561 506 440 55 320 300 216 397 270
shrinkage=0.1


Tree=7
num_leaves=16
num_cat=0
split_feature=1 0 4 2 1 2 5 9 8 11 11 4 2 1 4
split_gain=207.729 181.883 81.6441 85.8648 63.4901 45.5034 44.9823 44.6215 50.3231 42.4338 40.5609 46.1565 40.2216 39.9935 37.0447
threshold=0.049674887185997031 0.0019599222180971564 1.5991275444204032 142059.00000000003 0.008600155082338275 142059.00000000003 0.66824636590960973 0.43500000000000005 0.56695000000000018 0.37835000000000008 0.28375000000000006 0.026988386449934752 4915.5000000000009 0.13463341121798708 0.15652894856024197
decision_type=2 2 2 2 2 2 2 2 2 2 2 2 2 2 2
left_child=1 4 14 -4 5 -1 10 -5 -9 -7 11 12 -6 -2 -3
right_child=13 2 3 7 6 9 -8 8 -10 -11 -12 -13 -14 -15 -16
leaf_value=-0.031238914373250895 0.012193810317979687 -0.013509093243021518 -0.030178113914990146 0.031397276620197846 -0.048399589906440291 0.029294347587518189 -0.032125311058808212 0.030982231706689733 -0.010803217709366269 -0.02616009941181521 0.011251797201169913 -0.024200575347606584 0.035377890865587833 0.032111541895470129 -0.034633412322158184
leaf_count=248 270 249 277 11 5 14 97 9 262 38 429 122 5 20 806
internal_value=0 -0.0546104 -0.175505 -0.0622726 0.0357917 -0.162125 0.0694819 0.0443786 -0.0267854 0.056508 0.0836303 -0.0951795 0.192656 0.173958 -0.276771
internal_count=2862 2572 1614 559 958 300 658 282 271 52 561 132 10 290 1055
shrinkage=0.1


Tree=8
num_leaves=16
num_cat=0
split_feature=1 0 4 4 5 5 3 6 2 6 7 10 12 3 1
split_gain=157.928 142.888 66.0352 50.0674 84.0702 101.9 100.043 86.8979 51.3665 49.9701 47.4123 41.0514 35.635 34.2053 32.9521
threshold=0.049674887185997031 0.0019599222180971564 4.7472598131455603 0.022010278282414669 0.16217379476095545 0.12847706258482841 173219.50000000003 0.31697542618930957 175411.00000000003 0.66824636590960973 0.1121166262813215 0.55000000000000016 0.61245000000000005 21428.500000000004 0.13463341121798708
decision_type=2 2 2 2 2 2 2 2 2 2 2 2 2 2 2
left_child=1 3 9 -1 5 7 -6 8 10 -3 -5 13 -8 -4 -2
right_child=14 2 11 4 6 -7 12 -9 -10 -11 -12 -13 -14 -15 -16
leaf_value=0.027097629952417608 0.011027170232206146 -0.026782301965799161 -0.023618252843794943 -0.033437380613004462 -0.032633934543685461 0.025623043170060672 0.012448661619360599 -0.037590250028878537 -0.019457561937692547 0.012252088434656958 0.021390547224729547 -0.012425362487821471 -0.018691576790254665 0.030206418445798668 0.030252943783921366
leaf_count=20 270 1280 33 33 377 74 107 101 84 45 85 233 77 23 20
internal_value=0 -0.0508272 -0.167558 0.0311846 0.00736733 0.0899977 -0.120218 -0.0366563 0.0565917 -0.235421 0.151505 -0.00956979 0.0346225 0.183848 0.157348
internal_count=2862 2572 1614 958 938 377 561 303 202 1325 118 289 184 56 290
shrinkage=0.1


Tree=9
num_leaves=16
num_cat=0
split_feature=8 7 0 9 1 13 4 2 2 3 11 5 3 6 7
split_gain=138.098 85.6963 54.1952 74.0823 45.8129 47.5809 42.4255 40.7216 69.8443 113.334 35.61 30.1607 46.05 27.9695 26.0758
threshold=0.70715000000000006 0.084655366841259128 0.0019599222180971564 0.47500000000000003 0.049972359299638981 0.45000000000000007 1.7524732721136014 183118.50000000003 142059.00000000003 142059.00000000003 0.54050000000000009 0.19348666312824433 175411.00000000003 0.047250632210540662 0.52320384215712423
decision_type=2 2 2 2 2 2 2 2 2 2 2 2 2 2 2
left_child=11 -2 7 6 -5 -6 -4 8 9 -3 -7 -1 -13 -11 -9
right_child=1 2 3 4 5 10 -8 14 -10 13 -12 12 -14 -15 -16
leaf_value=0.02081170198175893 -0.027436691703062538 -0.032416863681761304 -0.016287016763218084 -0.019705140214485467 -0.041835774768990197 -0.032829269909928981 0.028491537541872565 -0.0012376372133229975 0.021621018603071421 -0.037888570269704464 0.022010159786357834 -0.040092115118958285 0.026032288455772414 0.010633839995334099 -0.034728161425340132
leaf_count=157 524 259 79 1115 50 25 29 67 82 11 30 48 9 234 143
internal_value=0 -0.0446687 -0.0181854 -0.0901014 -0.143113 0.0374051 0.153897 0.0414759 0.0723714 -0.0093451 0.133852 0.17479 -0.0765866 0.085655 -0.14944
internal_count=2862 2648 2124 1328 1220 105 108 796 586 504 55 214 57 245 210
shrinkage=0.1


Tree=10
num_leaves=16
num_cat=0
split_feature=1 0 1 0 2 4 1 2 2 11 3 1 9 7 1
split_gain=113.163 60.259 60.5236 66.4046 51.2095 63.4079 38.1416 35.0607 31.1155 31.2568 31.0863 28.8804 39.7958 24.9694 58.9644
threshold=0.073296064063411076 0.0017121063864160536 0.048711887399693517 0.029395734849930539 142059.00000000003 1.5991275444204032 0.008600155082338275 183118.50000000003 142059.00000000003 0.37835000000000008 115293.00000000001 0.027354860894840658 0.6150000000000001 0.46682784506483505 0.011885131152415329
decision_type=2 2 2 2 2 2 2 2 2 2 2 2 2 2 2
left_child=1 6 4 -4 10 -6 8 13 -1 -10 -3 12 -7 -8 -15
right_child=-2 2 3 -5 5 11 7 -9 9 -11 -12 -13 -14 14 -16
leaf_value=-0.028399072623290514 0.023086341810843614 -0.031691572282060571 0.014262078426429412 -0.029758038814738222 -0.03393398581066568 0.020392386137464427 0.019051880477899165 -0.013504911707904084 0.027243496544522766 -0.028313656750486745 -0.011576089816333327 -0.015512449525504549 -0.022838889832073522 0.013955590124017586 -0.018998571244816402
leaf_count=248 60 731 144 116 256 95 116 170 14 38 406 131 73 139 125
internal_value=0 -0.0308034 -0.0902573 0.0534813 -0.144948 -0.0366353 0.041388 0.0755112 -0.134898 0.0680595 -0.229723 0.0489123 0.123056 0.106856 0.0423115
internal_count=2862 2802 1952 260 1692 555 850 550 300 52 1137 299 168 380 264
shrinkage=0.1


Tree=11
num_leaves=16
num_cat=0
split_feature=1 0 1 9 0 0 1 2 7 2 5 12 12 12 5
split_gain=87.2798 52.4994 49.5527 46.9579 46.9547 44.6219 32.6625 31.4885 28.5473 26.3697 20.8142 20.2843 22.1309 24.0167 22.4487
threshold=0.073296064063411076 0.0017121063864160536 0.048711887399693517 0.58500000000000008 0.029395734849930539 0.0067797069757710828 0.0088711367149180691 142059.00000000003 0.20294195742517387 183118.50000000003 0.20334608381313682 0.49240000000000006 0.5375000000000002 0.61485000000000001 0.15168222432906733
decision_type=2 2 2 2 2 2 2 2 2 2 2 2 2 2 2
left_child=1 6 3 5 11 8 7 -1 -3 -8 -2 -4 -13 -14 -15
right_child=10 2 4 -5 -6 -7 9 -9 -10 -11 -12 12 13 14 -16
leaf_value=-0.027271390473584574 0.02307987490161259 -0.01927419490631176 -0.018675726603657263 -0.023643209881045853 -0.026640193999033779 -0.029164719809295487 0.010597535546389213 0.0074617655759716163 0.0092967876894286469 -0.011439625576441029 -0.044356487506098947 0.035314260009056485 -0.035925507940744582 0.020504024536420144 -0.024957263370280376
leaf_count=262 50 169 44 1004 116 260 362 62 259 164 10 12 32 46 10
internal_value=0 -0.0282763 -0.0865876 -0.13913 0.0479791 -0.0433825 0.0418771 -0.117284 0.0273667 0.0771054 0.212236 0.12387 0.16506 0.0809971 0.137389
internal_count=2862 2802 1952 1692 260 688 850 324 428 526 60 144 100 88 56
shrinkage=0.1


Tree=12
num_leaves=16
num_cat=0
split_feature=8 9 0 4 4 4 1 12 9 7 7 4 1 5 12
split_gain=72.1475 45.0247 57.1345 37.8015 30.0703 36.8847 33.9616 31.5225 29.817 28.4462 27.4962 32.222 31.8293 31.3116 31.0727
threshold=0.44950000000000007 0.49500000000000005 0.0019599222180971564 1.5991275444204032 3.9938951092946868 0.15652894856024197 0.051967501830379827 0.48715000000000003 0.6150000000000001 0.084655366841259128 0.22301317184836447 0.026988386449934752 0.011929541711760357 0.1540071165945828 0.50380000000000014
decision_type=2 2 2 2 2 2 2 2 2 2 2 2 2 2 2
left_child=8 3 9 -2 5 -4 7 -6 -1 -3 13 12 -12 -11 -13
right_child=1 2 4 -5 6 -7 -8 -9 -10 10 11 14 -14 -15 -16
leaf_value=0.0061943531016743552 -0.0059162140596106805 -0.029479384222818639 -0.0023509537721733303 0.022861281874298672 0.010642452964249479 -0.02646631928221653 0.025031772384315976 -0.024544183420617455 0.032806857598837939 0.022739545298461995 0.025107608931920614 -0.033600636249669844 -0.026470236542053147 -0.033555038102696576 -0.0018719758280684074
leaf_count=64 183 137 241 81 75 1027 18 235 24 49 34 113 24 43 514
internal_value=0 -0.0275825 -0.0545946 0.113389 -0.138187 -0.193992 -0.0179783 -0.107046 0.19364 0.0142875 0.0312059 -0.00684441 0.164955 0.171315 -0.0530851
internal_count=2862 2774 2510 264 1596 1268 328 310 88 914 777 685 58 92 627
shrinkage=0.1


Tree=13
num_leaves=16
num_cat=0
split_feature=1 0 1 9 0 4 1 2 2 3 5 11 7 0 9
split_gain=71.5186 32.9471 52.7675 27.9998 27.1294 37.5128 22.4516 20.6389 23.843 64.0172 20.0805 19.7209 18.114 16.7787 16.5525
threshold=0.080548841706657145 0.0019599222180971564 0.048711887399693517 0.44500000000000006 0.029395734849930539 1.9654240071531792 0.008600155082338275 183118.50000000003 142059.00000000003 115293.00000000001 0.051478600591620828 0.093300000000000022 0.47268473424343666 0.0067270783694669571 0.53500000000000014
decision_type=2 2 2 2 2 2 2 2 2 2 2 2 2 2 2
left_child=1 6 3 11 -4 -6 10 8 9 -8 -1 -3 -10 -13 -11
right_child=-2 2 4 -5 5 -7 7 -9 12 14 -12 13 -14 -15 -16
leaf_value=0.031593681271372041 0.022841795910151081 -0.035009025850572049 0.01330628473100498 -0.017686011283911101 -0.038507964911565051 0.019010012493517942 -0.032383390070841921 -0.011341618746833435 0.025141163502282578 -0.022546688709641473 -0.018784811138366594 0.026990481779218048 -0.00019600885669694785 -0.035502276793074015 0.011636734585103165
leaf_count=5 50 38 144 1502 107 19 162 187 31 30 295 20 43 24 205
internal_value=0 -0.025199 -0.0789079 -0.145484 0.0613121 -0.146466 0.0296177 0.0551623 0.0808266 0.0251516 -0.129083 0.087351 0.184267 0.186401 0.0933069
internal_count=2862 2812 1854 1584 270 126 958 658 471 397 300 82 74 44 235
shrinkage=0.1


Tree=14
num_leaves=16
num_cat=0
split_feature=8 7 0 4 4 1 2 5 9 6 7 8 0 5 9
split_gain=61.05 39.4844 26.6821 32.2243 32.3277 29.3463 24.1517 19.1944 18.53 38.9332 25.4388 22.829 17.9871 23.284 17.6032
threshold=0.70715000000000006 0.084655366841259128 0.0019599222180971564 1.7524732721136014 0.15652894856024197 0.051967501830379827 142059.00000000003 0.66824636590960973 0.60500000000000009 0.26146560649407896 0.73150923395503298 0.96875000000000011 0.00062907515034705934 0.21750072081203178 0.35500000000000004
decision_type=2 2 2 2 2 2 2 2 2 2 2 2 2 2 2
left_child=14 -2 7 4 -4 6 -5 8 10 11 -3 -10 13 -11 -1
right_child=1 2 3 5 -6 -7 -8 -9 9 12 -12 -13 -14 -15 -16
leaf_value=-0.038171742419916221 -0.023100298579813983 0.017787026574896645 -0.0016178235068629605 -0.02901507313894704 -0.028634085863353632 0.022337179644222882 0.0018473773179724874 -0.029427561933204577 -0.017560600479213938 0.02365046461443095 -0.014687499229200119 0.011266255352995035 -0.033082537985790937 -0.04031342016189042 0.015796978529859233
leaf_count=10 524 120 235 189 649 31 224 108 105 9 65 222 137 30 204
internal_value=0 -0.0366562 -0.0146503 -0.0790907 -0.17299 0.0156989 -0.0627341 0.0352769 0.0477413 -0.00469895 0.126221 0.0655846 -0.209938 0.00617383 0.143741
internal_count=2862 2648 2124 1328 884 444 413 796 688 503 185 327 176 39 214
shrinkage=0.1


Tree=15
num_leaves=16
num_cat=0
split_feature=1 4 4 2 3 9 2 7 6 0 1 0 9 9 9
split_gain=53.3594 24.9479 99.6672 63.9899 47.1211 24.5837 23.8298 16.1423 16.4419 15.2258 19.0025 27.0134 26.5088 25.9339 19.2484
threshold=0.080548841706657145 1.9654240071531792 0.19181204699651089 105794.50000000001 115293.00000000001 0.49500000000000005 183118.50000000003 0.52320384215712423 0.66824636590960973 0.013164750624432292 0.011885131152415329 0.00056023906740255741 0.54500000000000015 0.53500000000000014 0.69500000000000006
decision_type=2 2 2 2 2 2 2 2 2 2 2 2 2 2 2
left_child=1 2 4 -3 -1 -4 -5 -8 -9 10 11 -6 13 -12 -13
right_child=-2 3 5 6 9 -7 7 8 -10 -11 12 14 -14 -15 -16
leaf_value=-0.036241079814638838 0.021255480930480786 -0.03098609971088714 -0.003664348985656922 0.013226565363449162 -0.010562692993183301 -0.029000337890169404 0.003475356765219169 -0.031505533958411956 0.02755572516165063 0.027530135262211076 -0.019187122290773059 -0.0025947862789365834 -0.013167229535929963 0.032516433331086551 0.029568869568946533
leaf_count=143 50 302 158 332 78 1051 174 151 6 22 45 34 263 19 34
internal_value=0 -0.0230899 -0.0675806 0.0340887 0.0417029 -0.232938 0.0774405 -0.036607 -0.21943 0.0768168 0.0517091 0.135186 -0.0322232 0.164877 0.217681
internal_count=2862 2812 1847 965 638 1209 663 331 157 495 473 146 327 64 68
shrinkage=0.1


Tree=16
num_leaves=16
num_cat=0
split_feature=1 0 12 0 0 1 2 9 11 4 5 4 2 3 11
split_gain=46.8718 40.6476 19.1626 23.2161 17.722 16.2399 16.2645 15.4933 15.411 15.8282 15.3812 13.8607 38.8133 19.7641 13.5359
threshold=0.049674887185997031 0.0019599222180971564 0.48170000000000007 0.0067797069757710828 0.003091026100847675 0.0088711367149180691 142059.00000000003 0.6150000000000001 0.28375000000000006 0.026988386449934752 0.66824636590960973 1.5991275444204032 142059.00000000003 100579.00000000001 0.093300000000000022
decision_type=2 2 2 2 2 2 2 2 2 2 2 2 2 2 2
left_child=1 5 3 4 -3 6 -1 14 9 -7 -10 12 13 -2 -6
right_child=11 2 -4 -5 7 8 -8 -9 10 -11 -12 -13 -14 -15 -16
leaf_value=-0.02460387566055551 -0.036338393776215498 -0.028189270815412872 -0.017956546292829254 -0.028077424198916963 -0.032975871316639024 0.016795829257384407 0.0048153219247461035 -0.011308312428701908 0.0087983449774878975 -0.023623629388686465 -0.028767342770900556 0.019857448088337906 -0.038039691472557501 0.016517327050774744 0.025445590931743752
leaf_count=262 23 78 1186 176 22 10 62 96 413 120 91 94 79 94 56
internal_value=0 -0.0376087 -0.122998 -0.0185041 0.0592405 0.0238367 -0.109881 0.118392 0.0507941 -0.118633 0.0750542 0.123265 0.0453992 0.123837 0.207818
internal_count=2862 2572 1614 428 252 958 324 174 634 130 504 290 196 117 78
shrinkage=0.1


Tree=17
num_leaves=16
num_cat=0
split_feature=8 7 9 4 4 3 2 9 6 2 4 4 1 5 2
split_gain=40.5569 23.635 19.1379 21.5206 54.73 21.6083 17.5906 14.9159 18.7689 15.9667 12.8199 28.2951 13.1457 12.9001 12.7411
threshold=0.51665000000000016 0.084655366841259128 0.56500000000000006 0.13155305168485279 1.9654240071531792 149092.50000000003 74438.000000000015 0.6150000000000001 0.074828263300649692 19314.500000000004 1.7524732721136014 0.30967425706946394 0.012069556425525324 0.11872723287321402 184261.00000000003
decision_type=2 2 2 2 2 2 2 2 2 2 2 2 2 2 2
left_child=7 -2 10 5 -5 -4 -6 8 -1 -10 11 13 -12 -3 -8
right_child=1 2 3 4 6 -7 14 -9 9 -11 12 -13 -14 -15 -16
leaf_value=-0.037976712638110338 -0.018153844748446942 0.026108486020621231 -0.023608722321580497 -0.031890162442588264 -0.032604333722090421 0.0077936191667446683 0.005933244453852772 0.027465054125089594 -0.040467471719793369 0.015377781189897292 -0.026098132298077018 -0.027272117538147025 0.015814763984868783 -0.0012327350201267481 -0.01271536375491601
leaf_count=17 555 16 124 620 129 279 282 32 19 74 31 199 154 138 193
internal_value=0 -0.0279588 -0.00895616 -0.044631 -0.0986551 0.0371339 -0.013949 0.151159 0.0705246 0.11652 0.0654803 -0.0167928 0.132215 0.0889313 0.0126531
internal_count=2862 2720 2165 1627 1224 403 604 142 110 93 538 353 185 154 475
shrinkage=0.1


Tree=18
num_leaves=16
num_cat=0
split_feature=1 0 6 9 0 1 5 4 2 5 1 5 9 7 5
split_gain=36.393 35.2507 14.41 14.3231 16.4569 13.1196 19.7354 17.1444 21.3916 22.856 19.1466 17.6837 15.6939 14.1532 13.9003
threshold=0.049674887185997031 0.0019599222180971564 0.4839581778408687 0.55500000000000016 0.0067797069757710828 0.013552004951928135 0.23973175810125746 0.026988386449934752 11965.500000000002 0.12847706258482841 0.011929541711760357 0.051478600591620828 0.68500000000000016 8.3170443194962349 0.66824636590960973
decision_type=2 2 2 2 2 2 2 2 2 2 2 2 2 2 2
left_child=1 5 3 4 -3 7 12 10 13 11 -1 -10 -7 -9 -11
right_child=-2 2 -4 -5 -6 6 -8 8 9 14 -12 -13 -14 -15 -16
leaf_value=0.021675539287461947 0.011564473781936226 0.0029918363585708014 0.0086481267152370336 -0.020726640862965582 -0.025615354093366061 0.018711241945325384 -0.035069049603726102 -0.031688665620343573 0.014528622652637511 0.013921414911400771 -0.028953129851680488 -0.020872823221149292 -0.037478180034614221 0.001505326643239832 -0.0235789090499057
leaf_count=35 290 243 74 1093 204 88 43 244 23 135 20 209 27 38 96
internal_value=0 -0.034939 -0.121591 -0.146355 -0.052266 0.0238721 0.118577 -0.00974724 -0.0468126 0.00617422 0.142354 -0.124394 0.157535 -0.21192 0.10074
internal_count=2862 2572 1614 1540 447 958 158 800 745 463 55 232 115 282 231
shrinkage=0.1


Tree=19
num_leaves=16
num_cat=0
split_feature=8 7 9 0 2 4 7 1 12 9 2 6 1 12 4
split_gain=33.1015 19.2066 16.0023 19.9573 14.5331 14.2241 13.8101 13.7723 11.514 10.6325 12.831 10.8563 9.83778 20.2861 13.6324
threshold=0.51665000000000016 0.084655366841259128 0.47500000000000003 0.0019599222180971564 183118.50000000003 1.5991275444204032 0.22301317184836447 0.013961698050632703 0.56935000000000013 0.6150000000000001 19314.500000000004 0.095990568966833972 0.062367144378536632 0.61485000000000001 0.15652894856024197
decision_type=2 2 2 2 2 2 2 2 2 2 2 2 2 2 2
left_child=9 -2 5 4 6 -3 7 8 -4 10 -1 -12 14 -14 -5
right_child=1 2 3 12 -6 -7 -8 -9 -10 -11 11 -13 13 -15 -16
leaf_value=-0.03612134995120652 -0.017433017994668298 -0.0068896432076310148 0.014236255137210288 0.0010280531238436622 -0.015429133673130769 0.021605748425991979 0.00098509590686159001 0.029017751185022263 -0.031026752772243163 0.025999508589120562 -0.024623496204096623 0.015336714728896106 -0.043607492321804296 0.023785847012148132 -0.017311357751321699
leaf_count=22 555 101 26 220 199 49 503 16 33 32 18 70 16 13 989
internal_value=0 -0.0266012 -0.00846651 -0.0274138 0.0223228 0.123799 0.0472551 0.174916 -0.00740578 0.146968 0.0744745 0.111726 -0.0992556 0.085677 -0.122537
internal_count=2862 2720 2165 2015 777 150 578 75 59 142 110 88 1238 29 1209
shrinkage=0.1


Tree=20
num_leaves=16
num_cat=0
split_feature=1 0 6 4 4 4 2 3 9 2 2 3 5 2 11
split_gain=30.8814 25.8997 12.9963 11.3171 15.145 10.7499 21.4539 11.8881 10.7498 10.554 19.9811 46.5769 11.3305 16.3952 10.4108
threshold=0.049674887185997031 0.0019599222180971564 0.4839581778408687 3.8450500411428856 0.19181204699651089 1.3187549744798368 142059.00000000003 100579.00000000001 0.6150000000000001 183118.50000000003 142059.00000000003 142059.00000000003 0.12847706258482841 175411.00000000003 0.87170000000000003
decision_type=2 2 2 2 2 2 2 2 2 2 2 2 2 2 2
left_child=1 9 3 4 -3 6 7 -2 -4 10 11 -1 13 -12 -13
right_child=5 2 8 -5 -6 -7 -8 -9 -10 -11 12 14 -14 -15 -16
leaf_value=-0.027465421607987359 -0.035414252963395482 -0.0055120667071549565 0.025032399439271914 -0.0036906940340104017 -0.026463594598968927 0.018320260915733827 -0.035306635068874007 0.013028618612089702 -0.014779760856911751 -0.012031957362246005 0.011926981835501173 0.0032557996997709332 0.025071127073188895 -0.03878819070585543 0.024733276809221549
leaf_count=380 21 272 23 319 949 101 75 93 51 223 45 252 24 21 13
internal_value=0 -0.034265 -0.112384 -0.137969 -0.188206 0.112301 0.0314908 0.095115 0.0899127 0.0196515 0.0403767 -0.0158535 0.152511 0.0434916 0.0694181
internal_count=2862 2572 1614 1540 1221 290 189 114 74 958 735 645 90 66 265
shrinkage=0.1


Tree=21
num_leaves=16
num_cat=0
split_feature=1 4 4 2 3 2 2 7 1 1 1 11 0 7 9
split_gain=29.9599 13.2371 58.7694 40.1935 21.6128 13.9915 12.52 8.84261 8.69918 10.0456 20.9959 9.96888 9.79998 10.0372 8.53428
threshold=0.080548841706657145 0.15652894856024197 1.5991275444204032 105794.50000000001 115293.00000000001 183118.50000000003 24778.500000000004 0.52320384215712423 0.009091237648686145 0.011885131152415329 0.013961698050632703 0.27700000000000008 0.001764538505832155 15.76815798384416 0.59500000000000008
decision_type=2 2 2 2 2 2 2 2 2 2 2 2 2 2 2
left_child=1 4 -3 -4 -1 -5 -2 -7 -6 14 12 -12 -11 -14 -10
right_child=6 2 3 5 8 7 -8 -9 9 10 11 -13 13 -15 -16
leaf_value=-0.033633995031200084 -0.021548376277757637 -0.022961378299389046 -0.029143825479202353 0.010976422045863887 -0.015707868548691772 0.0019798015781042322 0.024412092590454376 -0.020208149071695825 -0.0092117637830889387 -0.02989746030291477 -0.023358579396970332 0.013738514364594688 -0.036329884867394011 0.026859318627843867 0.020595998315500005
leaf_count=121 15 1148 352 353 75 191 35 165 22 77 44 186 19 11 48
internal_value=0 -0.0197209 -0.0516633 0.0215451 0.0401979 0.0617236 0.199941 -0.0410938 0.0640653 0.0814592 0.025101 0.105072 -0.183133 0.0586796 0.166474
internal_count=2862 2812 2209 1061 603 709 50 356 482 407 337 230 107 30 70
shrinkage=0.1


Tree=22
num_leaves=16
num_cat=0
split_feature=8 9 4 4 4 4 1 2 3 9 0 1 1 1 2
split_gain=24.0792 13.7021 23.9205 28.1368 17.6173 27.0844 11.9101 15.8452 11.6379 10.4751 14.7445 14.1239 14.2291 10.3745 10.7822
threshold=0.51665000000000016 0.62500000000000011 0.10836981105865272 9.5757194723121177 1.9654240071531792 0.30967425706946394 0.062367144378536632 142059.00000000003 128209.00000000001 0.69500000000000006 0.00056023906740255741 0.011867111812841695 0.043781053810177099 0.030848027307167018 197945.50000000003
decision_type=2 2 2 2 2 2 2 2 2 2 2 2 2 2 2
left_child=-1 4 9 -4 5 8 7 -6 -2 -3 -11 -12 -13 14 -9
right_child=1 2 3 -5 6 -7 -8 13 -10 10 11 12 -14 -15 -16
leaf_value=0.013918386653108159 -0.033102729647616708 -0.01169644994024243 -0.028225450092194022 -0.0018488522561437119 -0.025138259629066934 -0.022655726201784309 0.027773573742410004 0.020021460332576513 0.0062737206981760959 -0.032734733528594948 0.024207904197632156 -0.025388366171188205 0.032085983715140931 -0.0087242272403313514 -0.0036375084535893252
leaf_count=142 78 119 837 255 140 542 14 81 295 38 39 61 5 113 103
internal_value=0 -0.0240881 -0.0778137 -0.154159 0.0175681 -0.0521551 0.0908367 0.0529403 0.0357304 0.039365 0.102888 0.148579 -0.0742011 0.0901824 0.137124
internal_count=2862 2720 1354 1092 1366 915 451 437 373 262 143 105 66 297 184
shrinkage=0.1


Tree=23
num_leaves=16
num_cat=0
split_feature=1 4 9 4 4 2 4 4 12 6 2 3 2 7 6
split_gain=22.2373 10.4409 14.6182 14.7113 24.975 13.785 11.5232 26.8497 20.6937 11.4926 10.5395 10.424 9.73813 9.47715 8.79984
threshold=0.080548841706657145 0.022010278282414669 0.62500000000000011 1.5991275444204032 0.30967425706946394 105794.50000000001 0.10836981105865272 9.5757194723121177 0.59815000000000007 0.32721266157026418 175411.00000000003 128209.00000000001 24778.500000000004 0.48706031379079651 0.90013507823645289
decision_type=2 2 2 2 2 2 2 2 2 2 2 2 2 2 2
left_child=1 -1 3 4 11 -5 8 14 -4 10 -7 -3 -2 -12 -8
right_child=12 2 6 5 -6 9 7 -9 -10 -11 13 -13 -14 -15 -16
leaf_value=0.017509993326350039 -0.020698448253330851 -0.032285101875226534 0.011649124587475544 -0.025538524120505751 -0.023250146603834409 0.015256074396601801 -0.027597809333343937 -0.00035351108726364107 -0.024531927479378025 0.027142050703508433 0.0022211026090405497 0.0052096642899846848 0.022764124946293172 -0.031571018504523624 0.046321570382198106
leaf_count=24 15 83 121 124 526 125 845 258 121 21 165 308 35 85 6
internal_value=0 -0.0176369 -0.0263678 0.0144303 -0.0507945 0.0781104 -0.0867323 -0.134786 0.0134413 0.101175 0.0609023 0.027759 0.185573 -0.0239228 -0.261236
internal_count=2862 2812 2788 1437 917 520 1351 1109 242 396 375 391 50 250 851
shrinkage=0.1


Tree=24
num_leaves=16
num_cat=0
split_feature=1 0 9 4 4 3 5 3 2 0 1 11 5 12 1
split_gain=20.1823 19.2726 11.0673 11.3266 12.8284 19.6785 11.4927 13.8057 11.0157 10.5648 10.3413 9.16153 8.96962 8.59471 10.7912
threshold=0.049674887185997031 0.0067270783694669571 0.55500000000000016 0.022010278282414669 8.1533655023323686 149092.50000000003 0.12847706258482841 6380.0000000000009 175411.00000000003 0.0024042173316054655 0.012195522927755364 0.21055000000000004 0.19348666312824433 0.61245000000000005 0.014241045291723795
decision_type=2 2 2 2 2 2 2 2 2 2 2 2 2 2 2
left_child=1 2 10 -4 5 -5 7 -6 -9 13 -1 -12 -8 -7 -15
right_child=-2 -3 3 4 6 9 12 8 -10 -11 11 -13 -14 14 -16
leaf_value=-0.012628229529440305 0.010234676946711671 -0.021398500395171906 0.01629049369678745 -0.023583132362046393 -0.023360735912156382 0.0076650927911199084 0.019102314930306931 0.017498453830752641 -0.015413800252534252 -0.022494188576138566 -0.014604024559594989 0.014939954448944866 -0.027686150183702601 -0.027523270865981525 0.024909155502462157
leaf_count=102 290 546 24 771 149 157 45 54 74 221 78 204 54 84 9
internal_value=0 -0.0302872 -0.00940483 -0.0396198 -0.0566305 -0.108464 0.0249685 -0.0556334 0.0540548 -0.0251654 0.0717889 0.114462 0.145988 0.0219929 -0.151331
internal_count=2862 2572 2026 1642 1618 1242 376 277 128 471 384 282 99 250 93
shrinkage=0.1


Tree=25
num_leaves=16
num_cat=0
split_feature=8 7 9 4 4 3 2 2 0 1 0 11 12 9 11
split_gain=17.7729 10.8044 8.75651 7.82962 25.6225 9.74834 9.29214 8.25053 7.71674 10.9409 10.9238 7.46088 10.4478 10.9149 7.23457
threshold=0.70715000000000006 0.084655366841259128 0.56500000000000006 0.13155305168485279 1.9654240071531792 135612.50000000003 142059.00000000003 184261.00000000003 0.00056023906740255741 0.011885131152415329 0.0014770794820089365 0.60420000000000007 0.59035000000000015 0.71500000000000008 0.40720000000000006
decision_type=2 2 2 2 2 2 2 2 2 2 2 2 2 2 2
left_child=-1 -2 -3 5 -5 -4 -6 -8 -7 11 -11 12 13 -10 -12
right_child=1 2 3 4 6 8 7 -9 9 10 14 -13 -14 -15 -16
leaf_value=0.011032299815945293 -0.016956677400809108 0.0055218131983480251 -0.024098186459148574 -0.028861473415026519 -0.018824634513774443 -0.013613636150743409 0.0081238051382581458 -0.011152671075676022 0.029222030481960915 -0.029341912261066395 -0.023193083457509141 0.031738792465007278 -0.03609531108548944 -0.033944295551498097 0.011510043668176066
leaf_count=214 524 514 101 614 246 67 158 193 7 36 45 11 17 10 105
internal_value=0 -0.0261417 -0.011021 -0.040353 -0.0835574 0.0176634 -0.0137658 0.026104 0.0459321 0.0811956 -0.0150034 0.194149 0.0634268 0.172972 0.0571505
internal_count=2862 2648 2124 1610 1211 399 597 351 298 231 186 45 34 17 150
shrinkage=0.1


Tree=26
num_leaves=16
num_cat=0
split_feature=1 4 4 2 3 1 13 1 5 7 9 5 6 0 12
split_gain=16.3682 8.22696 30.5444 22.7757 22.4929 9.54006 9.0088 10.0818 8.40637 8.43577 8.24121 8.19309 7.56145 7.49184 6.28874
threshold=0.13463341121798708 1.919651029673521 0.30967425706946394 105794.50000000001 115293.00000000001 0.062367144378536632 1.0000000180025095e-35 0.055514294666261309 0.12141638936285365 0.60245730637997896 0.42500000000000004 0.097936140627007742 0.092972339561743902 0.0053911711155501972 0.50785000000000013
decision_type=2 2 2 2 2 2 2 2 2 2 2 2 2 2 2
left_child=1 2 4 -3 -1 8 13 14 11 -10 12 -5 -4 -6 -8
right_child=-2 3 10 5 6 -7 7 -9 9 -11 -12 -13 -14 -15 -16
leaf_value=-0.031952705164069527 0.023894988560488453 -0.026321859787045279 -0.033123361494564005 0.0024977888093061047 -0.024084052631176807 0.024080237258058055 0.013676165886425153 -0.042657894109748129 0.015213427284136669 -0.029775865752980604 -0.024043000135600723 -0.019092633254731484 0.01517698387251646 0.027877881943492062 -0.00012217959628590033
leaf_count=233 20 310 30 367 19 19 114 15 113 62 991 112 28 26 403
internal_value=0 -0.0115552 -0.0458248 0.0308993 0.0183505 0.0615588 0.0486024 0.0223431 0.0382893 0.124577 -0.197937 -0.00983332 0.010962 0.218463 0.0351813
internal_count=2862 2842 1859 983 810 673 577 532 654 175 1049 479 58 45 517
shrinkage=0.1


Tree=27
num_leaves=16
num_cat=0
split_feature=8 7 9 0 6 5 12 12 3 1 13 9 1 6 8
split_gain=14.625 8.64616 7.88469 6.38424 11.1099 13.9576 8.79585 12.1213 8.0827 7.01879 9.24224 6.30761 6.07026 6.77465 5.61928
threshold=0.70715000000000006 0.084655366841259128 0.56500000000000006 0.0024042173316054655 0.11144249945997388 0.21750072081203178 0.50380000000000014 0.50855000000000017 201973.00000000003 0.02069946515012289 0.15000000000000005 0.36500000000000005 0.048711887399693517 0.12141638936285365 0.96875000000000011
decision_type=2 2 2 2 2 2 2 2 2 2 2 2 2 2 2
left_child=11 -2 -3 4 -4 6 -6 -8 14 -5 -11 -1 13 -13 -9
right_child=1 2 3 9 5 -7 7 8 -10 10 -12 12 -14 -15 -16
leaf_value=-0.026471495829420839 -0.016003156207696791 0.0054197495733583935 0.0085261485984817042 -0.024755307149420886 -0.030750139698647112 -0.027542753017287369 0.032935968342814842 -0.027107702865608374 -0.036941040118985566 -0.023321962894428491 0.0018722481446640138 -0.030770142077325882 0.017017800898572837 0.0075435725874390602 0.004249807181152687
leaf_count=14 524 514 215 351 59 251 5 53 31 225 255 37 94 69 165
internal_value=0 -0.0245188 -0.010595 -0.0398805 -0.00624778 -0.0701817 -0.00935025 0.0248609 -0.0265988 -0.10621 -0.0546375 0.105651 0.121666 -0.00108782 0.0090313
internal_count=2862 2648 2124 1610 779 564 313 254 249 831 480 214 200 106 218
shrinkage=0.1


Tree=28
num_leaves=16
num_cat=0
split_feature=1 4 4 2 3 9 2 1 5 4 5 5 11 0 0
split_gain=12.8743 6.55786 26.1802 18.0642 11.5479 10.0985 8.43357 7.26501 6.75557 6.69734 6.68179 6.12334 5.68881 6.36856 7.78234
threshold=0.13463341121798708 1.919651029673521 0.15652894856024197 105794.50000000001 115293.00000000001 0.49500000000000005 178460.50000000003 0.062367144378536632 0.12141638936285365 5.7912790660684657 0.09695096852271691 0.12380863641167961 0.53070000000000006 0.00056023906740255741 0.00064537516489687784
decision_type=2 2 2 2 2 2 2 2 2 2 2 2 2 2 2
left_child=1 2 4 -3 -1 6 11 8 10 -10 -5 -4 -6 -14 -15
right_child=-2 3 5 7 12 -7 -8 -9 9 -11 -12 -13 13 14 -16
leaf_value=-0.031786206448459108 0.022552540215191 -0.025172439775501584 0.012373511783947432 0.0028640322246429352 -0.0041717645778965983 -0.023247710513642141 -0.032716080309854741 0.022244580477920613 -0.024267155175057058 0.014545051175399013 -0.01574148610130607 -0.030978285606069512 -0.013637531168364478 0.028475902268754794 0.0069155637359741562
leaf_count=121 20 310 61 335 200 1080 67 19 44 131 144 45 53 12 220
internal_value=0 -0.0105193 -0.042484 0.0290493 0.0309552 -0.166781 -0.0224722 0.0568182 0.0360137 0.117315 -0.00834808 0.0605938 0.0493183 0.0858047 0.109249
internal_count=2862 2842 1859 983 606 1253 173 673 654 175 479 106 485 285 232
shrinkage=0.1


Tree=29
num_leaves=16
num_cat=0
split_feature=8 9 4 4 6 4 6 9 6 6 0 4 4 1 2
split_gain=12.0611 6.68203 9.65631 16.6877 7.28525 6.71157 10.5837 6.61963 8.10806 6.5006 7.00357 6.32916 15.7675 8.39371 7.73808
threshold=0.51665000000000016 0.62500000000000011 0.10836981105865272 9.5757194723121177 0.90013507823645289 0.097165596741106225 0.11144249945997388 0.6150000000000001 0.092972339561743902 0.31697542618930957 0.00042657004287554749 1.9654240071531792 0.30967425706946394 0.062367144378536632 142059.00000000003
decision_type=2 2 2 2 2 2 2 2 2 2 2 2 2 2 2
left_child=7 11 5 4 -4 6 -3 8 -1 10 -5 12 -2 14 -13
right_child=1 2 3 9 -6 -7 -8 -9 -10 -11 -12 13 -14 -15 -16
leaf_value=-0.031189337377544937 0.0036590012420044588 0.0042948458157452928 -0.027454767307966327 -0.023175579359047356 0.049161085098548267 0.026502002346714234 -0.028891494471273121 0.024183346227462502 0.0094343479580559445 -0.021237553263517735 0.0095813608739419437 -0.022928707766160902 -0.020264127915868332 0.026291445630351958 0.0060238319845207552
leaf_count=22 373 155 831 47 6 19 88 32 88 85 123 140 542 14 297
internal_value=0 -0.0197858 -0.0646876 -0.123909 -0.255712 0.021399 -0.014289 0.118119 0.0458543 -0.0110791 0.0423354 0.0138802 -0.033653 0.0665882 0.0308977
internal_count=2862 2720 1354 1092 837 262 243 142 110 255 170 1366 915 451 437
shrinkage=0.1


Tree=30
num_leaves=16
num_cat=0
split_feature=1 8 7 2 2 3 3 7 7 9 0 5 5 7 2
split_gain=10.4985 5.31613 6.0777 5.52082 8.34305 28.3619 13.6535 5.6135 8.61177 7.0247 5.30471 5.1995 9.66943 6.53267 4.60837
threshold=0.13463341121798708 0.70715000000000006 0.030262266288919301 188529.50000000003 142059.00000000003 115293.00000000001 100579.00000000001 0.23000009371601562 0.33728089514840226 0.68500000000000016 0.057369545797012061 0.074828263300649692 0.051478600591620828 0.60959122358478146 105794.50000000001
decision_type=2 2 2 2 2 2 2 2 2 2 2 2 2 2 2
left_child=1 10 -3 4 5 -4 7 9 -9 -6 14 12 -10 -13 -1
right_child=-2 2 3 -5 6 -7 -8 8 11 -11 -12 13 -14 -15 -16
leaf_value=-0.0019017544722988386 0.021931799464011661 -0.020479546418201877 -0.024937290483390624 -0.011725064972318101 0.022553551911112888 0.0023839743849186868 -0.029597366855795854 -0.025723880118733385 0.012719250572168859 -0.045367698119153296 -0.035492141144393828 0.023123081598005892 -0.019644988350803794 -0.040457133517762311 0.014772524293127504
leaf_count=101 20 279 853 410 47 657 179 31 55 9 16 27 86 11 81
internal_value=0 -0.0096512 -0.0239823 -0.0156085 -0.00145042 -0.0390373 0.064467 0.0954443 0.046036 0.19634 0.0684299 0.0836019 0.0114217 0.190704 0.0854373
internal_count=2862 2842 2644 2365 1955 1510 445 266 210 56 198 179 141 38 182
shrinkage=0.1


Tree=31
num_leaves=16
num_cat=0
split_feature=1 0 3 8 4 7 7 4 5 9 12 12 6 7 5
split_gain=9.3717 11.483 6.22796 6.6326 9.78125 5.52516 5.46099 4.71746 10.0342 6.23239 5.99035 8.36558 5.10636 7.73426 9.7575
threshold=0.049674887185997031 0.0067797069757710828 178460.50000000003 0.93540000000000012 0.54706977542463953 0.084655366841259128 62.344006632611361 0.022010278282414669 0.29992734164281304 0.80500000000000016 0.59815000000000007 0.56520000000000004 0.054059810311221444 2.6424650178314022 0.2314518805887468
decision_type=2 2 2 2 2 2 2 2 2 2 2 2 2 2 2
left_child=1 5 -2 4 -4 -1 7 -7 9 12 11 -10 -9 14 -14
right_child=2 -3 3 -5 -6 6 -8 8 10 -11 -12 -13 13 -15 -16
leaf_value=-0.014560604684803462 0.012189975864309484 -0.01946418391451088 0.017152652136159297 -0.039092150096877776 -0.035684693482822098 0.016494677623729883 -0.033308362262512652 -0.022596088505729486 -0.02183737526046315 -0.024665415667997383 -0.031258708430728123 0.015043902053169217 0.0035658523914204356 0.018083667894881431 -0.026979567397104401
leaf_count=399 189 536 18 42 41 22 62 64 137 79 158 41 859 94 121
internal_value=0 -0.0238876 0.0825217 -0.0656689 0.025343 -0.00564785 0.0062032 0.0114442 0.00128265 0.0250251 -0.14771 -0.0545237 0.0344011 0.0426937 0.0182671
internal_count=2862 2572 290 101 59 2036 1637 1575 1553 1217 336 178 1138 1074 980
shrinkage=0.1


Tree=32
num_leaves=16
num_cat=0
split_feature=1 2 7 4 2 3 3 2 1 13 13 7 5 10 1
split_gain=8.87951 5.58608 4.44239 4.32362 20.6714 14.434 8.20096 6.02029 4.92661 4.87123 6.82109 11.381 7.09959 6.15912 6.12479
threshold=0.080548841706657145 24778.500000000004 0.0093897801955892483 0.15652894856024197 105794.50000000001 115293.00000000001 115293.00000000001 183118.50000000003 0.051967501830379827 1.0000000180025095e-35 0.25000000000000006 3.0184240130964124 0.2314518805887468 0.65000000000000002 0.011885131152415329
decision_type=2 2 2 2 2 2 2 2 2 2 2 2 2 2 2
left_child=3 -2 -3 6 8 7 -1 -6 -5 -8 11 -11 13 -12 -14
right_child=1 2 -4 4 5 -7 9 -9 -10 10 12 -13 14 -15 -16
leaf_value=-0.030875379809648169 -0.021271699470521599 -0.024343681304701371 0.022534356930028889 -0.025474651782145908 0.0081674613939702809 -0.020403230100412895 0.021113157364371027 -0.0042948187917709393 -0.0038350748085701825 -0.029158780419228793 0.018985334956906477 0.0028362453841045882 0.0059070534011661097 -0.023274192070924224 -0.021316187436409284
leaf_count=121 15 8 27 955 376 469 31 348 61 100 80 109 75 26 61
internal_value=0 0.151008 0.193745 -0.0126217 -0.0376653 0.00933778 0.0275332 0.0421148 -0.203751 0.0422999 0.0240619 -0.0646872 0.0778928 0.157898 -0.0219585
internal_count=2862 50 35 2812 2209 1193 603 724 1016 482 451 209 242 106 136
shrinkage=0.1


Tree=33
num_leaves=16
num_cat=0
split_feature=1 9 8 3 7 4 4 13 10 12 6 5 7 4 2
split_gain=7.99846 5.71455 5.90456 7.0066 6.22683 5.52322 7.67098 7.70195 4.9506 4.4786 4.41392 4.34715 8.63762 6.97595 8.86728
threshold=0.10888959064369021 0.62500000000000011 0.48075000000000007 197945.50000000003 0.56901246357554525 9.5757194723121177 0.10836981105865272 0.25000000000000006 0.75000000000000011 0.38090000000000007 0.31697542618930957 0.29992734164281304 5.3768429692780151 1.262744091973093 142059.00000000003
decision_type=2 2 2 2 2 2 2 2 2 2 2 2 2 2 2
left_child=1 8 -3 5 -5 6 7 -4 9 -1 -7 12 13 14 -11
right_child=-2 2 3 4 -6 10 -8 -9 -10 11 -12 -13 -14 -15 -16
leaf_value=-0.016802138443205852 0.018572135627860604 0.020153362819282549 -0.022211116739457672 -0.028666641295050522 0.012125387713012034 0.0031581503351215826 -0.025582919337098439 0.0041644182379815351 -0.029295118698237865 -0.00038799970281846617 -0.019868710399077002 -0.01293332648868863 0.022721332327312292 0.0075988684157198352 -0.030873525886613275
leaf_count=94 30 14 92 54 85 170 772 104 78 397 85 144 64 475 204
internal_value=0 -0.00954868 -0.0536035 -0.0668583 0.0660892 -0.0986112 -0.148641 -0.0627929 0.0206899 0.0268951 -0.0162098 0.0361066 0.0471387 0.025657 -0.0438187
internal_count=2862 2832 1376 1362 139 1223 968 196 1456 1378 255 1284 1140 1076 601
shrinkage=0.1


Tree=34
num_leaves=16
num_cat=0
split_feature=1 9 8 1 0 6 11 9 1 4 3 4 7 7 1
split_gain=7.20491 4.14275 6.88998 5.07298 10.3027 7.28604 7.27165 6.05864 5.48125 5.44498 5.06753 6.17693 8.23609 5.65558 5.1595
threshold=0.13463341121798708 0.6150000000000001 0.48075000000000007 0.012069556425525324 0.0015594681124260882 0.32721266157026418 0.62860000000000016 0.58500000000000008 0.051967501830379827 0.051340278958849885 197945.50000000003 9.5757194723121177 38.756173720039378 3.5745894930988737 0.0093652136975498294
decision_type=2 2 2 2 2 2 2 2 2 2 2 2 2 2 2
left_child=1 3 -3 -1 6 7 9 -6 -9 -5 11 12 -4 14 -12
right_child=-2 2 10 4 5 -7 -8 8 -10 -11 13 -13 -14 -15 -16
leaf_value=-0.010956274231636897 0.020287099758788951 0.020806538443447618 -0.018672360319825439 -0.026438885138774085 0.00064028539522546042 0.023708232706358051 0.031031013761550427 -0.026163883912711135 0.0051473900348483412 0.011746394758476896 0.014834607565114045 -0.0002505772307738012 0.0072489168968369599 0.019576882998044085 -0.020803672762849557
leaf_count=200 20 16 953 20 806 28 16 224 24 62 23 273 70 25 102
internal_value=0 -0.00801766 -0.0446591 0.0185155 0.0345417 -0.00311177 0.159105 -0.0210955 -0.161498 0.0647854 -0.0598925 -0.0864183 -0.14025 0.0532885 -0.0705675
internal_count=2862 2842 1462 1380 1180 1082 98 1054 248 82 1446 1296 1023 150 125
shrinkage=0.1


Tree=35
num_leaves=16
num_cat=0
split_feature=1 2 2 3 3 4 4 13 1 0 7 3 9 9 5
split_gain=6.25986 3.67941 5.20153 26.253 6.95325 9.01867 5.06509 5.8685 6.2369 6.14129 5.05062 4.44174 4.42994 4.66988 4.43293
threshold=0.13463341121798708 188529.50000000003 105794.50000000001 115293.00000000001 115293.00000000001 0.61219677923469662 0.32040915509200912 1.0000000180025095e-35 0.055514294666261309 0.0053911711155501972 0.00011409343254772224 159538.50000000003 0.49500000000000005 0.52500000000000013 0.12141638936285365
decision_type=2 2 2 2 2 2 2 2 2 2 2 2 2 2 2
left_child=1 2 3 -1 12 -6 7 9 -9 -5 -7 -3 -4 -14 -15
right_child=-2 11 4 6 5 10 -8 8 -10 -11 -12 -13 13 14 -16
leaf_value=-0.026075695102649524 0.019449694015231393 -0.0049434939658339694 0.018940321231362439 -0.02435852454875978 0.027745744040307743 0.024158324674808614 -0.024862727094442441 0.0024380854654501949 -0.03759791875015888 0.025905683988747541 -0.030795330539509249 -0.031878860779262302 -0.026679204644194654 0.0011903279002712132 0.015405574803533051
leaf_count=955 20 332 46 19 20 5 95 521 16 26 267 143 26 294 77
internal_value=0 -0.00751098 0.00381441 -0.0280716 0.0490407 -0.126074 0.0252622 0.0360078 0.0132981 0.192052 -0.239623 -0.0862565 0.0756632 0.0455795 0.060181
internal_count=2862 2842 2367 1632 735 292 677 582 537 45 272 475 443 397 371
shrinkage=0.1


Tree=36
num_leaves=16
num_cat=0
split_feature=13 0 1 12 4 7 4 4 2 3 9 9 6 2 7
split_gain=6.17494 5.65804 5.20523 6.30277 6.70937 4.68332 4.16316 13.2664 8.59118 6.79166 6.35856 5.00214 5.34107 4.6872 4.30175
threshold=1.0000000180025095e-35 0.0053911711155501972 0.015529206629622767 0.49365000000000009 1.5991275444204032 0.030262266288919301 1.919651029673521 0.13155305168485279 142059.00000000003 135612.50000000003 0.53500000000000014 0.47500000000000003 0.90013507823645289 183118.50000000003 0.52320384215712423
decision_type=2 2 2 2 2 2 2 2 2 2 2 2 2 2 2
left_child=1 -1 -3 4 -4 -2 7 9 -8 -7 -11 -9 -13 -10 -15
right_child=5 2 3 -5 -6 6 8 11 13 10 -12 12 -14 14 -16
leaf_value=-0.014424326352593931 -0.01948819375260186 0.038470715765184516 -0.025224532833723137 0.01668578086580377 0.011023349546017115 -0.019720715494600211 -0.016881874484216769 -0.00019901953683438539 0.010389167966615744 -0.021282725957567548 0.005488310614663594 -0.028000924985909739 0.01649188500533472 0.0033648414669189206 -0.018786675284932559
leaf_count=86 276 6 87 120 35 117 331 86 191 46 338 818 28 147 150
internal_value=0 0.0837405 0.11788 0.0870263 -0.0522813 -0.0176956 -0.0100123 -0.0421914 0.0292261 0.00864005 0.0332792 -0.186262 -0.243718 0.058426 -0.0211995
internal_count=2862 334 248 242 122 2528 2252 1433 819 501 384 932 846 488 297
shrinkage=0.1


Tree=37
num_leaves=16
num_cat=0
split_feature=13 0 1 12 4 7 4 4 3 2 0 0 12 0 2
split_gain=6.08334 5.21057 4.50246 5.29564 5.64693 4.28464 3.89997 11.9341 10.7619 7.22372 4.60888 6.51013 5.65937 5.59274 4.58982
threshold=1.0000000180025095e-35 0.0053911711155501972 0.015529206629622767 0.49365000000000009 1.5991275444204032 0.030262266288919301 1.919651029673521 0.61219677923469662 135612.50000000003 142059.00000000003 0.0024042173316054655 0.0023364852231786359 0.53530000000000011 0.020854942282161584 188529.50000000003
decision_type=2 2 2 2 2 2 2 2 2 2 2 2 2 2 2
left_child=1 -1 -3 4 -4 -2 7 8 -7 -8 11 -10 13 -12 -11
right_child=5 2 3 -5 -6 6 9 -9 10 14 12 -13 -14 -15 -16
leaf_value=-0.013788985389675046 -0.019191209208857751 0.034265359348672787 -0.023353423707961053 0.015856013824062577 0.010511216993320079 -0.022511713237872259 -0.01587298508116813 -0.026134567685310101 0.004334144840403612 0.0093896522152077042 -0.011116756593508458 0.054603145021220795 -0.021718230807028241 0.023007078843783904 -0.0038806181053222194
leaf_count=86 276 6 87 120 35 336 331 563 280 241 99 5 137 13 247
internal_value=0 0.0834207 0.116176 0.0844244 -0.0456539 -0.018031 -0.0106213 -0.0422891 -0.0111998 0.0279892 0.0215837 0.0569594 -0.0763269 0.0374396 0.0549069
internal_count=2862 334 248 242 122 2528 2252 1433 870 819 534 285 249 112 488
shrinkage=0.1


Tree=38
num_leaves=16
num_cat=0
split_feature=1 2 4 3 5 2 13 7 2 7 7 4 5 3 4
split_gain=5.64287 4.99979 5.12596 9.07444 5.39357 6.8772 5.90216 4.97388 3.83683 3.51385 5.93801 3.50353 7.86427 5.17249 4.86783
threshold=0.080548841706657145 188529.50000000003 8.1533655023323686 22859.500000000004 0.12847706258482841 175411.00000000003 0.15000000000000005 0.33728089514840226 24778.500000000004 0.50088570755530271 0.26134841069511322 0.15652894856024197 0.11872723287321402 115293.00000000001 0.1464067492752256
decision_type=2 2 2 2 2 2 2 2 2 2 2 2 2 2 2
left_child=1 2 3 -1 5 7 -6 -4 -2 10 -3 13 -13 -5 -15
right_child=8 9 4 11 6 -7 -8 -9 -10 -11 -12 12 -14 14 -16
leaf_value=-0.022412494917273911 -0.019166961263865349 -0.022305507597690483 -0.022146644560220093 -0.029822562919764886 -0.0064008094348363383 -0.020298464360065334 0.025803522909321572 0.011233150862783476 0.017972406861258752 -0.023314136091010438 0.0063067958421096767 0.00085048097734799716 -0.022513857554872091 0.0025348746461832561 0.032327388658592825
leaf_count=576 15 147 56 119 28 83 37 130 35 216 105 449 384 477 5
internal_value=0 -0.0104502 0.00357717 -0.0202616 0.0710106 0.0101289 0.177383 0.0710528 0.137639 -0.108201 -0.0467388 -0.00136741 -0.0596893 0.0264948 0.0374124
internal_count=2862 2812 2344 2010 334 269 65 186 50 468 252 1434 833 601 482
shrinkage=0.1


Tree=39
num_leaves=16
num_cat=0
split_feature=1 5 6 4 2 3 10 3 13 0 9 2 2 8 1
split_gain=4.89757 3.43096 3.22782 3.02335 11.8634 6.58197 5.41573 4.77125 3.96592 4.66827 4.24859 3.55166 3.85142 3.16419 3.16117
threshold=0.080548841706657145 0.20334608381313682 0.10421096847410645 0.15652894856024197 44732.500000000007 115293.00000000001 0.65000000000000002 115293.00000000001 1.0000000180025095e-35 0.0053911711155501972 0.53500000000000014 105794.50000000001 183118.50000000003 0.66250000000000009 0.009091237648686145
decision_type=2 2 2 2 2 2 2 2 2 2 2 2 2 2 2
left_child=3 2 -2 7 -5 11 -7 -1 9 -9 -10 -6 -13 -14 -12
right_child=1 -3 -4 4 5 6 -8 8 10 -11 14 12 13 -15 -16
leaf_value=-0.029564618861668585 0.0014339127900844062 -0.04159575356134268 0.024609382479354923 -0.025889682998920541 -0.018432744801071203 -0.021605774181107686 0.0064469688843129969 -0.021612403032065183 -0.018057519243432994 0.0269483937410827 -0.012289178193391965 0.0065744510016454375 0.018956139460731793 -0.0076522873466169485 0.0052092255961784274
leaf_count=121 23 10 17 706 179 490 110 16 54 15 73 376 9 339 324
internal_value=0 0.131542 0.155349 -0.00990553 -0.0344766 -0.00879749 -0.135403 0.0252955 0.0356415 0.191271 0.0173354 0.0193467 0.0308854 -0.0463646 0.0345706
internal_count=2862 50 40 2812 2209 1503 600 603 482 31 451 903 724 348 397
shrinkage=0.1


Tree=40
num_leaves=16
num_cat=0
split_feature=8 9 3 7 9 3 4 4 5 11 0 10 7 3 5
split_gain=4.3593 4.24726 4.29995 4.5084 4.23025 4.16651 5.78607 4.83263 3.35344 3.26592 6.07972 5.23755 3.26544 7.2992 5.1045
threshold=0.44950000000000007 0.62500000000000011 197945.50000000003 0.56901246357554525 0.6150000000000001 175411.00000000003 0.037127137056785796 9.5757194723121177 0.15168222432906733 0.21055000000000004 0.028717650951791646 0.45000000000000007 5.3768429692780151 178460.50000000003 0.21750072081203178
decision_type=2 2 2 2 2 2 2 2 2 2 2 2 2 2 2
left_child=4 9 5 -4 8 6 -3 -8 -1 10 -2 -12 14 -14 -11
right_child=1 2 3 -5 -6 -7 7 -9 -10 12 11 -13 13 -15 -16
leaf_value=0.0063079441311129974 -0.017418386526666021 0.014594329813085762 -0.027794013352795618 0.010529420006419796 0.023655713266894932 -0.023182052224545783 -0.017547864971833534 -0.0015618831198147285 -0.03282233808554149 0.0037289779550379065 -0.028534001243278019 0.029826467125828968 -0.014202094057223228 0.023842992635642952 -0.015079738467072421
leaf_count=46 278 31 54 85 24 126 811 255 18 805 10 8 76 59 176
internal_value=0 -0.0108653 -0.0548963 0.0562865 0.110244 -0.0842242 -0.0571707 -0.0894752 0.00767039 0.0182522 -0.0812625 0.149947 0.0347099 0.138014 0.0162367
internal_count=2862 2774 1362 139 88 1223 1097 1066 64 1412 296 18 1116 135 981
shrinkage=0.1


Tree=41
num_leaves=16
num_cat=0
split_feature=13 7 8 5 0 4 1 5 6 7 9 0 0 1 8
split_gain=4.95001 3.78521 5.2443 3.95073 3.70721 7.13391 5.2513 6.83136 4.94955 4.16442 4.07336 3.97718 4.82481 3.87119 4.06557
threshold=1.0000000180025095e-35 9.3279743194151248 0.84520000000000006 0.2314518805887468 0.0024042173316054655 1.919651029673521 0.013432420452249093 0.23973175810125746 0.058498410393010951 7.163020040791193 0.63500000000000012 0.0019095513454240604 0.0011240173202772639 0.019810645534267163 0.88195000000000012
decision_type=2 2 2 2 2 2 2 2 2 2 2 2 2 2 2
left_child=1 2 3 -1 6 9 8 13 11 -6 -7 12 -2 -8 -15
right_child=4 -3 -4 -5 5 10 7 -9 -10 -11 -12 -13 -14 14 -16
leaf_value=0.012194042656270575 0.0132240013908801 0.029630273386211325 -0.013536675212430103 -0.036954289699538949 -0.018907414842384108 0.0066636333364614685 0.015711273401343838 -0.030860525475732026 -0.0051972034167884849 -0.00016006723781640761 -0.013426454748646982 0.032408978722308211 -0.028654276413840551 0.019144401598449705 -0.027342931335831266
leaf_count=137 26 13 166 18 830 259 152 69 814 149 170 9 25 5 20
internal_value=0 0.0807212 0.0527714 0.102897 -0.0168945 -0.0612692 0.0109392 0.0911416 -0.0245579 -0.137599 0.0195114 0.116646 0.0244184 0.121339 -0.0843264
internal_count=2862 334 321 155 2528 1408 1120 246 874 979 429 60 51 177 25
shrinkage=0.1


Tree=42
num_leaves=16
num_cat=0
split_feature=8 2 4 3 0 2 5 2 7 6 0 4 10 13 0
split_gain=4.02685 3.65348 3.06023 7.76856 4.47728 4.0249 5.02472 6.19064 4.0263 4.64928 3.30913 3.17149 5.99452 4.73811 4.43409
threshold=0.23335000000000003 188529.50000000003 3.2476668602888275 59058.500000000007 0.025087377129138441 100579.00000000001 0.12847706258482841 175411.00000000003 0.33728089514840226 0.34281263486567842 0.00057470426603335582 0.15652894856024197 0.65000000000000002 1.0000000180025095e-35 0.0053911711155501972
decision_type=2 2 2 2 2 2 2 2 2 2 2 2 2 2 2
left_child=-1 2 3 -2 5 -4 7 8 -7 10 -10 13 -13 14 -5
right_child=1 -3 4 11 -6 6 -8 -9 9 -11 -12 12 -14 -15 -16
leaf_value=0.017834055438543574 -0.02095167500018643 -0.0096796178342209507 -0.023788564211782111 -0.021296263849085603 0.025948192940295402 -0.0164719949503996 0.01562544822514737 -0.020223149956052556 -0.034856051166816837 -0.027528574550426645 0.014384210701183814 -0.014411375005634001 0.010315300356176156 0.00059914094335487432 0.026041913935693446
leaf_count=22 621 474 183 20 14 80 52 99 9 27 94 505 122 522 18
internal_value=0 -0.00637727 0.00544295 -0.0169661 0.0506147 0.0292312 0.0458011 -0.00732857 0.0476104 0.0896545 0.123495 0.00299973 -0.0686159 0.0271875 0.190516
internal_count=2862 2840 2366 1808 558 544 361 309 210 130 103 1187 627 560 38
shrinkage=0.1


Tree=43
num_leaves=16
num_cat=0
split_feature=1 9 6 6 2 2 12 1 2 4 4 10 11 12 1
split_gain=3.63529 2.39113 4.78245 3.85076 3.56904 4.18591 4.17468 5.11683 4.70068 3.90351 4.9776 5.50779 3.75397 3.33268 4.11426
threshold=0.13463341121798708 0.58500000000000008 0.90013507823645289 0.31697542618930957 175411.00000000003 170053.50000000003 0.58650000000000013 0.012237320243830818 17311.500000000004 1.262744091973093 7.4480415801873541 0.45000000000000007 0.38430000000000003 0.61245000000000005 0.013642308420667078
decision_type=2 2 2 2 2 2 2 2 2 2 2 2 2 2 2
left_child=1 2 3 4 5 6 8 -8 -1 -6 11 -11 -13 -9 -15
right_child=-2 -3 -4 -5 9 -7 7 13 -10 10 -12 12 -14 14 -16
leaf_value=-0.027115501122350585 0.017583217669550611 -0.0031025886831887815 -0.040444563845262849 0.019440480160438513 -0.031963736387337342 0.023167495600261934 -0.023402537617573285 0.025301955352751201 8.2946005200552095e-05 -0.023022565757209682 -0.018156054656705764 0.028947605913074371 -0.0020308009094186456 -0.03745090145599371 0.0094195582287236665
leaf_count=80 20 1820 24 41 117 31 39 34 264 13 106 21 57 21 174
internal_value=0 -0.00596223 0.022483 0.0296137 0.0144906 0.0454292 0.0235211 0.0880294 -0.0469818 -0.0670191 -0.0273364 0.0685691 0.157406 0.121176 0.0630135
internal_count=2862 2842 1022 998 957 643 612 268 344 314 197 91 78 229 195
shrinkage=0.1


Tree=44
num_leaves=16
num_cat=0
split_feature=8 2 4 3 1 0 2 5 2 0 13 0 5 1 2
split_gain=3.35602 2.96799 3.2346 8.2571 4.68695 4.04305 3.39137 2.82048 4.30809 3.9334 3.95485 5.91492 5.10628 3.34306 3.07915
threshold=0.23335000000000003 188529.50000000003 3.2476668602888275 59058.500000000007 0.05366786651578264 0.0087469104720232001 105794.50000000001 0.12847706258482841 175411.00000000003 0.006376609099495118 0.15000000000000005 0.0012819820353033194 0.070716342126032852 0.029706896289744524 173219.50000000003
decision_type=2 2 2 2 2 2 2 2 2 2 2 2 2 2 2
left_child=-1 2 3 -2 5 6 -4 8 9 10 14 12 -12 -9 -8
right_child=1 -3 4 -5 -6 -7 7 13 -10 -11 11 -13 -14 -15 -16
leaf_value=0.016857855102347039 -0.022229655093452289 -0.0089216923684783938 -0.020544800425732864 0.00026177422340291308 0.023137405159532207 -0.023939155039921105 -0.0033544703252993179 0.019411899590125029 -0.01765007577341272 0.036253650697707814 0.028089922917959843 -0.025941937379382947 -0.027186361006572259 -0.015952912368824495 0.024775674618638607
leaf_count=22 621 474 180 1187 21 66 49 26 78 7 6 68 22 21 14
internal_value=0 -0.00592512 0.00505324 -0.0183674 0.0532115 0.0251759 0.0440244 0.0619859 0.0163103 0.0644849 0.0289216 -0.0792664 0.116939 0.149449 0.139185
internal_count=2862 2840 2366 1808 558 537 471 291 244 166 159 96 28 47 63
shrinkage=0.1


Tree=45
num_leaves=16
num_cat=0
split_feature=8 7 7 4 1 1 5 13 4 4 3 1 2 6 9
split_gain=2.9928 2.36752 2.68429 5.1313 4.48835 4.9957 4.12159 2.89178 2.73497 7.24368 4.5117 4.2607 3.67387 3.19331 3.14082
threshold=0.23335000000000003 125.50762501375443 8.3170443194962349 0.12599576566075679 0.039003789998535161 0.012544027731269612 0.31697542618930957 0.25000000000000006 1.9654240071531792 0.32040915509200912 115293.00000000001 0.062367144378536632 74438.000000000015 0.051478600591620828 0.78500000000000014
decision_type=2 2 2 2 2 2 2 2 2 2 2 2 2 2 2
left_child=-1 2 6 4 5 -4 8 -8 9 10 -2 12 -10 -12 -11
right_child=1 -3 3 -5 -6 -7 7 -9 11 14 13 -13 -14 -15 -16
leaf_value=0.016249112287045456 -0.029974733603430472 -0.02876082394018304 0.011229016579209435 -0.029282126831959528 0.026597772158189387 -0.015050986283075711 -0.0047074855160272608 -0.035063186743258971 -0.026446936289025891 -0.017911950162110581 -0.041740587567705399 0.020304707370485967 0.0019201440829654517 0.0036700927126377516 0.015529769321761037
leaf_count=22 160 44 59 131 21 64 89 140 211 839 18 20 637 355 52
internal_value=0 -0.00566592 -0.00299267 0.0638157 0.0923636 0.0369627 -0.015905 -0.192529 -0.00695626 -0.0397735 0.0112048 0.0266222 0.00693564 0.0279697 -0.152978
internal_count=2862 2840 2796 275 144 123 2521 229 2292 1424 533 868 848 373 891
shrinkage=0.1


Tree=46
num_leaves=16
num_cat=0
split_feature=1 0 0 9 3 7 0 12 4 2 9 6 0 2 4
split_gain=2.70002 2.26386 5.73376 3.22059 3.1832 5.04441 2.88223 2.35563 2.11117 7.50974 3.79322 4.50887 2.79737 2.72849 6.14287
threshold=0.13463341121798708 0.00056023906740255741 0.00064537516489687784 0.72500000000000009 201973.00000000003 0.33080155600006961 0.00083745782511625972 0.50540000000000018 0.072620377858162097 17311.500000000004 0.57500000000000007 0.084210986107070188 0.00097158655907337568 20595.500000000004 1.2466304906572276
decision_type=2 2 2 2 2 2 2 2 2 2 2 2 2 2 2
left_child=1 3 7 4 5 -1 -4 -3 -8 -10 13 -12 -13 -11 -15
right_child=-2 2 6 -5 -6 -7 8 -9 9 10 11 12 -14 14 -16
leaf_value=0.0068813255868915933 0.015923514140171388 -0.031587817771953658 -0.019605606864839451 -0.030327529518753629 0.012552994223762784 -0.033688583656275368 0.0046678874244674377 0.020467676396157139 -0.025777010522824269 0.017923557131307548 -0.025236964167489575 -0.030221821816890267 -0.0011489435882324768 -0.01119656792601568 0.0075429491969970872
leaf_count=53 20 8 96 78 23 86 256 52 436 42 217 40 804 327 324
internal_value=0 -0.00536427 0.00286937 -0.0952788 -0.03492 -0.134699 -0.00884678 0.177564 -0.00298247 -0.0196824 -0.00312489 -0.0527951 -0.0254165 0.0397514 0.0192886
internal_count=2862 2842 2602 240 162 139 2542 60 2446 2190 1754 1061 844 693 651
shrinkage=0.1


Tree=47
num_leaves=16
num_cat=0
split_feature=0 7 4 2 9 11 13 5 12 12 7 5 9 5 9
split_gain=2.6202 2.45489 1.94582 4.00561 2.68895 2.68003 2.1816 1.9427 3.10352 3.15083 3.06264 5.00367 4.18121 3.90116 2.76126
threshold=0.064460648960482161 0.0093897801955892483 0.022010278282414669 4915.5000000000009 0.80500000000000016 0.87170000000000003 0.15000000000000005 0.29992734164281304 0.61825000000000008 0.56520000000000004 2.6424650178314022 0.2314518805887468 0.53500000000000014 0.18586265588824694 0.57500000000000007
decision_type=2 2 2 2 2 2 2 2 2 2 2 2 2 2 2
left_child=2 -2 5 -4 7 -1 -6 10 9 -9 11 14 -12 -14 -5
right_child=1 -3 3 4 6 -7 -8 8 -10 -11 12 -13 13 -15 -16
leaf_value=-0.017735754333906385 -0.019889014924092608 0.022930675579862461 -0.02416888958376226 0.003940146151389652 0.0058245122971413727 0.018279848994524086 -0.030222848092218188 -0.017885287760368532 -0.031865989766563685 0.0093307268553256863 -0.019389434403481426 -0.025809189736188343 -0.019071826806014158 0.014679791452033318 -0.003604610577451955
leaf_count=10 8 22 135 686 20 14 106 149 123 73 40 198 60 123 1095
internal_value=0 0.160153 -0.0053199 -0.0108378 -0.0047368 0.113154 -0.188215 0.000552457 -0.0897555 -0.0278038 0.00854011 -0.00820288 0.0824683 0.115582 0.0017225
internal_count=2862 30 2832 2808 2673 24 126 2547 345 222 2202 1979 223 183 1781
shrinkage=0.1


Tree=48
num_leaves=16
num_cat=0
split_feature=8 2 11 6 9 9 2 12 9 1 0 0 4 4 7
split_gain=2.33797 3.03487 2.93077 2.72548 2.66797 3.66512 3.27218 2.65201 2.62375 6.6993 3.6112 5.88646 3.98659 3.32247 3.08537
threshold=0.51665000000000016 188529.50000000003 0.46690000000000004 0.092972339561743902 0.49500000000000005 0.52500000000000013 21428.500000000004 0.43085000000000007 0.54500000000000015 0.012498832441643746 0.0024042173316054655 0.0023364852231786359 8.4470279307563541 0.17914814489775166 75.284853203593272
decision_type=2 2 2 2 2 2 2 2 2 2 2 2 2 2 2
left_child=3 4 -3 -1 6 -6 -2 -8 9 -7 11 -10 14 -11 -12
right_child=1 2 -4 -5 5 8 7 -9 10 13 12 -13 -14 -15 -16
leaf_value=-0.012953354615031002 -0.01682273263724144 -0.025517761931863944 -0.0040162202138489559 0.011323875348765727 -0.023661527142754796 -0.038099180107788511 -0.0096592882469563948 0.01680444993868464 0.00032395996701398838 0.024349501687324335 -0.015556194582069827 0.039966322040551332 0.0057745362500843328 -0.0034789685308697724 0.010494409588307978
leaf_count=25 58 164 291 117 94 27 48 85 776 26 889 25 121 86 30
internal_value=0 -0.0102002 -0.104542 0.0760468 0.00190435 -0.0115623 0.0860168 0.12561 -0.00354111 0.0972243 -0.0168229 0.0169905 -0.0784798 0.158583 -0.126182
internal_count=2862 2720 455 142 2265 2074 191 133 1980 139 1841 801 1040 112 919
shrinkage=0.1


Tree=49
num_leaves=16
num_cat=0
split_feature=8 7 7 4 5 1 1 3 12 3 13 4 2 13 3
split_gain=2.23556 2.11542 2.27862 4.02506 3.47558 3.08787 3.67405 2.31627 2.15571 3.14094 2.0915 2.06463 7.67303 4.80297 4.28082
threshold=0.23335000000000003 125.50762501375443 8.3170443194962349 0.12599576566075679 0.31697542618930957 0.039003789998535161 0.012544027731269612 194170.00000000003 0.56230000000000013 173219.50000000003 0.25000000000000006 0.043633680431627027 17311.500000000004 0.25000000000000006 204297.00000000003
decision_type=2 2 2 2 2 2 2 2 2 2 2 2 2 2 2
left_child=-1 2 4 5 11 6 8 -7 -4 -10 -6 13 -13 -2 -14
right_child=1 -3 3 -5 10 7 -8 -9 9 -11 -12 12 14 -15 -16
leaf_value=0.01496580460085775 -0.02279776658388959 -0.028599979051221431 -0.0094060240298265881 -0.028831348574385074 -0.0062578495034895862 0.028908553382369057 -0.013089412345173305 -0.032606686160673824 -0.021612688731987711 0.020388344402182595 -0.034003114098386175 -0.020303745807529115 0.0013342937946808498 0.013646339969044012 -0.023655181907989667
leaf_count=22 31 44 20 131 89 14 64 7 12 27 140 499 1537 67 158
internal_value=0 -0.0050911 -0.0024372 0.0638846 -0.0146596 0.0900112 0.0416862 0.246925 0.110066 0.157427 -0.188577 -0.00624016 -0.0172178 0.0768335 0.00343148
internal_count=2862 2840 2796 275 2521 144 123 21 59 39 229 2292 2194 98 1695
shrinkage=0.1


Tree=50
num_leaves=16
num_cat=0
split_feature=7 7 0 0 0 9 6 5 8 4 2 4 3 1 0
split_gain=2.05743 2.28827 1.93485 4.15081 2.73466 2.69184 2.25704 1.95929 1.82353 2.14144 2.78253 2.44733 4.23071 3.35967 3.11944
threshold=125.50762501375443 93.193228225072019 0.00056023906740255741 0.00064537516489687784 0.00083745782511625972 0.68500000000000016 0.90013507823645289 0.12141638936285365 0.23335000000000003 0.022010278282414669 5201.0000000000009 0.026988386449934752 201973.00000000003 0.011787441244427136 0.0024042173316054655
decision_type=2 2 2 2 2 2 2 2 2 2 2 2 2 2 2
left_child=1 2 5 -4 -5 6 7 -1 -6 -10 -11 -12 13 -13 -15
right_child=-2 -3 3 4 8 -7 -8 -9 9 10 11 12 -14 14 -16
leaf_value=-0.027509374524479293 -0.02835846808788638 0.028118118707684867 0.016763859161082244 -0.019351636287590269 0.01403911216449309 -0.02362922370814878 -0.045927405579926653 0.0069985876287233101 0.017397728546573635 -0.023214258744398211 0.023378031717828991 -0.016885858162499243 -0.015760326676241967 0.0070722665878161263 -0.0014732219562712651
leaf_count=20 44 11 59 95 22 108 9 103 10 116 8 210 236 389 1422
internal_value=0 0.00250915 -0.000355837 0.00743102 -0.00251369 -0.0879424 -0.00960296 0.0235106 0.00332291 -0.00226624 -0.007579 -0.00199783 -0.00678938 0.00642346 0.0162422
internal_count=2862 2818 2807 2567 2508 240 132 123 2413 2391 2381 2265 2257 2021 1811
shrinkage=0.1


Tree=51
num_leaves=16
num_cat=0
split_feature=7 7 0 0 0 9 6 5 13 2 5 4 4 3 0
split_gain=2.01259 2.44098 1.87063 3.3526 2.54765 2.36231 1.9631 1.85649 3.5466 1.82271 1.72838 1.69435 5.87763 6.21373 3.58301
threshold=125.50762501375443 93.193228225072019 0.00056023906740255741 0.00064537516489687784 0.00083745782511625972 0.68500000000000016 0.90013507823645289 0.21750072081203178 0.15000000000000005 212965.50000000003 0.12141638936285365 1.919651029673521 0.61219677923469662 115293.00000000001 0.025087377129138441
decision_type=2 2 2 2 2 2 2 2 2 2 2 2 2 2 2
left_child=1 2 5 7 -5 6 10 -4 -9 11 -1 12 13 -6 -13
right_child=-2 -3 3 4 9 -7 -8 8 -10 -11 -12 14 -14 -15 -16
leaf_value=-0.026970562725789529 -0.028107278217200687 0.028033849004545159 0.023585717407994755 -0.018801330025684581 -0.026501797733273075 -0.022763101720858846 -0.045207590445359797 0.027123430536334925 -0.026100597492739498 -0.028357127308526481 0.006127072921515612 0.00085136565333256478 -0.014801701720930259 0.0038192086261308817 0.015964583920336263
leaf_count=20 44 11 19 95 326 108 9 7 33 45 103 742 712 540 48
internal_value=0 0.00250353 -0.00059563 0.00704661 -0.0017865 -0.0879033 -0.0129808 0.154276 -0.00168405 0.00383856 0.0174553 0.00652495 -0.0172957 0.0169863 0.0369369
internal_count=2862 2818 2807 2567 2508 240 132 59 40 2413 123 2368 1578 866 790
shrinkage=0.1


Tree=52
num_leaves=16
num_cat=0
split_feature=0 7 7 7 3 5 4 0 1 13 12 0 1 7 13
split_gain=1.93517 2.23264 1.51835 1.79865 3.61803 2.75345 2.30991 2.4356 9.19355 1.96356 1.88001 1.76154 2.36616 1.82633 1.65802
threshold=0.064460648960482161 0.0093897801955892483 125.50762501375443 8.3170443194962349 149092.50000000003 0.31697542618930957 0.12599576566075679 0.0019095513454240604 0.011885131152415329 0.25000000000000006 0.56230000000000013 0.0029186386955245025 0.039003789998535161 12.373462286244335 0.80000000000000016
decision_type=2 2 2 2 2 2 2 2 2 2 2 2 2 2 2
left_child=2 -2 3 5 -5 -1 7 8 10 -7 -6 -9 13 -13 -12
right_child=1 -3 -4 4 6 9 -8 11 -10 -11 14 12 -14 -15 -16
leaf_value=-0.00060681475956728429 -0.020009190808837396 0.021904154437837029 -0.026414497479971766 -0.026658583517113216 -0.0029914167390098336 -0.0053750235881214669 -0.029726648727703572 0.033782108595515302 -0.029333639504742565 -0.033530370264718327 0.02833070816237834 0.017625251257528514 0.022341676665811737 -0.024976629937670667 -0.022336365195799891
leaf_count=2283 8 22 44 96 13 90 54 7 33 140 13 8 18 28 5
internal_value=0 0.145816 -0.00474611 -0.00258468 0.0584087 -0.0135647 0.0855796 0.101537 0.0237454 -0.174943 0.175662 0.187793 0.119579 -0.0729983 0.246535
internal_count=2862 30 2832 2788 275 2513 179 125 64 230 31 61 54 36 18
shrinkage=0.1


Tree=53
num_leaves=16
num_cat=0
split_feature=1 2 9 6 6 7 4 2 12 3 4 1 3 4 9
split_gain=2.11256 2.24325 1.46567 3.50561 2.92246 2.69252 3.92361 3.47373 3.92405 4.32632 3.85105 2.50454 3.01827 2.26129 2.2515
threshold=0.10888959064369021 44732.500000000007 0.58500000000000008 0.90013507823645289 0.31697542618930957 3.0184240130964124 0.11838486287048762 115293.00000000001 0.59845000000000015 135612.50000000003 0.61219677923469662 0.012195522927755364 210139.00000000003 1.9654240071531792 0.35500000000000004
decision_type=2 2 2 2 2 2 2 2 2 2 2 2 2 2 2
left_child=2 -2 3 4 11 7 -7 8 9 -4 -9 12 -1 -12 -13
right_child=1 -3 5 -5 -6 6 -8 10 -10 -11 13 14 -14 -15 -16
leaf_value=-0.026804947966151876 -0.01552115388036064 0.020958350646341408 -0.025271591756950703 -0.038689014351081102 0.018261664092928814 0.0064505970809445859 -0.028172875698864709 0.042202937137151474 -0.026550928776939087 0.0038184510873435066 -0.0192996475214019 -0.027871906482070066 0.018211424073675167 -0.00018668104312567324 0.0032206572336627897
leaf_count=101 11 19 376 23 40 183 191 7 391 105 205 41 10 360 799
internal_value=0 0.137915 -0.00553803 0.0199166 0.0269668 -0.0271912 0.0370665 -0.056353 -0.132104 -0.0537531 -0.00995502 0.0113394 -0.158168 -0.0244997 0.0248719
internal_count=2862 30 2832 1014 991 1818 374 1444 872 481 572 951 111 565 840
shrinkage=0.1


Tree=54
num_leaves=16
num_cat=0
split_feature=8 2 11 9 2 8 9 6 2 7 4 3 5 5 1
split_gain=1.8101 2.36356 2.46466 2.44518 2.44517 2.59483 2.27194 3.21686 2.30396 2.1878 3.8585 3.38522 2.80559 4.48453 3.48777
threshold=0.51665000000000016 188529.50000000003 0.46690000000000004 0.47500000000000003 21428.500000000004 0.92820000000000014 0.6150000000000001 0.092972339561743902 19314.500000000004 2.6424650178314022 8.1533655023323686 33627.000000000007 0.064112689013387875 0.11144249945997388 0.010285465334945306
decision_type=2 2 2 2 2 2 2 2 2 2 2 2 2 2 2
left_child=6 3 -3 4 -2 -6 7 -1 -9 10 11 -5 -13 -14 -15
right_child=1 2 -4 9 5 -7 -8 8 -10 -11 -12 12 13 14 -16
leaf_value=-0.027039804416900955 -0.014448341652752923 -0.024234325191192105 -0.0035730806418971897 -0.023428909875052972 -0.0043303038487710593 0.020266444053482574 0.019818087027853509 -0.03632540718273429 0.0094950527087492489 0.0039666270734937809 0.003636460301988879 -0.028889570971657355 0.0067795693405172872 0.0048548985802851323 -0.016534308017666404
leaf_count=22 50 164 291 582 53 57 32 17 71 406 298 125 219 80 395
internal_value=0 -0.00934315 -0.0956428 0.00202351 0.0945289 0.135136 0.0710623 0.0146455 0.0660798 -0.0103917 -0.0336748 -0.0766734 -0.0496184 -0.0323129 -0.103211
internal_count=2862 2720 455 2265 160 110 142 110 88 2105 1699 1401 819 694 475
shrinkage=0.1


Tree=55
num_leaves=16
num_cat=0
split_feature=4 2 11 9 9 1 4 4 12 1 13 1 4 4 4
split_gain=2.6258 2.8971 2.50524 2.0947 2.09341 3.91884 1.79197 3.27564 1.99228 1.9181 1.70327 1.6934 1.9477 1.72864 3.29656
threshold=0.022010278282414669 4915.5000000000009 0.87170000000000003 0.80500000000000016 0.78500000000000014 0.015711460080744661 33.486712699992772 30.283673223886662 0.66435000000000011 0.0079418480351606414 0.15000000000000005 0.10888959064369021 1.0571845466701182 0.026988386449934752 0.031111787562227728
decision_type=2 2 2 2 2 2 2 2 2 2 2 2 2 2 2
left_child=2 -2 -1 4 6 -6 7 9 -8 -3 -5 13 -13 -11 -15
right_child=1 3 -4 10 5 -7 8 -9 -10 11 -12 12 -14 14 -16
leaf_value=-0.01482863189297361 -0.022228832556787793 -0.023668362610895857 0.02147210959464646 0.0052589612622438928 0.029808836461902407 -0.027835247034012446 -0.026660098360026092 0.018397725741824095 0.0071822881158770217 0.015087281387113613 -0.028841583324211984 -0.007074129040068414 0.022681063696755335 -0.021724723310527078 -0.00042627478168887181
leaf_count=10 135 126 14 20 26 36 69 40 22 19 106 16 14 53 2156
internal_value=0 -0.00678823 0.143909 -0.00155083 0.00322224 0.173926 -0.00180487 0.00325059 -0.151388 -0.00465659 -0.176677 -0.000892351 0.127058 -0.0070166 -0.0123253
internal_count=2862 2838 24 2703 2577 62 2515 2424 91 2384 126 2258 30 2228 2209
shrinkage=0.1


Tree=56
num_leaves=16
num_cat=0
split_feature=1 0 3 1 9 2 13 12 13 11 9 9 3 7 12
split_gain=1.94335 3.91039 3.20725 2.8777 2.79647 2.79014 2.69441 4.43536 3.4683 3.17619 2.84975 2.66125 2.63531 3.59366 3.54448
threshold=0.013221151266090822 0.0015404881367148454 201973.00000000003 0.013577332096496733 0.68500000000000016 3913.0000000000005 1.0000000180025095e-35 0.49325000000000008 0.35000000000000003 0.42335000000000006 0.38500000000000006 0.37500000000000006 181506.50000000003 1.8364959205892302 0.5716500000000001
decision_type=2 2 2 2 2 2 2 2 2 2 2 2 2 2 2
left_child=12 4 3 -3 -2 -5 -7 9 -9 10 -8 -4 -1 14 -14
right_child=1 2 11 5 -6 6 7 8 -10 -11 -12 -13 13 -15 -16
leaf_value=-0.0083500639587040654 0.016049875117311811 0.020011649812825483 0.021358697347676227 0.040803889125514026 -0.029301845684082253 0.0063727298873473802 -0.022991477218173496 -0.017639680507810111 -0.0016054064399048801 -0.0067725698650576514 0.016856269445460755 -0.026781065953265806 0.0028031022513096151 0.010723246142610389 -0.027549946779381981
leaf_count=796 66 57 5 5 30 281 28 458 408 195 163 170 51 87 62
internal_value=0 0.0199087 -5.33212e-05 0.0115926 0.134653 0.000450499 -0.00484164 -0.0356143 -0.0918541 0.053864 0.130655 -0.189431 -0.0372685 0.0252346 -0.08779
internal_count=2862 1866 1770 1595 96 1538 1533 1252 866 386 191 175 996 200 113
shrinkage=0.1


Tree=57
num_leaves=16
num_cat=0
split_feature=1 0 3 1 10 1 5 2 8 10 9 9 3 7 1
split_gain=2.05011 3.32995 2.9574 2.98116 2.81117 3.10872 2.68086 2.54716 2.49437 2.54991 2.3623 2.24943 2.18455 4.26381 3.60734
threshold=0.013221151266090822 0.0015404881367148454 201973.00000000003 0.013577332096496733 0.8500000000000002 0.039003789998535161 0.23973175810125746 115293.00000000001 0.84520000000000006 0.75000000000000011 0.68500000000000016 0.37500000000000006 181506.50000000003 1.8364959205892302 0.010285465334945306
decision_type=2 2 2 2 2 2 2 2 2 2 2 2 2 2 2
left_child=12 6 3 7 8 -6 10 -3 -5 -10 -2 -4 -1 14 -14
right_child=1 2 11 4 5 -7 -8 -9 9 -11 -12 -13 13 -15 -16
leaf_value=-0.0080603376563686251 0.017793106551320156 -0.010311525577343821 0.01978669179591434 0.0053702626988100357 -0.026986390409486256 0.031770947439194112 -0.027865995055676954 0.03034066186303714 -0.0025841618894498724 -0.024303986870298996 -0.031811814325758747 -0.026041320572699141 0.0039109040421430969 0.010764933727955445 -0.025666095819627418
leaf_count=796 46 39 5 258 36 19 33 18 1061 164 17 170 41 87 72
internal_value=0 0.0207273 0.00240927 0.01334 0.00153622 0.211427 0.128998 0.199416 -0.00895756 -0.0417063 0.156065 -0.185997 -0.0381822 0.0183177 -0.103797
internal_count=2862 1866 1770 1595 1538 55 96 57 1483 1225 63 175 996 200 113
shrinkage=0.1


Tree=58
num_leaves=16
num_cat=0
split_feature=1 0 3 9 10 8 5 5 12 4 12 3 2 13 4
split_gain=2.08068 3.26375 3.19393 2.73556 5.85326 2.5781 2.52436 2.44613 3.20612 4.2738 2.57455 2.55467 2.29412 3.03963 2.94961
threshold=0.013221151266090822 0.0015404881367148454 201973.00000000003 0.76500000000000012 0.65000000000000002 0.93540000000000012 0.23973175810125746 0.12847706258482841 0.61245000000000005 0.018275342596420181 0.61140000000000005 3913.0000000000005 11965.500000000002 0.25000000000000006 0.037127137056785796
decision_type=2 2 2 2 2 2 2 2 2 2 2 2 2 2 2
left_child=7 6 3 5 -5 -3 -2 10 12 -10 -1 -11 13 -9 -15
right_child=1 2 -4 4 -6 -7 -8 8 9 11 -12 -13 -14 14 -16
leaf_value=-0.022327917916777483 0.015605810456970411 0.0048087492980526279 -0.019430576806827072 -0.023633162781345668 0.029922046610845961 -0.0043179045304166828 -0.027584163469492658 -0.034925135974328066 0.018505448042352962 0.02045964636539363 -0.0022774526634812674 -0.020874902964148317 0.011135755968543132 0.010378937349239874 -0.018600709630620604
leaf_count=178 63 495 175 69 55 976 33 85 8 16 101 283 179 39 107
internal_value=0 0.0209776 0.00293381 0.0142871 0.166011 0.000918389 0.129752 -0.0386692 -0.00587015 -0.103666 -0.121343 -0.170742 0.0448896 -0.0362873 0.0144539
internal_count=2862 1866 1770 1595 124 1471 96 996 717 307 279 299 410 231 146
shrinkage=0.1


Tree=59
num_leaves=16
num_cat=0
split_feature=1 0 3 9 1 1 12 0 13 10 6 7 1 9 2
split_gain=1.93896 3.10453 2.5107 2.39722 2.28466 2.30736 5.735 3.43999 3.43781 3.00719 2.30639 2.40828 4.65305 2.63761 2.28315
threshold=0.013221151266090822 0.0015404881367148454 201973.00000000003 0.68500000000000016 0.013577332096496733 0.039003789998535161 0.48715000000000003 0.0067797069757710828 0.35000000000000003 0.8500000000000002 0.29992734164281304 9.3279743194151248 0.051967501830379827 0.40500000000000008 24778.500000000004
decision_type=2 2 2 2 2 2 2 2 2 2 2 2 2 2 2
left_child=-1 3 4 -2 -3 6 7 8 -6 10 11 12 13 -7 -14
right_child=1 2 -4 -5 5 9 -8 -9 -10 -11 -12 -13 14 -15 -16
leaf_value=-0.0038194410745662809 0.015191510925046146 0.018135709471120465 -0.017925006500694857 -0.029132577677739947 0.015894847158299513 0.017951639260743096 -0.012690866072056165 -0.026452019710494969 -0.019523894521880275 0.028899720683968472 0.027035985496088391 0.018474492037019331 -0.0243824467507672 -0.022512197423821059 0.0067123965121079756
leaf_count=996 66 57 175 30 118 12 680 75 80 19 14 31 20 302 187
internal_value=0 0.0203305 0.00252027 0.127296 0.0124076 0.00220113 -0.0423658 0.0703204 0.110134 0.0436379 0.0247081 0.00908821 -0.0151711 -0.170776 0.0450478
internal_count=2862 1866 1770 96 1595 1538 953 273 198 585 566 552 521 314 207
shrinkage=0.1


Tree=60
num_leaves=16
num_cat=0
split_feature=1 0 1 1 12 1 6 7 5 7 4 12 7 12 0
split_gain=2.35179 3.2269 3.41012 3.16021 4.7593 3.4521 2.93806 2.79573 2.26634 2.19581 3.09362 2.06937 3.32735 2.05555 3.63665
threshold=0.013552004951928135 0.0015404881367148454 0.013577332096496733 0.039003789998535161 0.48715000000000003 0.039049184313841932 0.074828263300649692 0.12235047868859412 0.23973175810125746 0.93304646366938016 4.1474437029650977 0.64575000000000016 0.22688982008444328 0.49240000000000006 0.043153128602366322
decision_type=2 2 2 2 2 2 2 2 2 2 2 2 2 2 2
left_child=7 8 -3 4 6 -5 -4 -1 11 10 -8 12 -2 14 -7
right_child=1 2 3 5 -6 13 9 -9 -10 -11 -12 -13 -14 -15 -16
leaf_value=-0.026244877529742423 0.016017107429799875 0.028911632014197122 -0.0279815082302961 0.036094290902714467 -0.013006154282007777 -0.021981741640103056 -0.013814436431023862 -0.0026561304198676888 -0.027126924752302141 0.026392861780075185 0.013453584973949943 0.025911514124554988 -0.025037860655193773 0.0062887936166065479 0.0066291890626519025
leaf_count=216 23 12 57 10 788 170 140 840 31 35 66 17 19 378 60
internal_value=0 0.0237067 0.00479054 -0.00429848 -0.0560982 0.0434125 0.0488578 -0.0404708 0.134066 0.0841288 0.030771 0.158786 0.0620346 0.0270793 -0.0635974
internal_count=2862 1806 1716 1704 1086 618 298 1056 90 241 206 59 42 608 230
shrinkage=0.1


Tree=61
num_leaves=16
num_cat=0
split_feature=1 0 6 9 5 3 9 6 1 0 4 12 7 7 13
split_gain=2.5982 3.16781 2.94013 2.39065 2.37876 2.19499 2.18558 1.92845 1.8156 1.73079 1.71351 1.87484 2.19678 1.49945 1.53196
threshold=0.013221151266090822 0.0015404881367148454 0.90013507823645289 0.6150000000000001 0.23973175810125746 201973.00000000003 0.68500000000000016 0.058498410393010951 0.069711841941480918 0.0017121063864160536 36.233695995615371 0.64575000000000016 0.25719782714987693 62.344006632611361 0.35000000000000003
decision_type=2 2 2 2 2 2 2 2 2 2 2 2 2 2 2
left_child=7 4 5 -4 6 -3 10 13 -7 -9 11 12 -2 14 -1
right_child=1 2 3 -5 -6 8 -8 9 -10 -11 -12 -13 -14 -15 -16
leaf_value=0.018266671899591993 0.015281880211212073 0.00076257084108605504 -0.032985706380165063 0.038810127540203881 -0.02756569873904401 -0.025786978272972647 -0.031525334605188873 -0.0051288694328081837 0.013227831117188026 -0.024084504352632766 -0.040212515834813091 0.028944695403462284 -0.030038204350648613 -0.036362452962344825 -0.0039915045863244047
leaf_count=20 19 1578 12 5 33 169 17 684 6 252 5 12 10 14 26
internal_value=0 0.0243365 0.00569144 0.283087 0.133652 -0.00229123 0.159314 -0.0443545 -0.173789 -0.0650086 0.180925 0.195344 0.0951789 0.0651335 0.0909737
internal_count=2862 1866 1770 17 96 1753 63 996 175 936 46 41 29 60 46
shrinkage=0.1


Tree=62
num_leaves=16
num_cat=0
split_feature=0 6 9 6 2 9 12 12 9 6 4 7 4 2 1
split_gain=2.70473 2.55849 2.2608 4.66393 3.42105 2.74477 2.33675 2.45902 2.08668 1.93971 1.919 1.60275 2.77184 2.77075 3.62299
threshold=0.00056023906740255741 0.90013507823645289 0.74500000000000011 0.81372517904785802 5201.0000000000009 0.7350000000000001 0.31455000000000005 0.61485000000000001 0.68500000000000016 0.81372517904785802 0.026988386449934752 8.8749729977953304 1.5991275444204032 142059.00000000003 0.01419744151094608
decision_type=2 2 2 2 2 2 2 2 2 2 2 2 2 2 2
left_child=1 8 4 6 -2 9 -4 -8 -1 10 -6 12 13 14 -12
right_child=2 -3 3 -5 5 -7 7 -9 -10 -11 11 -13 -14 -15 -16
leaf_value=0.0010662773298594844 -0.028718469639759648 -0.043385174597645203 0.022511450443947954 0.032407700207590498 0.022687494562522791 -0.02602183464210361 -0.01548908681799531 0.0074342055394239883 -0.021225289557802292 -0.015618698258639322 -0.017768383216460924 0.0089907493212114734 0.0036831700338416208 -0.022684266513883083 0.0016295587023952207
leaf_count=123 97 12 48 13 8 58 179 108 105 61 262 190 775 300 523
internal_value=0 -0.110629 0.0102339 0.0902274 -0.00269076 0.00369695 0.0246568 -0.0244143 -0.0714982 0.0093456 0.0158462 0.0106034 -0.00133805 -0.0507067 -0.0261805
internal_count=2862 240 2622 348 2274 2177 335 287 228 2119 2058 2050 1860 1085 785
shrinkage=0.1


Tree=63
num_leaves=16
num_cat=0
split_feature=1 1 2 0 1 12 0 13 1 5 9 6 1 1 9
split_gain=2.00475 2.20502 2.90883 2.52941 2.57408 4.16196 2.71934 3.09781 2.46459 1.80786 1.80469 1.78553 2.25759 2.87101 1.70189
threshold=0.013221151266090822 0.013577332096496733 115293.00000000001 0.0015404881367148454 0.039003789998535161 0.48715000000000003 0.0067797069757710828 0.35000000000000003 0.039049184313841932 0.23973175810125746 0.57500000000000007 0.084210986107070188 0.016244929893825335 0.014989948669873701 0.68500000000000016
decision_type=2 2 2 2 2 2 2 2 2 2 2 2 2 2 2
left_child=-1 2 -2 9 5 6 7 -5 -6 14 11 12 13 -7 -3
right_child=1 3 -4 4 8 10 -8 -9 -10 -11 -12 -13 -14 -15 -16
leaf_value=-0.0039600688072757477 -0.01172389877401122 0.01599217769614705 0.027521698736657135 0.013303729945097703 0.032457801772269673 -0.027561089274843711 -0.026093210386143963 -0.020758567617412821 0.0025160295322658108 -0.026277182455773658 -0.019327484045912613 -0.014108667495941724 -0.017419239012222865 0.031714292385333374 -0.03101708684965343
leaf_count=996 50 43 22 130 10 16 82 86 608 31 510 193 49 20 16
internal_value=0 0.0215271 0.168655 0.0116897 -0.00529728 -0.0530007 0.0475889 0.083987 0.0386457 0.115963 -0.123273 -0.0488979 0.0663452 0.192002 0.139825
internal_count=2862 1866 72 1794 1704 1086 298 216 618 90 788 278 85 36 59
shrinkage=0.1


Tree=64
num_leaves=16
num_cat=0
split_feature=1 1 0 0 6 9 4 7 1 1 3 5 5 6 9
split_gain=2.09686 3.12769 1.98041 2.16995 1.948 1.89788 2.00227 3.45996 2.45356 2.79663 3.55677 2.99064 2.12007 1.84128 1.7286
threshold=0.013552004951928135 0.013577332096496733 0.0015404881367148454 0.0023364852231786359 0.058498410393010951 0.46500000000000002 23.684762056482654 0.47698742482085105 0.011885131152415329 0.011787441244427136 201973.00000000003 0.051478600591620828 0.17738567550977588 0.15168222432906733 0.66500000000000015
decision_type=2 2 2 2 2 2 2 2 2 2 2 2 2 2 2
left_child=4 13 -3 -4 -1 -6 8 -8 9 10 11 -7 -12 -2 -13
right_child=1 2 3 -5 5 6 7 -9 -10 -11 12 14 -14 -15 -16
leaf_value=0.0068656861875007582 -0.038503331050440799 0.010856007224623147 -0.015203367646190522 0.00112853597235213 0.01312385588009839 0.013125709937069761 0.015402707851925102 -0.018827306323336075 -0.021160278803144153 0.018942235110947198 -0.028966746782031663 -0.011199216544353296 0.0089713963649149988 0.032789720191824197 -0.030047053686363991
leaf_count=64 7 90 116 1588 24 8 35 79 271 28 28 168 53 5 298
internal_value=0 0.0230745 0.0144431 -0.000447261 -0.0390673 -0.0600038 -0.0737266 0.0370999 -0.100502 -0.0598654 -0.0880588 -0.164812 0.0415711 0.270867 -0.209799
internal_count=2862 1806 1794 1704 1056 992 968 114 854 583 555 474 81 12 466
shrinkage=0.1


Tree=65
num_leaves=16
num_cat=0
split_feature=8 9 6 2 9 2 11 12 2 9 13 7 5 13 3
split_gain=1.43415 1.65801 2.00972 1.6015 1.72727 2.12043 1.55394 1.49373 1.48621 1.84177 1.45478 1.43765 2.90398 2.63207 2.17205
threshold=0.51665000000000016 0.6150000000000001 0.092972339561743902 188529.50000000003 0.47500000000000003 21428.500000000004 0.46690000000000004 0.44405000000000006 105794.50000000001 0.40500000000000008 0.15000000000000005 8.3170443194962349 0.31697542618930957 0.25000000000000006 178460.50000000003
decision_type=2 2 2 2 2 2 2 2 2 2 2 2 2 2 2
left_child=1 2 -1 4 5 -2 -5 -7 9 -4 -8 12 13 14 -6
right_child=3 -3 8 6 11 7 10 -9 -10 -11 -12 -13 -14 -15 -16
leaf_value=-0.023384053143309574 -0.016151294638802886 0.019134872224224608 0.012423308797064171 -0.021121309470459367 -0.0043591672171695997 -0.0031176319147940609 -0.023351234101429159 0.018344224256350392 0.01249076770075826 -0.0283500909704755 0.00092431286775200333 0.0049279853638985191 -0.026162511267737127 0.0023851876856283566 -0.022948562082793725
leaf_count=22 50 32 8 164 677 50 64 60 41 39 227 232 186 838 172
internal_value=0 0.0701287 0.0172018 -0.00900504 0.00134343 0.0882113 -0.0859012 0.130094 0.0617052 -0.0921913 -0.0339546 -0.00986616 -0.0253374 -0.0154686 -0.071465
internal_count=2862 142 110 2720 2265 160 455 110 88 47 291 2105 1873 1687 849
shrinkage=0.1


Tree=66
num_leaves=16
num_cat=0
split_feature=0 0 0 6 9 2 2 5 11 2 12 4 3 9 0
split_gain=1.36356 1.84453 2.0634 1.72451 1.39715 1.31124 1.18087 1.16206 1.78579 1.1664 1.11006 1.10314 3.72768 1.85738 1.77315
threshold=0.00056023906740255741 0.00064537516489687784 0.00083745782511625972 0.058078177218171025 0.68500000000000016 205071.50000000003 212965.50000000003 0.21750072081203178 0.87170000000000003 184261.00000000003 0.60055000000000014 3.9938951092946868 44732.500000000007 0.78500000000000014 0.025087377129138441
decision_type=2 2 2 2 2 2 2 2 2 2 2 2 2 2 2
left_child=3 7 -3 -1 10 -6 11 9 -9 -2 -5 12 -4 -14 -13
right_child=1 2 6 4 5 -7 -8 8 -10 -11 -12 14 13 -15 -16
leaf_value=0.021328582513799748 0.025641476553285553 -0.018662102230876741 -0.021469422123531631 -0.0011916843012544729 -0.031784581541758027 0.0081672632076027971 -0.026555931125356994 -0.021460650538429982 0.024609930184042509 -0.01915665880725129 -0.031785598048218032 0.0024320503581214264 -0.00072208846384852303 0.013363156143937908 0.019856336861001602
leaf_count=7 13 96 505 106 97 7 45 36 5 6 23 556 1262 79 19
internal_value=0 0.00739222 0.000510251 -0.082785 -0.114674 -0.244808 0.00618393 0.138422 -0.01205 0.214081 -0.0495634 0.00848772 -0.00935462 0.00559007 0.0415434
internal_count=2862 2622 2562 240 233 104 2466 60 41 19 129 2421 1846 1341 575
shrinkage=0.1


Tree=67
num_leaves=16
num_cat=0
split_feature=0 0 0 9 13 3 1 4 4 4 3 7 1 4 2
split_gain=1.27477 1.40572 1.56266 1.15943 1.46836 1.63344 1.63114 1.09019 1.25342 3.75849 4.33973 3.08977 2.72559 2.30947 2.20677
threshold=0.00047411709645801212 0.00064537516489687784 0.00083745782511625972 0.8650000000000001 0.45000000000000007 201973.00000000003 0.0087683943938369358 33.486712699992772 1.919651029673521 0.61219677923469662 115293.00000000001 0.033754797800299323 0.062367144378536632 0.59646879932415298 74438.000000000015
decision_type=2 2 2 2 2 2 2 2 2 2 2 2 2 2 2
left_child=-1 3 -3 4 5 6 -2 8 9 10 -4 -11 14 -12 -10
right_child=1 2 7 -5 -6 -7 -8 -9 12 11 13 -13 -14 -15 -16
leaf_value=-0.0089768783225627445 -0.026767678101566938 -0.016777782659586713 -0.026724849524152917 -0.044683940221912917 0.029941814292214541 0.027244656390971757 0.0075010092115058409 -0.014645962191233465 -0.025929514919090249 0.0036612554544266009 0.0023586405208882982 -0.022107264670797641 0.018666752626859399 0.031693646849014614 0.0027295365391195089
leaf_count=204 47 96 326 6 14 5 24 63 194 129 563 625 29 5 532
internal_value=0 0.00647454 -0.000387945 0.106605 0.12257 0.0574667 -0.0240422 0.00448815 0.0083704 -0.0139928 0.0157011 -0.134284 0.0392732 0.0338753 0.0149885
internal_count=2862 2658 2562 96 90 76 71 2466 2403 1648 894 754 755 568 726
shrinkage=0.1


Tree=68
num_leaves=16
num_cat=0
split_feature=0 0 13 11 9 0 2 0 0 1 1 2 4 3 2
split_gain=1.77946 1.83936 1.55453 1.43869 1.76733 1.28899 1.5599 1.21751 1.09325 1.46548 1.16212 1.04063 1.08088 3.96542 3.37112
threshold=0.00047411709645801212 0.00064537516489687784 0.25000000000000006 0.39860000000000001 0.67500000000000016 0.00056023906740255741 194170.00000000003 0.00083745782511625972 0.00014589658738728585 0.0096768255499428153 0.010569636605689768 210139.00000000003 1.919651029673521 92735.000000000015 142059.00000000003
decision_type=2 2 2 2 2 2 2 2 2 2 2 2 2 2 2
left_child=2 3 -1 4 -2 6 -5 -3 -4 -10 -11 12 13 -9 -15
right_child=1 7 8 5 -6 -7 -8 11 9 10 -12 -13 -14 14 -16
leaf_value=-0.026477840788980817 0.033940609621097399 -0.015240644529979584 0.015850931261157671 -0.03895556371499391 -0.03269685995112067 0.010734314340992548 0.023033360919419148 -0.024777784192411501 -0.018959262888436502 0.022072427839351257 -0.027582915042491486 -0.016402749880317893 0.0035376248517012907 0.0023427752353138375 -0.016358658615773115
leaf_count=66 8 96 14 20 14 48 6 492 110 6 8 89 767 733 385
internal_value=0 0.00762216 -0.107359 0.118892 0.270686 0.0504267 -0.186954 -0.00051937 -0.038855 -0.0940029 0.101279 0.00371743 0.00708781 -0.0140879 0.00235588
internal_count=2862 2658 204 96 22 74 26 2562 138 124 14 2466 2377 1610 1118
shrinkage=0.1


Tree=69
num_leaves=16
num_cat=0
split_feature=8 4 1 5 4 4 10 2 9 0 7 7 0 12 4
split_gain=1.0992 1.41836 1.32794 1.46392 1.25743 1.98633 1.59439 1.29661 1.61579 2.23214 2.55681 2.70817 2.31562 2.08647 1.64353
threshold=0.51665000000000016 4.7472598131455603 0.049674887185997031 0.095990568966833972 33.486712699992772 30.283673223886662 0.65000000000000002 197945.50000000003 0.47500000000000003 0.0065060755252875071 27.117726780503382 0.43200011330485788 0.0063024148082997467 0.65405000000000013 1.7524732721136014
decision_type=2 2 2 2 2 2 2 2 2 2 2 2 2 2 2
left_child=1 2 -1 -4 5 7 -7 8 14 12 11 13 -10 -11 -2
right_child=4 -3 3 -5 -6 6 -8 -9 9 10 -12 -13 -14 -15 -16
leaf_value=-0.013405784532922899 -0.0016958465886373533 0.016707371741755322 -0.020307251910029574 0.012081836910810826 -0.013948840756242906 0.024089078589049601 -0.010428710268326737 -0.011195661383233654 -0.00015145796144516678 -0.012692319073754579 0.014699015363417865 -0.026413934050374899 0.026860181364459629 0.011191348617623836 0.016819076595670602
leaf_count=63 125 31 16 32 106 22 19 289 1487 273 27 253 11 64 44
internal_value=0 0.0643138 0.00584991 0.0689264 -0.00807923 -0.00298771 0.15813 -0.00980182 -0.00248976 -0.0141094 -0.0906695 -0.12646 0.00632511 -0.0511663 0.0833536
internal_count=2862 142 111 48 2720 2614 41 2573 2284 2115 617 590 1498 337 169
shrinkage=0.1


Tree=70
num_leaves=16
num_cat=0
split_feature=8 9 6 7 4 4 10 11 0 3 12 2 0 0 7
split_gain=1.03244 1.32237 1.72627 1.2633 1.2584 2.00043 1.52394 1.28509 1.16283 1.67813 1.30781 1.09414 1.21871 3.3402 2.19665
threshold=0.51665000000000016 0.6150000000000001 0.092972339561743902 0.67565511245784793 33.486712699992772 30.283673223886662 0.65000000000000002 0.62860000000000016 0.00047411709645801212 201973.00000000003 0.60055000000000014 205071.50000000003 0.0067270783694669571 0.018887318573117467 27.117726780503382
decision_type=2 2 2 2 2 2 2 2 2 2 2 2 2 2 2
left_child=1 2 -1 -4 5 8 -7 -6 9 -2 -11 12 -10 14 -14
right_child=4 -3 3 -5 7 6 -8 -9 11 10 -12 -13 13 -15 -16
leaf_value=-0.022330549679433868 -0.022604482192305181 0.017933470744569534 0.0081428195665897134 -0.035918002817660055 -0.026094139086184371 0.024105287187202919 -0.0097446895882145786 0.0013213452631496913 0.001886890347968217 0.013039671385150687 -0.028096911641825231 -0.012831076940771527 -0.021375379193285957 0.0023964642819500601 0.015573475241077037
leaf_count=22 138 32 77 11 73 22 19 33 1526 15 17 156 426 281 14
internal_value=0 0.0633075 0.0135946 0.0589978 -0.00782736 -0.00269226 0.159643 -0.139989 -0.00959622 -0.113865 0.034736 -0.00308235 0.00233971 -0.0453972 -0.16662
internal_count=2862 142 110 88 2720 2614 41 106 2573 170 32 2403 2247 721 440
shrinkage=0.1


Tree=71
num_leaves=16
num_cat=0
split_feature=1 1 0 0 2 9 4 0 3 12 7 6 5 0 7
split_gain=0.989868 1.88869 1.79242 1.95627 1.61982 1.55431 1.42937 1.37792 1.78314 1.64028 1.37188 1.36462 1.35394 1.32343 1.31643
threshold=0.013552004951928135 0.013577332096496733 0.0015404881367148454 0.0023364852231786359 207049.00000000003 0.68500000000000016 36.233695995615371 0.0023555871343498582 194170.00000000003 0.42295000000000005 0.12235047868859412 0.15168222432906733 0.23973175810125746 0.0018029612294521336 7.163020040791193
decision_type=2 2 2 2 2 2 2 2 2 2 2 2 2 2 2
left_child=10 11 5 4 13 6 12 -5 14 -10 -1 -2 -3 -4 -9
right_child=1 2 3 7 -6 -7 -8 8 9 -11 -12 -13 -14 -15 -16
leaf_value=-0.021724503917675452 -0.036929747993139417 0.016234126713188437 -0.0053027040446315434 0.033118255860309191 0.018481387752373433 -0.028015851563052252 -0.03985372704496748 1.5334898589486616e-05 0.0099576821983017663 -0.024342815119673407 -0.0019457987523389571 0.030587370325564908 -0.026604310133379355 -0.032863645004641617 0.011261218345684913
leaf_count=216 7 38 31 8 6 28 5 1246 16 185 840 5 19 79 133
internal_value=0 0.0163979 0.0100887 -0.00493087 -0.152343 0.103104 0.12584 0.00708289 0.0029204 -0.15041 -0.02938 0.243413 0.142028 -0.210059 0.0144525
internal_count=2862 1806 1794 1704 116 90 62 1588 1580 201 1056 12 57 110 1379
shrinkage=0.1


Tree=72
num_leaves=16
num_cat=0
split_feature=1 0 1 0 9 9 7 2 0 3 12 7 4 0 11
split_gain=0.845694 1.6846 1.87047 1.72514 1.44232 1.42087 1.47277 1.40426 1.30247 1.6505 1.50192 1.36348 1.893 2.35557 2.23554
threshold=0.013552004951928135 0.0015404881367148454 0.013577332096496733 0.0023364852231786359 0.68500000000000016 0.89500000000000013 0.12235047868859412 207049.00000000003 0.0023555871343498582 194170.00000000003 0.42295000000000005 7.163020040791193 1.2466304906572276 0.0039562170164224369 0.58540000000000003
decision_type=2 2 2 2 2 2 2 2 2 2 2 2 2 2 2
left_child=5 4 -3 7 -2 6 -1 -4 -5 11 -11 12 14 -14 -10
right_child=1 2 3 8 -6 -7 -8 -9 9 10 -12 -13 13 -15 -16
leaf_value=-0.021878300850081293 0.012853988433273945 0.023737773519798746 -0.020227740522209839 0.03106099358594391 -0.027487554052248744 -0.037620375464323452 -0.0011285856086876486 0.017305297118447759 -0.015710176552928744 0.0092384116759522943 -0.024128183307402996 0.011065980227947097 -0.013486692297723146 0.0061795472292328268 0.0013976072811918375
leaf_count=215 62 12 110 8 28 14 827 6 386 16 185 133 128 487 245
internal_value=0 0.015231 0.0011694 -0.00581466 0.106831 -0.0272227 -0.0216587 -0.147385 0.0052505 0.00107464 -0.149684 0.0119394 -0.00275505 0.034571 -0.0647436
internal_count=2862 1806 1716 1704 90 1056 1042 116 1588 1580 201 1379 1246 615 631
shrinkage=0.1


Tree=73
num_leaves=16
num_cat=0
split_feature=7 7 13 1 2 12 4 3 1 10 2 7 7 0 2
