tree
version=v2
num_class=1
num_tree_per_iteration=1
label_index=0
max_feature_idx=13
objective=lambdarank
feature_names=Column_0 Column_1 Column_2 Column_3 Column_4 Column_5 Column_6 Column_7 Column_8 Column_9 Column_10 Column_11 Column_12 Column_13
feature_infos=[4.9451177193799162e-05:0.74804679069365909] [0.016216216216216217:0.56745396317053642] [3317:214111] [3317:214111] [0.015491964448346886:64.54959300572807] [0.018830914689999999:0.95282387170000005] [0.018830914689999999:0.95282387170000005] [2.5107091777154487e-07:2460.0524741566132] [0.076899999999999996:1] [0.00020000000000000001:0.92479999999999996] [0:0.97089999999999999] [0:1] [0:0.70279999999999998] [0.0048999999999999998:1]
tree_sizes=1334 1351 1338 1345 1348 1339 1347 1360 1346 1348 1355 1365 1346 1335 1346 1355 1341 1356 1342 1357 1366 1346 1358 1370 1355 1355 1349 1343 1356 1350 1357 1340 1348 1351 1350 1347 1355 1358 1354 1363 1357 1361 1357 1364 1358 1364 1364 1359 1350 1355 1350 1366 1361 1357 1354 1350 1341 1342 1359 1363 1345 1344 1360 1373 1364 1351 1363 1357 1364 1339 1343 1352 1346 1348 1374 1353 1370 1346 1358 1373 1332 1352 1377 1367 1366 1344 1374 1370 1365 1368 1343 1349 1372 1342 1355 1369 1358 1365 1368 1356

Tree=0
num_leaves=16
num_cat=0
split_feature=1 2 4 4 3 10 2 2 4 7 0 7 6 0 7
split_gain=26.6394 15.2776 19.6216 26.9002 13.2947 8.6659 5.94256 5.49158 4.73331 4.59087 4.413 3.62792 3.30113 2.56115 2.80158
threshold=0.12409928439546213 212965.50000000003 6.6303717347402324 0.15652894856024197 115293.00000000001 0.46045000000000008 135612.50000000003 184261.00000000003 1.4519530871388293 0.51642013372774476 0.029302557815136847 0.65212687801254188 0.90828310730000017 0.13907716767724976 0.039181442683229518
decision_type=2 2 2 2 2 2 2 2 2 2 2 2 2 2 2
left_child=1 2 3 4 -1 8 -4 10 -5 -9 -8 13 -7 14 -2
right_child=11 -3 6 5 -6 12 7 9 -10 -11 -12 -13 -14 -15 -16
leaf_value=-0.049644986378228367 -0.013253123255125739 -0.041617901051256012 -0.020253618954798283 -0.038492231824424759 0.014775856972466897 -0.041447800026799875 0.039556773662431911 0.01892871125826481 0.039243110635689742 -0.042403942063958949 -0.0058636364350427182 -0.016517116023814487 0.018688359053696386 0.048739231546317513 0.03231501504099249
leaf_count=119 55 51 149 57 475 1291 137 87 25 116 76 43 28 30 123
internal_value=0 -0.0667036 -0.0239299 -0.119828 0.0778564 -0.333045 0.200773 0.25487 0.133411 -0.0281589 0.335662 0.324059 -0.393552 0.359308 0.25741
internal_count=2862 2611 2560 1995 594 1401 565 416 82 203 213 251 1319 208 178
shrinkage=0.1


Tree=1
num_leaves=16
num_cat=0
split_feature=1 11 9 4 5 0 5 5 0 3 7 10 2 3 4
split_gain=1993.93 378.288 534.299 328.319 423.36 362.162 246.918 233.173 233.689 319.382 231.907 225.564 222.154 219.849 201.482
threshold=0.15450813722821366 0.21055000000000004 0.45045000000000007 0.022010278282414669 0.23945875685000004 0.028683088342488845 0.059766498955000004 0.07825331553500002 0.0086288645116920134 128209.00000000001 0.032315694036335309 0.42310000000000009 24778.500000000004 115293.00000000001 0.026988386449934752
decision_type=2 2 2 2 2 2 2 2 2 2 2 2 2 2 2
left_child=1 6 -3 -4 5 7 -1 -5 9 -9 -10 -2 -13 -6 -8
right_child=11 2 3 4 13 -7 14 8 10 -11 -12 12 -14 -15 -16
leaf_value=0.0079595723419641166 -0.050562478937189952 0.029067013572942158 0.032979820669437006 -0.016802411182679704 -0.045320520510405783 -0.02274761296109816 0.018787536864369278 -0.026265095247868325 -0.046126419875580457 0.010834687131773227 0.020337575269485032 -0.036492017670540874 0.040705964413661047 -0.015433772934599223 -0.032260198656395865
leaf_count=49 6 68 22 207 370 367 10 207 48 218 281 16 56 282 655
internal_value=0 -0.0714974 -0.032378 -0.064811 -0.0827644 -0.0254201 -0.222005 0.0289382 0.0745001 -0.0399019 0.171302 0.362559 0.383065 -0.249321 -0.283772
internal_count=2862 2784 2070 2002 1980 1328 714 961 754 425 329 78 72 652 665
shrinkage=0.1


Tree=2
num_leaves=16
num_cat=0
split_feature=1 4 5 4 2 4 2 9 3 3 0 0 8 5 1
split_gain=880.54 495.995 387.015 239.421 553.121 503.987 319.291 175.712 169.479 164.15 133.57 205.472 129.771 126.481 186.786
threshold=0.17790674404642789 0.022010278282414669 0.23945875685000004 1.7524732721136014 142059.00000000003 0.32040915509200912 175411.00000000003 0.78705000000000014 128209.00000000001 115293.00000000001 0.015233190415219252 0.001643290006434024 0.68335000000000001 0.13335932000000003 0.1200840600437124
decision_type=2 2 2 2 2 2 2 2 2 2 2 2 2 2 2
left_child=1 -1 3 5 12 8 -6 -7 -3 -4 11 -10 -5 14 -8
right_child=-2 2 9 4 6 7 13 -9 10 -11 -12 -13 -14 -15 -16
leaf_value=0.032861796579468458 0.035969482029012075 -0.044794563132804568 -0.04325380249752242 0.013463059054406774 0.0252313917156337 -0.038752798246667539 -0.023808768766564875 0.014115392805284524 0.019590187401053016 -0.014544045078121366 0.02701702559552881 -0.021065916424996819 -0.040292812975762919 0.016841894620008825 0.019392283549074678
leaf_count=24 54 79 527 28 143 675 275 34 61 343 61 141 320 62 35
internal_value=0 -0.0476732 -0.0767445 -0.0300914 0.0433168 -0.125924 0.122316 -0.331222 0.0403757 -0.273841 0.0829312 -0.0121616 -0.319998 -0.0328463 -0.119931
internal_count=2862 2808 2784 1914 863 1051 515 709 342 870 263 202 348 372 310
shrinkage=0.1


Tree=3
num_leaves=16
num_cat=0
split_feature=8 7 9 4 4 4 6 11 2 6 10 5 0 6 1
split_gain=628.858 273.891 199.223 259.443 207.831 159.317 118.208 120.651 117.476 104.1 85.0565 81.2708 79.566 79.4857 86.6492
threshold=0.73215000000000019 0.090268799897561411 0.55525000000000013 0.022010278282414669 8.1533655023323686 0.13155305168485279 0.14015475205000003 0.27065000000000006 183118.50000000003 0.12332894700000001 0.55635000000000012 0.067795626470000009 0.018088947810745968 0.90828310730000017 0.14079855038723799
decision_type=2 2 2 2 2 2 2 2 2 2 2 2 2 2 2
left_child=-1 -2 6 9 5 12 -3 -8 10 -4 -6 -12 -5 14 -7
right_child=1 2 3 4 8 13 7 -9 -10 -11 11 -13 -14 -15 -16
leaf_value=0.025752817535204628 -0.029761972605688105 -0.006234052222685884 0.033436199518761707 -0.011984820105103759 0.041225120469125916 -0.038146391552867441 -0.029412593407840235 0.024074383230507805 -0.022695930560789779 -0.051842895060912934 0.020939307187803794 -0.0078850366776249438 0.03216186254521302 0.022773516143896007 0.025857291490187069
leaf_count=214 556 240 17 375 11 824 49 161 175 5 44 153 9 23 6
internal_value=0 -0.0634738 -0.0255736 -0.0824588 -0.122662 -0.208868 0.106266 0.193826 0.0222729 0.265291 0.0982506 0.0412763 -0.0803491 -0.327718 -0.354126
internal_count=2862 2648 2092 1642 1620 1237 450 210 383 22 208 197 384 853 830
shrinkage=0.1


Tree=4
num_leaves=16
num_cat=0
split_feature=8 9 4 4 3 10 0 5 7 4 1 2 2 12 6
split_gain=426.486 208.81 197.587 171.324 143.205 141.773 132.368 125.586 114.039 111.682 81.759 65.3924 63.4586 77.9753 60.6938
threshold=0.43305000000000005 0.55525000000000013 0.022010278282414669 8.1533655023323686 159538.50000000003 0.55635000000000012 0.068632531195706822 0.23945875685000004 0.090268799897561411 0.61219677923469662 0.099689721747367885 115293.00000000001 188529.50000000003 0.44080000000000008 0.90828310730000017
decision_type=2 2 2 2 2 2 2 2 2 2 2 2 2 2 2
left_child=-1 7 -3 4 6 -5 -4 8 -2 11 -7 -6 13 -10 -15
right_child=1 2 3 5 9 10 -8 -9 12 -11 -12 -13 -14 14 -16
leaf_value=0.030183001233338183 -0.015449743938186822 0.026284718178304651 -0.035233407081820302 0.031077523233196354 -0.0051224816767115877 -0.012851085693154582 0.01120334334351742 -0.023853444154958287 -0.0082873889341817768 -0.040747266997188912 0.024900880607001068 0.040517642102128618 -0.011236446918329812 0.023543288010471203 -0.049711851336903437
leaf_count=81 168 22 1027 30 372 366 36 145 76 208 23 7 76 220 5
internal_value=0 -0.0418508 -0.105155 -0.133567 -0.203166 0.00674821 -0.302954 0.0693932 0.107319 -0.0807864 -0.0734214 -0.0158802 0.152811 0.182149 0.222208
internal_count=2862 2781 2091 2069 1650 419 1063 690 545 587 389 379 377 301 225
shrinkage=0.1


Tree=5
num_leaves=16
num_cat=0
split_feature=1 7 4 5 4 2 6 4 2 3 10 2 3 1 0
split_gain=352.636 172.989 106.38 201.215 104.633 265.17 141.663 110.836 104.031 64.4828 54.7745 54.7149 57.7245 63.3029 53.1693
threshold=0.13978387032219333 0.11030042775117617 0.022010278282414669 0.22436510290000003 0.15652894856024197 105794.50000000001 0.16780695565000001 3.2476668602888275 183118.50000000003 115293.00000000001 0.6664000000000001 24778.500000000004 170053.50000000003 0.17790674404642789 0.029302557815136847
decision_type=2 2 2 2 2 2 2 2 2 2 2 2 2 2 2
left_child=1 -1 -3 4 10 -6 7 -7 14 -5 -4 -2 -13 -14 -8
right_child=11 2 3 9 5 6 8 -9 -10 -11 -12 12 13 -15 -16
leaf_value=-0.02579742227567999 -0.027084115692612973 0.025149122269722053 0.021254878782180825 -0.038496406735324326 -0.034715793154143693 -0.039120516588527388 0.020365576354617616 0.0069065878814643837 -0.010961689890321286 -0.013316783178548758 -0.046079367183978481 0.032267838533223223 -0.042233033745573439 0.0209275471710373 -0.0068508298055405597
leaf_count=633 19 24 119 384 389 278 183 65 198 363 16 62 38 17 74
internal_value=0 -0.0480724 -0.0145798 -0.0334208 0.0216553 -0.0202491 0.046523 -0.183685 0.107526 -0.217774 0.185296 0.250038 0.272242 0.0200108 0.167604
internal_count=2862 2726 2093 2069 1322 1187 798 343 455 747 135 136 117 55 257
shrinkage=0.1


Tree=6
num_leaves=16
num_cat=0
split_feature=1 7 2 2 3 4 0 9 4 5 13 13 0 1 9
split_gain=255.975 151.412 94.1756 137.792 298.639 121.009 68.3213 63.4786 88.8038 68.9559 56.681 76.4279 52.0457 49.4099 43.9517
threshold=0.12409928439546213 0.11030042775117617 183118.50000000003 142059.00000000003 115293.00000000001 1.679603273864634 0.029902746434148229 0.77340000000000009 0.15652894856024197 0.23945875685000004 0.036150000000000009 0.12275000000000001 0.00055652378008422862 0.033623536812239473 0.62235000000000007
decision_type=2 2 2 2 2 2 2 2 2 2 2 2 2 2 2
left_child=1 -1 3 4 -3 -5 -7 8 9 -6 -2 -12 -9 -14 -13
right_child=10 2 -4 5 7 6 -8 12 -10 -11 11 14 13 -15 -16
leaf_value=-0.028140487808543321 0.030219470908406994 -0.034125000481289233 -0.021009736548645554 -0.039738419384777998 0.015067194034034524 0.022601544496439849 -0.016405089971462627 -0.047780332677667056 -0.037955485559862744 -0.009433165747952707 -0.021737404138415684 0.025643449124326229 0.036833236507604367 -0.0095829848292351191 -0.026678875002420638
leaf_count=595 68 706 435 102 137 120 63 13 137 252 91 56 18 33 36
internal_value=0 -0.0516742 -0.0176764 0.011306 -0.0604201 0.142202 0.185369 0.0517414 -0.000955459 0.043926 0.203852 0.0865661 0.229538 0.277039 0.198762
internal_count=2862 2611 2016 1581 1296 285 183 590 526 389 251 183 64 51 92
shrinkage=0.1


Tree=7
num_leaves=16
num_cat=0
split_feature=8 7 9 4 4 10 3 0 4 13 1 1 1 6 0
split_gain=205.901 106.032 73.827 60.0723 57.2261 56.4449 55.6324 60.221 54.5774 60.3836 44.2679 98.4153 68.2102 46.5576 43.3296
threshold=0.73215000000000019 0.079574744027569227 0.55525000000000013 0.022010278282414669 8.1533655023323686 0.55635000000000012 159538.50000000003 0.068632531195706822 0.61219677923469662 0.14620000000000002 0.039827457126055961 0.12837702621572947 0.034337730041871288 0.32269361140000002 0.00055652378008422862
decision_type=2 2 2 2 2 2 2 2 2 2 2 2 2 2 2
left_child=-1 -2 10 -4 6 -6 7 -5 9 -8 12 13 -3 -12 -11
right_child=1 2 3 4 5 -7 8 -9 -10 14 11 -13 -14 -15 -16
leaf_value=0.020249097672976758 -0.027477372217567755 -0.0043584918502042351 0.019484458256720134 -0.030800253049064114 0.026649988070012065 -0.005274433489429799 -0.037974171506574027 0.015854907971543215 -0.039055842313554162 -0.031106326456527934 -0.030494678538064951 0.024701497139748473 0.026987405064503717 0.026496014113660017 0.01030983615911903
leaf_count=214 524 118 22 724 24 361 88 21 179 42 225 34 77 8 201
internal_value=0 -0.0483847 -0.0207732 -0.0690404 -0.0912813 0.00924773 -0.151584 -0.255232 -0.0606174 -0.00797831 0.0803962 -0.0397484 0.155849 -0.221936 0.0519553
internal_count=2862 2648 2124 1662 1640 385 1255 745 510 331 462 267 195 233 243
shrinkage=0.1


Tree=8
num_leaves=16
num_cat=0
split_feature=1 7 8 2 2 3 4 13 12 9 3 5 7 7 0
split_gain=163.919 97.6622 69.3787 56.8175 96.3921 193.028 88.3843 38.7814 31.4574 29.9495 35.0682 29.555 35.6268 34.9105 35.1288
threshold=0.22175523088072222 0.090268799897561411 0.73215000000000019 183118.50000000003 142059.00000000003 115293.00000000001 1.7524732721136014 0.11565000000000002 0.44240000000000007 0.61760000000000015 10589.000000000002 0.11552642495000003 0.7904329093489334 0.5653129987040123 0.00094320037513132276
decision_type=2 2 2 2 2 2 2 2 2 2 2 2 2 2 2
left_child=1 -1 -3 4 5 -4 -6 8 -7 -8 -11 12 -9 -13 -15
right_child=-2 2 3 -5 6 7 9 11 -10 10 -12 13 -14 14 -16
leaf_value=-0.022909420288617019 0.028026171868012428 0.018661535612008399 -0.033305342447093635 -0.018917405386919595 -0.037150653938697778 0.015997649171962468 0.023775118218477921 0.028138609872684423 -0.028929867680348578 0.01107814744038017 -0.037397332504367706 -0.025663563586467611 -0.038623528163685611 0.019361988029977739 -0.0030975794483933086
leaf_count=633 39 106 710 459 129 24 83 40 158 64 34 63 20 75 225
internal_value=0 -0.0312543 -0.00193374 -0.0270283 4.99037e-05 -0.0707022 0.122912 0.033859 -0.168894 0.167027 0.0531982 0.0718753 0.222597 0.0255943 0.0637533
internal_count=2862 2823 2190 2084 1625 1315 310 605 182 181 98 423 60 363 300
shrinkage=0.1


Tree=9
num_leaves=16
num_cat=0
split_feature=1 7 2 2 3 4 11 13 13 5 2 13 12 11 10
split_gain=139.572 87.154 49.1102 64.1477 166.22 58.8009 36.8572 34.995 51.5152 34.3123 57.4224 38.2259 28.1006 54.4921 28.7288
threshold=0.12409928439546213 0.087457723578409197 183118.50000000003 142059.00000000003 115293.00000000001 1.679603273864634 0.53270000000000006 0.036150000000000009 0.12275000000000001 0.13335932000000003 175411.00000000003 0.098600000000000007 0.59815000000000007 0.87170000000000003 0.72645000000000015
decision_type=2 2 2 2 2 2 2 2 2 2 2 2 2 2 2
left_child=1 -1 3 4 -3 -5 -6 -2 -9 10 -7 -11 -8 14 -14
right_child=7 2 -4 5 6 9 12 8 -10 11 -12 -13 13 -15 -16
leaf_value=-0.028359933545285678 0.026116373512892328 -0.030664078897692282 -0.018389880760896374 -0.035794552363360974 -0.0095106293071223445 0.012985921156048689 0.017947285364674267 -0.022813737783233382 0.017539185022779839 -0.031855961468157189 -0.036009107400781913 0.032382777202473394 -0.001810330181144207 0.025937211845079855 -0.037389514237947584
leaf_count=528 68 741 443 110 248 103 154 91 92 13 44 27 96 18 86
internal_value=0 -0.0470085 -0.0195073 0.00538776 -0.0528926 0.111001 0.0446479 0.17465 0.0624546 0.144836 0.0678967 0.273856 0.0990133 -0.000988565 -0.1354
internal_count=2862 2611 2083 1640 1343 297 602 251 183 187 147 40 354 200 182
shrinkage=0.1


Tree=10
num_leaves=16
num_cat=0
split_feature=8 9 13 7 12 9 2 2 9 7 0 0 3 0 1
split_gain=131.712 61.6349 58.2711 53.4793 39.0679 37.2346 31.971 27.2802 26.501 25.8277 25.0552 84.7717 24.9195 24.3097 27.2423
threshold=0.43305000000000005 0.48860000000000009 0.14620000000000002 0.090268799897561411 0.43085000000000007 0.56195000000000006 184261.00000000003 17311.500000000004 0.62235000000000007 0.73514874774485539 0.015377024543179607 0.0040484359965869696 188529.50000000003 0.00055652378008422862 0.033136408287280067
decision_type=2 2 2 2 2 2 2 2 2 2 2 2 2 2 2
left_child=8 4 -3 -4 -2 9 10 -6 -1 -5 11 13 -9 -7 -15
right_child=1 2 3 5 7 6 -8 12 -10 -11 -12 -13 -14 14 -16
leaf_value=0.011999778983348407 -0.017509289171534416 -0.018385669061998091 -0.026998079680073745 0.020011617595165107 -0.038841344074352212 -0.020967320686739885 -0.023087697075668726 0.024790822484464122 0.03486031027722649 -0.013811776455296496 0.010953454823008359 -0.027362909217170495 -0.023699132807990873 0.014057291818879878 -0.0096763312363102941
leaf_count=58 96 866 330 97 21 68 244 99 23 60 182 353 33 203 129
internal_value=0 -0.0355247 -0.0641338 -0.0218195 0.123164 0.00353762 -0.0315641 0.18633 0.237574 0.141106 -0.00545329 -0.0455685 0.214066 0.0467379 0.0798108
internal_count=2862 2781 2532 1666 249 1336 1179 153 81 157 935 753 132 400 332
shrinkage=0.1


Tree=11
num_leaves=16
num_cat=0
split_feature=8 7 9 5 4 5 13 7 0 0 0 4 4 1 0
split_gain=103.581 53.8732 51.3125 29.2282 28.4957 26.2756 26.3401 23.0633 22.972 41.5314 27.2033 21.5877 69.3081 23.2764 20.9773
threshold=0.43305000000000005 0.090268799897561411 0.55525000000000013 0.23945875685000004 0.022010278282414669 0.30703332535000005 0.16990000000000002 2.5516715479865435 0.015377024543179607 0.0040484359965869696 0.00059908743667147306 0.30967425706946394 1.7524732721136014 0.033229907249122628 0.029302557815136847
decision_type=2 2 2 2 2 2 2 2 2 2 2 2 2 2 2
left_child=-1 -2 3 7 -4 6 -6 11 9 10 -8 -3 -13 -14 -10
right_child=1 2 4 -5 5 -7 8 -9 14 -11 -12 12 13 -15 -16
leaf_value=0.023025173173403864 -0.020887128455798928 0.025347327718663434 0.017258614144963796 -0.016544483873872619 -0.016457376042004718 -0.023609843192730899 -0.033203626874392343 -0.038658879502523967 0.019146278213131251 -0.022368674781023057 0.0067188009909899581 -0.029605385033587769 -0.018270061018117605 0.019667361025081546 -0.0044094095280639567
leaf_count=81 611 54 22 125 446 355 55 25 88 329 242 139 33 126 131
internal_value=0 -0.0315235 -0.0073227 0.0875961 -0.0562677 -0.0733543 -0.0495445 0.118335 -0.0108352 -0.0633303 0.0262544 0.131967 0.0775109 0.159864 0.0880342
internal_count=2862 2781 2170 502 1668 1646 1291 377 845 626 297 352 298 159 219
shrinkage=0.1


Tree=12
num_leaves=16
num_cat=0
split_feature=8 7 9 4 4 9 7 11 5 3 3 5 12 12 13
split_gain=92.1824 48.2755 37.811 30.4905 100.888 35.8347 35.7444 34.3401 32.8979 30.8723 26.0965 25.8756 25.8346 23.4423 21.3224
threshold=0.38750000000000007 0.079574744027569227 0.48860000000000009 0.15652894856024197 3.9938951092946868 0.78705000000000014 0.45903244543571575 0.21055000000000004 0.054486944405000008 115293.00000000001 10589.000000000002 0.20797580800000004 0.59355000000000013 0.43085000000000007 0.065550000000000011
decision_type=2 2 2 2 2 2 2 2 2 2 2 2 2 2 2
left_child=11 -2 13 9 5 -5 7 -6 10 -4 -8 -1 -7 -3 -9
right_child=1 2 3 4 6 12 8 14 -10 -11 -12 -13 -14 -15 -16
leaf_value=0.0281315525969318 -0.020803940589633033 -0.013524823239856315 -0.035956285979800461 -0.03112508801575406 -0.022075486347824642 -0.038064707397125655 0.013522570198374185 -0.032767886633939002 -0.023852409494308134 0.006987931346307207 -0.042312855885593206 -0.044745242665442442 0.02720605698233507 0.019557694620968551 0.017133443280749894
leaf_count=39 587 69 101 841 99 41 37 21 248 424 24 11 20 112 188
internal_value=0 -0.0276273 -0.00513149 -0.0297559 -0.0737688 -0.256195 0.0225268 0.101694 -0.0975894 0.0468562 0.0587302 0.252884 0.0718384 0.140055 0.148699
internal_count=2862 2812 2225 2044 1519 902 617 308 309 525 61 50 61 181 209
shrinkage=0.1


Tree=13
num_leaves=16
num_cat=0
split_feature=8 7 2 2 3 4 0 9 10 0 9 7 13 12 10
split_gain=71.7019 46.04 27.5331 41.3837 78.829 44.0792 42.5339 24.0329 36.5196 19.1378 21.7955 18.255 17.0694 24.058 17.1105
threshold=0.73215000000000019 0.090268799897561411 183118.50000000003 142059.00000000003 115293.00000000001 1.7524732721136014 0.10355950212507591 0.71720000000000017 0.86790000000000012 0.011955382505552156 0.77340000000000009 113.25306039553054 0.11565000000000002 0.44240000000000007 0.53400000000000014
decision_type=2 2 2 2 2 2 2 2 2 2 2 2 2 2 2
left_child=9 -2 3 4 6 -5 -3 -7 -9 10 -1 12 13 14 -6
right_child=1 2 -4 5 11 7 -8 8 -10 -11 -12 -13 -14 -15 -16
leaf_value=-0.034298396294231086 -0.023407100300983853 -0.030226465091599698 -0.015003459752455746 -0.033332538407442824 -0.040309362942661499 0.018829535790165931 0.02777487840131191 -0.037090759119614257 0.024090450337679602 0.01902625160665743 0.028077648531551053 -0.039400144863626398 0.0078209797802334721 -0.025797965296606003 0.032371895060933444
leaf_count=54 556 710 459 129 16 143 5 31 9 154 6 22 405 155 8
internal_value=0 -0.0366952 -0.0133102 0.0092703 -0.0449835 0.108927 -0.244657 0.145868 -0.081616 0.159197 -0.108743 0.0346756 0.0466961 -0.110484 0.172929
internal_count=2862 2648 2092 1633 1321 312 715 183 40 214 60 606 584 179 24
shrinkage=0.1


Tree=14
num_leaves=16
num_cat=0
split_feature=8 7 2 2 3 4 0 0 9 4 11 12 12 4 12
split_gain=61.6136 38.5737 22.9891 33.7365 67.955 37.1514 35.3388 15.3219 18.0304 15.098 14.7683 26.2559 24.0495 24.5341 22.1836
threshold=0.73215000000000019 0.090268799897561411 183118.50000000003 142059.00000000003 115293.00000000001 1.7524732721136014 0.10355950212507591 0.011955382505552156 0.77340000000000009 1.9654240071531792 0.87170000000000003 0.60055000000000014 0.59165000000000012 0.30967425706946394 0.5716500000000001
decision_type=2 2 2 2 2 2 2 2 2 2 2 2 2 2 2
left_child=7 -2 3 4 6 -5 -3 8 -1 -4 11 12 13 14 -6
right_child=1 2 9 5 10 -7 -8 -9 -10 -11 -12 -13 -14 -15 -16
leaf_value=-0.033682533554781978 -0.022489729020233842 -0.029347726635377311 -0.034692232815371184 -0.032727376373982674 0.0095669821986576527 0.013930914368301378 0.026908989079661067 0.018061471202796414 0.026489998136277455 -0.0079931663528219864 0.022311015935934771 -0.012790636933147824 0.030773876095837566 -0.035528657796911514 -0.035117496141365827
leaf_count=54 556 710 175 129 210 183 5 154 6 284 20 255 17 76 28
internal_value=0 -0.0355021 -0.0134099 0.0080592 -0.041714 0.103747 -0.23878 0.152749 -0.103867 -0.143109 0.0322898 0.00944339 0.0726298 0.0232639 0.0611092
internal_count=2862 2648 2092 1633 1321 312 715 214 60 459 606 586 331 314 238
shrinkage=0.1


Tree=15
num_leaves=16
num_cat=0
split_feature=8 7 9 4 5 5 5 7 7 4 0 3 1 5 6
split_gain=54.3327 30.2734 24.2213 23.4071 17.0434 16.9976 15.264 14.4555 13.5638 17.7955 35.1136 20.4293 17.6651 16.8698 25.7398
threshold=0.38750000000000007 0.079574744027569227 0.55815000000000015 0.022010278282414669 0.23945875685000004 0.20797580800000004 0.32269361140000002 2.5516715479865435 67.288963012604739 3.9938951092946868 0.0034952492673019976 149092.50000000003 0.094065847034241382 0.13335932000000003 0.26674901150000008
decision_type=2 2 2 2 2 2 2 2 2 2 2 2 2 2 2
left_child=5 -2 4 -4 7 -1 8 -3 9 10 11 -5 -10 14 -11
right_child=1 2 3 6 -6 -7 -8 -9 12 13 -12 -13 -14 -15 -16
leaf_value=0.024946843122820816 -0.018417067531476709 0.011224720228509625 0.017509725634370241 -0.029354247076658714 -0.014610034833754868 -0.042862927317449631 -0.021278281210349942 -0.037427635661501965 -0.038696212710000073 0.0032181775086007345 -0.026104834851734857 0.0052680183515460381 0.032575540005162509 0.01590714111518941 -0.025641710928984141
leaf_count=39 587 388 23 123 130 11 329 25 10 218 559 185 5 69 161
internal_value=0 -0.0232246 -0.00342031 -0.0412257 0.0723361 0.223091 -0.0604051 0.100049 -0.0410753 -0.0535851 -0.11754 -0.00527414 0.194691 0.0101298 -0.0416443
internal_count=2862 2812 2225 1682 543 50 1659 413 1330 1315 867 308 15 448 379
shrinkage=0.1


Tree=16
num_leaves=16
num_cat=0
split_feature=8 7 2 2 3 4 0 9 0 9 4 4 7 5 13
split_gain=46.4786 30.7886 19.5596 27.5015 53.8411 29.2028 28.339 15.6511 12.1766 12.8109 11.8375 12.2378 12.1742 11.3121 16.4137
threshold=0.73215000000000019 0.090268799897561411 183118.50000000003 142059.00000000003 115293.00000000001 1.7524732721136014 0.10355950212507591 0.36075000000000007 0.011955382505552156 0.77340000000000009 1.9654240071531792 3.323523670082968 0.51642013372774476 0.13335932000000003 0.11205000000000001
decision_type=2 2 2 2 2 2 2 2 2 2 2 2 2 2 2
left_child=7 -2 3 4 6 -5 -3 -1 9 -9 -4 -12 -13 -7 -15
right_child=1 2 10 5 -6 13 -8 8 -10 -11 11 12 -14 14 -16
leaf_value=-0.039053607067298775 -0.021734479790986482 -0.028485879888747935 -0.033835505140205634 -0.031864234275845026 0.0031038995681365641 0.007601322463794866 0.025650167199382842 -0.031150716370186807 0.018454594905180099 0.02432242612148346 0.024394836552026594 -0.0031162299904648758 -0.030679601232650091 -0.040981519564513499 0.026797066012016497
leaf_count=12 556 710 175 129 606 144 5 53 143 6 21 121 142 12 27
internal_value=0 -0.0332631 -0.012278 0.00920638 -0.0403879 0.0997994 -0.23095 0.142053 0.157799 -0.0933462 -0.139526 -0.0819189 -0.128785 0.132028 0.232469
internal_count=2862 2648 2092 1633 1321 312 715 214 202 59 459 284 263 183 39
shrinkage=0.1


Tree=17
num_leaves=16
num_cat=0
split_feature=0 7 8 1 1 13 9 1 2 2 3 7 1 13 12
split_gain=44.5437 24.18 21.6246 18.2157 19.8055 23.7849 17.2285 14.9006 13.6406 15.0625 34.2211 15.9748 20.1313 14.8126 15.4513
threshold=0.13907716767724976 0.069169426515129986 0.73215000000000019 0.039827457126055961 0.047972935596054554 0.11565000000000002 0.55525000000000013 0.033229907249122628 184261.00000000003 115293.00000000001 149092.50000000003 8.3141181009748255 0.033623536812239473 0.36245000000000011 0.59430000000000016
decision_type=2 2 2 2 2 2 2 2 2 2 2 2 2 2 2
left_child=1 -1 -3 6 -5 -6 7 -4 9 10 -8 13 -13 -12 -15
right_child=-2 2 3 4 5 -7 8 -9 -10 -11 11 12 -14 14 -16
leaf_value=-0.017648843488076459 0.024045267864561289 0.013622884659930869 -0.0060410186707367764 -0.030390467129156919 -0.020946586465569676 0.0023952376065467635 -0.02870364215300655 0.018272052778290377 -0.020594071450546939 0.010070703633575951 -0.026215772687955913 0.025727299076203476 -0.023517729040761187 0.01966546262288266 -0.018145502959648934
leaf_count=549 41 122 101 240 369 390 380 98 211 137 80 38 35 25 46
internal_value=0 -0.0201339 -0.00191845 -0.0225038 -0.0932595 -0.053211 0.0163972 0.11493 -0.0245492 0.000379347 -0.0562288 0.0312189 0.161864 -0.0682234 0.0411737
internal_count=2862 2821 2272 2150 999 759 1151 199 952 741 604 224 73 151 71
shrinkage=0.1


Tree=18
num_leaves=16
num_cat=0
split_feature=8 7 9 9 4 6 7 5 7 9 13 4 4 9 1
split_gain=36.0279 18.8791 16.8737 15.917 12.998 12.7506 10.4702 10.109 9.72107 9.68952 12.3761 10.4834 24.7913 22.4566 19.1388
threshold=0.43305000000000005 0.079574744027569227 0.55815000000000015 0.60690000000000011 0.022010278282414669 0.1037721186 0.042642385305761851 0.23945875685000004 2.5516715479865435 0.80075000000000018 0.077200000000000005 8.015671807186143 0.13155305168485279 0.78705000000000014 0.13978387032219333
decision_type=2 2 2 2 2 2 2 2 2 2 2 2 2 2 2
left_child=3 -2 7 6 5 -4 -1 8 -3 10 -6 12 -12 14 -14
right_child=1 2 4 -5 9 -7 -8 -9 -10 -11 11 -13 13 -15 -16
leaf_value=-0.029175822381666602 -0.016706279897635384 0.009675705254361823 0.022685110573714185 0.029808210867623371 -0.023856986623414678 -0.039274690654897332 0.011206972220986409 -0.011825184620589665 -0.034618027550796758 -0.024366116027017663 0.0023630145040288856 0.0040889064338122489 -0.027847716818438645 0.025178462050968048 0.024749449069800051
leaf_count=18 576 383 14 26 188 8 37 129 25 144 309 305 681 13 6
internal_value=0 -0.0228356 -0.00593787 0.180831 -0.0415141 0.15346 0.0420593 0.0624629 0.0860405 -0.0561287 -0.0439528 -0.027994 -0.0693193 -0.185192 -0.23535
internal_count=2862 2781 2205 81 1668 22 55 537 408 1646 1502 1314 1009 700 687
shrinkage=0.1


Tree=19
num_leaves=16
num_cat=0
split_feature=0 7 8 5 7 5 9 6 4 7 1 9 4 9 11
split_gain=34.1882 18.0133 16.273 11.8993 10.8377 22.4145 14.0858 15.075 14.0674 11.3455 10.6996 12.648 14.7384 11.8145 10.8324
threshold=0.13907716767724976 0.069169426515129986 0.43305000000000005 0.67671855520000002 8.3141181009748255 0.23945875685000004 0.57205000000000017 0.067795626470000009 0.11838486287048762 113.25306039553054 0.039827457126055961 0.48860000000000009 3.9938951092946868 0.46660000000000007 0.27700000000000008
decision_type=2 2 2 2 2 2 2 2 2 2 2 2 2 2 2
left_child=1 -1 -3 4 5 6 10 -8 9 -6 14 13 -13 -12 -4
right_child=-2 2 3 -5 8 -7 7 -9 -10 -11 11 12 -14 -15 -16
leaf_value=-0.016149682080642318 0.022785198162688671 0.018773588462107711 -0.014678099962608824 -0.028463735327329903 0.016790124151316799 -0.018830601913346758 -0.03673244059697555 -0.0029784088779099848 -0.027656112757630497 -0.035528421121928069 -0.0024683588130907149 -0.031054353554868071 0.0043083296484663072 0.028962863171615994 0.01652055444638462
leaf_count=549 41 40 46 153 125 439 108 858 55 13 84 157 59 15 120
internal_value=0 -0.0181467 -0.00173896 -0.0142368 -0.00741068 -0.0241333 0.00110225 -0.0478892 0.0956565 0.138711 0.0624141 -0.0138369 -0.131649 0.0960468 0.129785
internal_count=2862 2821 2272 2232 2079 1886 1447 966 193 138 481 315 216 99 166
shrinkage=0.1


Tree=20
num_leaves=16
num_cat=0
split_feature=0 7 8 5 7 4 2 3 12 12 2 6 4 4 3
split_gain=29.4149 14.2276 12.7191 10.5133 10.8339 19.1251 22.5698 21.6053 16.1507 22.4906 14.5862 13.8717 15.5002 17.653 15.0823
threshold=0.13907716767724976 0.069169426515129986 0.43305000000000005 0.67671855520000002 8.3141181009748255 3.9938951092946868 142059.00000000003 50793.500000000007 0.59430000000000016 0.59165000000000012 184261.00000000003 0.074220883130000012 0.15652894856024197 0.097165596741106225 100579.00000000001
decision_type=2 2 2 2 2 2 2 2 2 2 2 2 2 2 2
left_child=1 -1 -3 4 5 7 -7 -4 9 11 -8 -9 13 -13 -14
right_child=-2 2 3 -5 -6 6 10 8 -10 -11 -12 12 14 -15 -16
leaf_value=-0.014804230417963674 0.021507759679945553 0.016985024150386149 -0.030417439449080652 -0.027916017469872514 0.0097204145745368974 -0.021314841053060928 0.011907062227002586 -0.025877224160443382 -0.017349374364752913 0.033679618740129563 -0.0081785581752313041 -0.0070240776020864945 0.0075404385934346001 0.023693280882804073 -0.028429154214105412
leaf_count=549 41 40 395 153 193 204 196 145 364 8 181 100 55 41 197
internal_value=0 -0.0172727 -0.00242829 -0.0136448 -0.00723756 -0.0244282 0.0396061 -0.0820716 -0.0463967 0.00769141 0.0759848 -0.0337755 0.00834811 0.0975745 -0.132563
internal_count=2862 2821 2272 2232 2079 1886 581 1305 910 546 377 538 393 141 252
shrinkage=0.1


Tree=21
num_leaves=16
num_cat=0
split_feature=1 7 5 7 4 2 4 3 5 4 1 10 6 2 4
split_gain=28.5294 15.676 10.2186 9.748 16.5311 23.7971 20.5247 24.2876 15.1158 13.2903 12.6648 12.3135 9.83596 11.157 17.0057
threshold=0.22175523088072222 0.079574744027569227 0.67671855520000002 8.3141181009748255 1.9654240071531792 105794.50000000001 0.61219677923469662 115293.00000000001 0.12607263790000003 0.11838486287048762 0.024319436506748896 0.42780000000000001 0.32269361140000002 175411.00000000003 7.4480415801873541
decision_type=2 2 2 2 2 2 2 2 2 2 2 2 2 2 2
left_child=1 -1 3 4 6 -6 7 -3 10 -5 -7 -8 13 -12 -15
right_child=-2 2 -4 9 5 8 11 -9 -10 -11 12 -13 -14 14 -16
leaf_value=-0.015282797803054082 0.020930534644276012 -0.032708664941198055 -0.027431185778297507 0.013898330558902647 -0.028065066145554426 -0.030270129080627095 0.013818871754875449 0.0020247697837815462 0.018582930875710564 -0.027221797130416621 0.014518961778228227 -0.030899228356463089 -0.015339235608975014 0.015994112551360139 -0.017973835795077896
leaf_count=598 39 260 153 140 204 37 18 416 83 58 118 464 89 44 141
internal_value=0 -0.0181613 -0.00130558 0.00479269 -0.01228 0.0403996 -0.073932 -0.0237232 0.0674054 0.0998958 0.0169886 -0.248236 0.039298 0.07005 -0.0336788
internal_count=2862 2823 2225 2072 1874 716 1158 676 512 198 429 482 392 303 185
shrinkage=0.1


Tree=22
num_leaves=16
num_cat=0
split_feature=0 8 7 1 1 13 2 0 2 4 0 6 10 5 0
split_gain=23.7397 12.0512 20.4436 12.5396 12.4976 14.1725 10.981 9.70182 9.12246 31.8582 9.43492 8.13857 8.88932 8.11639 8.42324
threshold=0.13907716767724976 0.73215000000000019 0.090268799897561411 0.039827457126055961 0.047972935596054554 0.11565000000000002 184261.00000000003 0.0082477392872339593 115293.00000000001 0.15652894856024197 0.00055652378008422862 0.10765939725000001 0.5243000000000001 0.07825331553500002 0.002619384810233339
decision_type=2 2 2 2 2 2 2 2 2 2 2 2 2 2 2
left_child=1 -1 -3 6 -5 7 8 -6 9 10 -4 12 -2 -10 -15
right_child=11 2 3 4 5 -7 -8 -9 13 -11 -12 -13 -14 14 -16
leaf_value=0.0086320701872552759 0.017416788527994782 -0.02248467823327864 -0.012556805998558988 -0.028549711748403685 0.0044767688471053007 0.0018358412901832038 -0.013340533641039333 -0.027458883461676815 -0.0010316304527338289 -0.02969935120591435 0.009473235442997073 0.028177409925042793 -0.03808887580850543 -0.029961811073880591 0.019545298744088165
leaf_count=196 10 549 83 231 57 376 262 300 75 343 257 17 14 17 75
internal_value=0 -0.0162157 -0.0341836 -0.014919 -0.0826084 -0.0479156 0.0217277 -0.188952 0.0433113 -0.00167173 0.0597267 0.207597 -0.00714025 0.113752 0.172057
internal_count=2862 2821 2625 2076 964 733 1112 357 850 683 340 41 24 167 92
shrinkage=0.1


Tree=23
num_leaves=16
num_cat=0
split_feature=0 7 8 1 1 13 2 0 2 4 0 13 1 10 6
split_gain=21.5347 10.5321 9.43816 10.2085 11.6288 11.9533 9.04401 8.40866 7.82577 29.6247 7.76378 7.55158 14.0551 12.3418 7.52575
threshold=0.13907716767724976 0.069169426515129986 0.73215000000000019 0.039827457126055961 0.047972935596054554 0.11565000000000002 184261.00000000003 0.0082477392872339593 115293.00000000001 0.15652894856024197 0.00055652378008422862 0.32095000000000007 0.091882695345465573 0.62170000000000014 0.24318392945000003
decision_type=2 2 2 2 2 2 2 2 2 2 2 2 2 2 2
left_child=1 -1 -3 6 -5 7 8 -6 9 10 -4 -7 -13 -14 -8
right_child=-2 2 3 4 5 11 14 -9 -10 -11 -12 12 13 -15 -16
leaf_value=-0.013807146460169504 0.020595253497993252 0.010527283735687062 -0.011772902050509217 -0.028008682275259402 0.0040576780264989223 0.01304790280370681 -0.028557156086029892 -0.026062310901373193 0.010396073738605261 -0.029310992084415934 0.0085999088289901611 -0.024746876299621006 -0.023753079509725647 0.015004359797485165 -0.0004424365225156965
leaf_count=549 41 122 83 240 57 97 161 312 171 373 259 159 61 73 104
internal_value=0 -0.0154932 -0.00180419 -0.0174156 -0.0786124 -0.0457249 0.0164368 -0.178551 0.0363484 -0.00520755 0.0544425 0.0139222 -0.0483036 0.055659 -0.126727
internal_count=2862 2821 2272 2150 999 759 1151 369 886 715 342 390 293 134 265
shrinkage=0.1


Tree=24
num_leaves=16
num_cat=0
split_feature=1 7 0 0 6 4 4 10 9 6 3 1 0 6 13
split_gain=18.1119 14.9573 13.512 12.4331 12.2929 8.76393 20.3077 15.6593 14.2976 10.9813 10.7805 10.025 9.42635 8.72349 8.64448
threshold=0.12409928439546213 0.087457723578409197 0.029302557815136847 0.027774172827925051 0.11552642495000003 8.015671807186143 0.15652894856024197 0.45760000000000006 0.70350000000000013 0.90828310730000017 115293.00000000001 0.035224657612822306 0.012140963360690175 0.19770723485000005 0.56090000000000007
decision_type=2 2 2 2 2 2 2 2 2 2 2 2 2 2 2
left_child=1 -1 3 5 14 6 10 13 11 -9 -3 12 -7 -8 -2
right_child=4 2 -4 -5 -6 8 7 9 -10 -11 -12 -13 -14 -15 -16
leaf_value=-0.019764489043339009 0.0040373494674284466 -0.032261778058847376 -0.017908161121234743 0.030051407581546757 0.020221450697647837 0.0077968590882994161 -0.025394366721172804 -0.025918870804500966 -0.01412396413709603 0.0094131354901090345 0.0042394718388507084 0.021446750881320018 -0.027781339422231707 0.026153081082277457 -0.039089018566468181
leaf_count=528 142 107 304 14 84 116 31 788 127 28 440 75 40 13 25
internal_value=0 -0.0257293 -0.00907924 0.00760432 0.108985 -0.0021799 -0.0338841 -0.15352 0.0636666 -0.213262 0.0260185 0.114808 0.0226791 0.123722 0.00209942
internal_count=2862 2611 2083 1779 251 1765 1407 860 358 816 547 231 156 44 167
shrinkage=0.1


Tree=25
num_leaves=16
num_cat=0
split_feature=0 7 8 11 3 5 7 5 3 9 6 1 4 7 0
split_gain=17.5895 8.75843 7.80356 6.72267 6.71807 6.33678 6.93287 11.6536 9.26995 8.81967 11.6193 8.72852 8.20921 7.27696 6.06193
threshold=0.13907716767724976 0.069169426515129986 0.43305000000000005 0.60420000000000007 170053.50000000003 0.67671855520000002 8.3141181009748255 0.23945875685000004 210139.00000000003 0.57205000000000017 0.067795626470000009 0.0300210150109281 0.12599576566075679 113.25306039553054 0.014951080102368638
decision_type=2 2 2 2 2 2 2 2 2 2 2 2 2 2 2
left_child=1 3 -3 -1 -2 6 7 9 -9 -4 -11 -10 13 -8 -5
right_child=4 2 5 14 -6 -7 12 8 11 10 -12 -13 -14 -15 -16
leaf_value=-0.021925497878963432 0.023781261111581221 0.014982717840934426 0.0056172688662683183 -0.022411502014985627 -0.020436376821758761 -0.025797879540496716 0.013096810718276612 -0.022506789578099234 0.027176338264040034 -0.03585137033464144 -0.0026868556511963639 -0.03849177720902968 -0.032926904881965986 -0.032904980565005633 0.012091054559402499
leaf_count=384 27 40 481 105 14 153 134 415 10 108 858 14 45 14 60
internal_value=0 -0.0145035 -0.00142722 -0.131811 0.197902 -0.0114703 -0.00613402 -0.0229436 -0.159792 -0.00141261 -0.0462296 0.104326 0.0813357 0.10764 0.00244592
internal_count=2862 2821 2272 549 41 2232 2079 1886 439 1447 966 24 193 148 165
shrinkage=0.1


Tree=26
num_leaves=16
num_cat=0
split_feature=0 7 8 1 1 13 2 0 10 10 12 3 0 0 6
split_gain=15.4715 8.25625 6.88081 8.70992 8.86454 8.88577 7.70547 6.87953 6.60182 13.291 6.69169 6.43654 6.05964 7.87704 5.9287
threshold=0.13907716767724976 0.069169426515129986 0.73215000000000019 0.039827457126055961 0.047972935596054554 0.11425 184261.00000000003 0.0082477392872339593 0.63815000000000011 0.86790000000000012 0.48095000000000004 170053.50000000003 0.011253682503874742 0.0013777631030851419 0.24318392945000003
decision_type=2 2 2 2 2 2 2 2 2 2 2 2 2 2 2
left_child=1 -1 12 6 -5 7 -4 -6 10 -10 -7 -2 13 -3 -8
right_child=11 2 3 4 5 8 14 -9 9 -11 -12 -13 -14 -15 -16
leaf_value=-0.013053800995163456 0.023195791285284123 0.020732111674380702 0.0036548806633409018 -0.026852742994197404 0.0033663289940997392 -0.016058550414105071 -0.028230398596106872 -0.025318355516466325 -0.03121808396578471 0.021009102216405381 0.010365275431487318 -0.020013186713221422 0.013305391015763291 -0.039368969704074858 -0.0013160449033409616
leaf_count=549 27 5 886 240 56 85 161 309 134 14 161 14 82 35 104
internal_value=0 -0.0136769 -0.000923387 -0.0153399 -0.0767174 -0.0460795 0.0173588 -0.169238 0.00939096 -0.140675 0.058448 0.190526 0.0946377 -0.146286 -0.124455
internal_count=2862 2821 2272 2150 999 759 1151 365 394 148 246 41 122 40 265
shrinkage=0.1


Tree=27
num_leaves=16
num_cat=0
split_feature=0 4 2 6 3 8 2 9 5 0 5 2 0 6 13
split_gain=13.7513 7.30221 32.47 22.6138 11.6992 10.2803 9.18106 8.87415 8.78493 6.75153 7.28969 12.8277 7.99972 9.39831 6.73327
threshold=0.13907716767724976 0.15652894856024197 105794.50000000001 0.087517760515000001 115293.00000000001 0.73215000000000019 183118.50000000003 0.48860000000000009 0.10550388400000001 0.029302557815136847 0.13335932000000003 175411.00000000003 0.0030885023381414483 0.16780695565000001 0.10750000000000003
decision_type=2 2 2 2 2 2 2 2 2 2 2 2 2 2 2
left_child=1 4 7 -4 -1 -5 9 8 -3 10 11 12 -7 -14 -12
right_child=-2 2 3 5 -6 6 -8 -9 -10 -11 14 -13 13 -15 -16
leaf_value=-0.032427900342796787 0.018108719874238711 0.019566147894211267 -0.030847167690444089 0.018118031736465815 0.0051580768939184082 -0.029457994785930267 -0.009584037652494902 -0.026470676291292773 -0.030635018245569069 -0.010500969210896494 -0.037188149766800099 -0.036106028855349755 -0.021400050967826649 0.014631542003087993 0.023234006606482043
leaf_count=122 41 15 245 67 490 29 439 949 58 139 13 38 86 100 31
internal_value=0 -0.0131193 -0.0411426 0.013408 0.0351604 0.0404192 0.00998344 -0.21544 0.005833 0.0539561 0.0844273 0.030747 0.0716806 0.101841 0.200531
internal_count=2862 2821 2209 1187 612 942 875 1022 73 436 297 253 215 186 44
shrinkage=0.1


Tree=28
num_leaves=16
num_cat=0
split_feature=0 8 7 1 12 1 8 2 3 4 0 3 11 12 4
split_gain=11.7099 6.07961 11.2477 7.30274 7.07 7.06535 6.46854 6.06073 5.97329 8.85668 5.90293 5.73361 5.16326 5.02373 6.42158
threshold=0.13907716767724976 0.73215000000000019 0.090268799897561411 0.038026619013842258 0.54725000000000013 0.091882695345465573 0.84520000000000006 183118.50000000003 175411.00000000003 0.058482548093686589 0.00043721246598037487 170053.50000000003 0.42335000000000006 0.49365000000000009 1.5991275444204032
decision_type=2 2 2 2 2 2 2 2 2 2 2 2 2 2 2
left_child=1 13 -3 6 8 -6 -4 10 9 -5 -8 -2 -10 14 -1
right_child=11 2 3 4 5 -7 7 -9 12 -11 -12 -13 -14 -15 -16
leaf_value=-0.016049350220969896 0.021550538824104345 -0.019525399133531428 -0.031759950649328815 0.030600667651668641 -0.024070522239568813 -0.0031269725981982696 -0.015411525860524487 -0.01031767622869882 -0.00069888333995161891 -0.0011945854139238168 0.0062777410012486963 -0.019957952492282324 -0.03416239555009621 0.01424817080102074 0.010735393759981423
leaf_count=73 27 549 47 10 354 172 66 246 68 356 659 14 98 87 36
internal_value=0 -0.0122819 -0.0268759 -0.0115346 -0.0656761 -0.144943 0.0222649 0.0300116 -0.00752448 0.0346878 0.0489552 0.17328 -0.167467 0.068796 -0.018191
internal_count=2862 2821 2625 2076 1058 526 1018 971 532 366 725 41 166 196 109
shrinkage=0.1


Tree=29
num_leaves=16
num_cat=0
split_feature=8 9 9 7 4 2 0 4 4 0 13 2 12 13 2
split_gain=9.69647 10.5339 7.74465 9.72852 13.9743 10.0095 11.2128 9.20005 19.4657 8.88729 7.66494 7.52564 7.38465 9.39569 7.11402
threshold=0.43305000000000005 0.62235000000000007 0.57205000000000017 8.3141181009748255 0.11838486287048762 115293.00000000001 0.0018475213131874996 1.5991275444204032 0.30967425706946394 0.0015665434745472512 0.14620000000000002 142059.00000000003 0.59430000000000016 0.37350000000000005 183118.50000000003
decision_type=2 2 2 2 2 2 2 2 2 2 2 2 2 2 2
left_child=1 -1 7 5 10 6 9 8 -2 12 -5 -9 13 -4 -7
right_child=2 -3 3 4 -6 14 -8 11 -10 -11 -12 -13 -14 -15 -16
leaf_value=-0.00042389977403084722 0.0059535926563327301 0.027437204731327082 -0.022065409473885588 -0.033133628306707651 -0.031133763710770302 0.0026238649046709849 -0.024875960235501166 -0.013962873431208295 -0.02609688166945158 0.018831302852928288 0.014467585462044545 0.014082991822048939 -0.029617266012064897 0.01576714654779756 -0.015001652679130893
leaf_count=58 216 23 94 26 145 364 756 95 320 43 92 191 128 28 283
internal_value=0 0.12649 -0.0141985 -0.0453654 0.0601102 -0.0759352 -0.146887 0.0369927 -0.0338157 -0.0444777 0.115601 0.107723 -0.115707 -0.016 -0.0156262
internal_count=2862 81 2781 1959 263 1696 1049 822 536 293 118 286 250 122 647
shrinkage=0.1


Tree=30
num_leaves=16
num_cat=0
split_feature=1 0 6 7 0 13 4 2 4 4 5 9 10 5 3
split_gain=8.84448 9.50771 9.34111 7.95949 6.77084 6.26038 6.78218 9.50879 5.4551 12.8274 11.5107 9.30352 9.05467 10.0278 7.24676
threshold=0.12409928439546213 0.029302557815136847 0.11552642495000003 0.087457723578409197 0.027774172827925051 0.56090000000000007 1.9654240071531792 159538.50000000003 8.1533655023323686 0.15652894856024197 0.11552642495000003 0.70350000000000013 0.45760000000000006 0.10765939725000001 115293.00000000001
decision_type=2 2 2 2 2 2 2 2 2 2 2 2 2 2 2
left_child=1 3 5 -1 8 6 7 -2 9 14 12 -10 -11 -14 -5
right_child=2 -3 -4 4 -6 -7 -8 -9 11 10 -12 -13 13 -15 -16
leaf_value=-0.016071435817364671 0.0055249851979562968 -0.017522411666177004 0.018446070772819088 -0.031241465575178397 0.027052281612988491 -0.038429416329375826 0.019981600537202254 -0.033490517662019985 0.01076217589664525 0.022703709006191796 -0.027272976824210413 -0.012561816193259221 -0.020899067776096465 0.023623763343773033 0.003695146500992447
leaf_count=470 52 362 84 107 14 25 27 63 227 16 568 124 273 10 440
internal_value=0 -0.0198929 0.0864091 -0.00525819 0.00813696 -0.012531 0.0226053 -0.0647967 0.000804174 -0.0259214 -0.135295 0.0604271 -0.0217573 -0.111851 0.0236929
internal_count=2862 2611 251 2249 1779 167 142 115 1765 1414 867 351 299 283 547
shrinkage=0.1


Tree=31
num_leaves=16
num_cat=0
split_feature=0 6 7 4 4 3 0 2 2 5 13 1 1 12 2
split_gain=7.66789 10.959 8.28398 10.2849 9.86071 15.9465 8.04387 7.26196 6.61589 10.2526 11.3222 6.15884 17.4905 5.99915 5.7428
threshold=0.068632531195706822 0.09639928572500002 8.3141181009748255 0.12599576566075679 4.7472598131455603 92735.000000000015 0.037239686527724226 142059.00000000003 159538.50000000003 0.07825331553500002 0.30715000000000009 0.033136408287280067 0.094065847034241382 0.56230000000000013 43222.000000000007
decision_type=2 2 2 2 2 2 2 2 2 2 2 2 2 2 2
left_child=2 -2 4 11 5 -1 7 -6 -9 -10 -11 13 -13 -4 -3
right_child=1 14 3 -5 6 -7 -8 8 9 10 -12 12 -14 -15 -16
leaf_value=-0.026073084053730634 -0.011132444613945048 -0.042039665439934287 -0.0051458548605424698 -0.028887554690419932 -0.015326920655694607 -0.0038223134911861711 -0.028763950652745326 0.018589208712923948 -0.016080586847725484 0.016506017772650355 -0.01985595237512016 -0.020612954691010189 0.026188515418820276 0.02621642185560288 0.018343157816095843
leaf_count=766 94 6 18 147 175 1010 81 39 120 92 76 82 19 31 106
internal_value=0 0.093688 -0.0164434 0.077211 -0.0373335 -0.080531 0.0286026 0.0471643 0.0751559 0.0225522 0.0951719 0.113592 0.0115156 0.19949 0.165618
internal_count=2862 206 2656 297 2359 1776 583 502 327 288 168 150 101 49 112
shrinkage=0.1


Tree=32
num_leaves=16
num_cat=0
split_feature=1 7 7 4 4 2 4 3 5 7 5 12 12 12 13
split_gain=7.60391 5.7259 5.58386 10.183 10.0015 13.2444 12.2118 13.6661 8.25753 7.78854 5.55078 5.35727 8.18158 6.55224 5.1498
threshold=0.22175523088072222 0.0089019099267522907 8.3141181009748255 0.12599576566075679 1.9654240071531792 105794.50000000001 0.61219677923469662 115293.00000000001 0.12216791500000002 0.0032700314184544712 0.14937882305000003 0.59165000000000012 0.51255000000000006 0.49240000000000006 0.37350000000000005
decision_type=2 2 2 2 2 2 2 2 2 2 2 2 2 2 2
left_child=2 -2 4 -4 6 -6 7 -1 11 -8 -10 12 13 -9 -12
right_child=1 -3 3 -5 5 -7 9 8 10 -11 14 -13 -14 -15 -16
leaf_value=-0.030786834229089361 -0.029194043314161235 0.018813518954275243 0.010664340933252662 -0.028706413124821518 -0.025647831534922345 0.0053392388714950736 0.013184635250804273 -0.02402128764166224 -0.032073245669927447 -0.026176664066636976 -0.0092263333338474841 0.026196592401823107 -0.030821282459930835 0.028882718929216823 0.0063658571520427117
leaf_count=354 5 34 150 158 293 631 50 28 69 683 229 37 33 11 97
internal_value=0 0.147939 -0.0107808 0.0681837 -0.0266935 0.0272073 -0.0768633 -0.030702 0.00364159 -0.214968 -0.0456559 0.134771 0.0140939 0.155829 -0.0239201
internal_count=2862 39 2823 308 2515 924 1591 858 504 733 395 109 72 39 326
shrinkage=0.1


Tree=33
num_leaves=16
num_cat=0
split_feature=8 9 4 9 13 12 2 2 13 13 12 4 4 2 7
split_gain=7.73262 8.47395 5.30652 5.2326 7.54585 6.48612 6.13215 8.06739 9.19137 5.44767 5.82782 5.27524 5.20454 16.9626 7.50837
threshold=0.43305000000000005 0.62235000000000007 1.919651029673521 0.48860000000000009 0.14620000000000002 0.42295000000000005 175411.00000000003 173219.50000000003 0.045700000000000011 0.043100000000000006 0.65405000000000013 1.5991275444204032 0.13155305168485279 115293.00000000001 0.88805852651383543
decision_type=2 2 2 2 2 2 2 2 2 2 2 2 2 2 2
left_child=1 2 -1 5 6 -2 7 8 9 10 -5 -7 -6 -14 -15
right_child=3 -3 -4 4 12 11 -8 -9 -10 -11 -12 -13 13 14 -16
leaf_value=-0.015792180187557476 -0.016311092960805934 0.026611932048321782 0.013977537811281077 -0.020261439840584389 0.004650768976972872 0.00053178934707495793 -0.027703955090083776 0.019183562079410004 -0.019722024841631575 0.032066396670314821 0.018811613917849846 0.02151014594277113 -0.024594260726625586 0.0036976616086924481 -0.029760599016458153
leaf_count=38 85 23 20 99 366 117 198 19 504 11 35 47 660 493 147
internal_value=0 0.123399 -0.00639099 -0.0135803 -0.0278814 0.0744407 -0.107029 -0.0669985 -0.109735 0.0581052 -0.038632 0.121437 -0.00121949 -0.0419881 0.0156654
internal_count=2862 81 58 2781 2532 249 866 668 649 145 134 164 1666 1300 640
shrinkage=0.1


Tree=34
num_leaves=16
num_cat=0
split_feature=1 5 7 11 1 3 10 5 12 6 0 1 0 3 1
split_gain=7.48559 3.68868 3.50464 3.59391 3.31487 4.42706 3.48857 4.16875 3.52852 3.17778 6.01203 3.17084 3.17871 7.3865 6.39607
threshold=0.22175523088072222 0.20797580800000004 0.079574744027569227 0.34655000000000008 0.039435492337814203 178460.50000000003 0.47815000000000002 0.12216791500000002 0.60215000000000007 0.10765939725000001 0.076511067055955714 0.018631674032489252 0.00094320037513132276 201973.00000000003 0.031835018839424127
decision_type=2 2 2 2 2 2 2 2 2 2 2 2 2 2 2
left_child=2 9 3 -1 -5 6 -6 8 -8 10 -2 -4 -13 -14 -15
right_child=1 -3 11 4 5 -7 7 -9 -10 -11 -12 12 13 14 -16
leaf_value=-0.025822772174352859 0.022014869728510023 -0.041123110969146288 -0.033072405814806 -0.021614665050314993 0.033330333868980259 -0.027063932981125045 -0.0096007208722391039 -0.022056306607214471 0.030413583553783957 0.025504546671246343 -0.028513828732998583 0.0072488543558848683 0.00035511757106160085 0.0017666701646126054 -0.03052797476313689
leaf_count=224 5 7 36 177 6 52 34 81 24 17 10 147 1851 52 139
internal_value=0 0.15401 -0.010959 -0.0981434 -0.0440299 0.018085 0.0853838 0.00922738 0.137573 0.176159 0.0340775 -0.00125052 0.00133264 -0.0107519 -0.174179
internal_count=2862 39 2823 598 374 197 145 139 58 32 15 2225 2189 2042 191
shrinkage=0.1


Tree=35
num_leaves=16
num_cat=0
split_feature=8 5 9 6 9 9 12 4 2 7 9 13 3 12 1
split_gain=6.90966 5.32728 4.10743 4.3422 3.76406 6.17189 5.84885 4.91613 14.702 5.82594 5.81949 7.00528 9.30671 6.20289 5.33402
threshold=0.38750000000000007 0.20797580800000004 0.60690000000000011 0.07825331553500002 0.48860000000000009 0.53225000000000011 0.43085000000000007 0.15652894856024197 115293.00000000001 0.88805852651383543 0.54595000000000005 0.13705000000000003 149092.50000000003 0.65580000000000005 0.13050440875135697
decision_type=2 2 2 2 2 2 2 2 2 2 2 2 2 2 2
left_child=1 2 3 -1 6 -6 -2 10 14 -10 13 -12 -13 -7 -9
right_child=4 -3 -4 -5 5 7 -8 8 9 -11 11 12 -14 -15 -16
leaf_value=-0.026056276401953946 -0.013425717351026748 -0.040629816035112704 0.030145039982376099 0.015037371856343601 -0.019325462470463271 0.028200828447548815 0.011735311145458102 -0.025732043614138441 0.0015306904137238197 -0.029002622400591468 -0.01912263295249686 -0.030788596238843197 0.0059508706035763448 -0.012487074625021889 0.0082709213217092674
leaf_count=12 101 11 10 17 184 21 154 897 755 159 134 108 253 15 31
internal_value=0 0.14421 0.175572 0.0637965 -0.0110747 -0.0233964 0.0649562 -0.0128873 -0.0472989 0.0011482 0.0309883 0.00472658 0.0339418 0.185817 -0.213594
internal_count=2862 50 39 29 2812 2557 255 2373 1842 914 531 495 361 36 928
shrinkage=0.1


Tree=36
num_leaves=16
num_cat=0
split_feature=1 0 6 7 9 7 12 4 4 6 2 2 3 2 10
split_gain=7.40953 6.56999 5.87647 4.80635 3.70768 5.2423 5.05302 3.34166 9.53777 7.15068 7.52881 5.38628 4.93132 4.46118 4.28498
threshold=0.12409928439546213 0.037239686527724226 0.11552642495000003 0.087457723578409197 0.49135000000000006 0.055655469345636685 0.43200000000000005 8.1533655023323686 0.15652894856024197 0.19770723485000005 74438.000000000015 184261.00000000003 115293.00000000001 142059.00000000003 0.48780000000000007
decision_type=2 2 2 2 2 2 2 2 2 2 2 2 2 2 2
left_child=1 3 4 -1 5 -2 -6 8 12 -10 -11 13 -5 -9 -12
right_child=2 -3 -4 7 6 -7 -8 11 9 10 14 -13 -14 -15 -16
leaf_value=-0.014581615389573485 -0.024701696214958321 -0.020855717590496228 0.017965461919780313 -0.030391158855739848 0.010664701868676288 0.016084486602227419 -0.026384216228865442 -0.011902211554872181 -0.024731177577757314 -0.02766646384398054 0.022254644619477945 -0.0093870595650549539 0.0032836947658153692 0.011949745069173109 -0.0041453762137080817
leaf_count=491 25 249 84 107 16 31 95 105 565 244 15 168 443 113 111
internal_value=0 -0.0192962 0.091047 -0.0093208 0.00112512 0.0868356 -0.11705 0.00133119 -0.0205948 -0.123971 -0.0317657 0.0510328 0.0227667 0.0906332 0.0536797
internal_count=2862 2611 251 2362 167 56 111 1871 1485 935 370 386 550 218 126
shrinkage=0.1


Tree=37
num_leaves=16
num_cat=0
split_feature=1 0 6 13 7 4 4 6 2 5 2 1 6 3 12
split_gain=5.55351 5.56569 5.35635 4.93442 4.55932 3.33036 8.08766 6.13467 6.67569 5.14905 7.51896 4.7979 5.52981 4.32175 3.98773
threshold=0.12409928439546213 0.037239686527724226 0.11552642495000003 0.56090000000000007 0.087457723578409197 8.1533655023323686 0.15652894856024197 0.19770723485000005 74438.000000000015 0.13335932000000003 175411.00000000003 0.024319436506748896 0.32269361140000002 115293.00000000001 0.6856000000000001
decision_type=2 2 2 2 2 2 2 2 2 2 2 2 2 2 2
left_child=1 4 3 -2 -1 6 13 -8 -9 10 11 -7 -13 -6 -12
right_child=2 -3 -4 -5 5 9 7 8 -10 -11 14 12 -14 -15 -16
leaf_value=-0.014369633104116743 0.0031384265080801597 -0.019595830843730361 0.016800718035047499 -0.037727354160848076 -0.030148794608440312 -0.023834803808016267 -0.024033276144901115 -0.027469683115039875 0.0048527898881228285 0.015039938419988647 -0.02328200637335083 0.017189994452605047 -0.018000797701031971 0.0028910233472614101 0.014249434317548871
leaf_count=491 142 249 84 25 107 26 565 244 126 110 126 66 43 443 15
internal_value=0 -0.0170117 0.079891 -0.00484724 -0.00777938 0.00269168 -0.019587 -0.119217 -0.0324738 0.0529488 -0.00488779 0.0766485 0.116684 0.0198027 -0.165737
internal_count=2862 2611 251 167 2362 1871 1485 935 370 386 276 135 109 550 141
shrinkage=0.1


Tree=38
num_leaves=16
num_cat=0
split_feature=1 12 1 0 7 7 3 0 4 4 4 10 6 3 12
split_gain=5.6725 5.36251 5.74901 4.92311 4.22239 4.11426 3.94653 3.74201 3.56101 2.75201 7.55501 5.84063 5.83197 3.91355 3.9381
threshold=0.12409928439546213 0.49240000000000006 0.22175523088072222 0.037239686527724226 0.65212687801254188 0.087457723578409197 188529.50000000003 0.084208943848609233 2.0580938697318012 8.1533655023323686 0.15652894856024197 0.45760000000000006 0.90828310730000017 115293.00000000001 0.50925000000000009
decision_type=2 2 2 2 2 2 2 2 2 2 2 2 2 2 2
left_child=3 2 8 5 6 -1 -3 -5 -2 10 13 -12 -13 -7 -15
right_child=1 4 -4 7 -6 9 -8 -9 -10 -11 11 12 -14 14 -16
leaf_value=-0.014036745938387059 -0.030996269246458198 0.019526699981013581 0.011605621290855643 -0.028278690335074089 -0.026621223228882086 -0.029929942839074061 -0.033264075827942545 0.0062778484900548161 0.0027144968655926274 0.004799459267611262 0.0095550521340798007 -0.021351452807511797 0.010547227093491466 0.011428298098064801 -0.00044496716967425739
leaf_count=491 84 90 20 216 24 107 16 33 17 386 53 854 28 100 343
internal_value=0 0.0823605 -0.0288112 -0.0173154 0.152169 -0.00859915 0.175946 -0.189169 -0.177706 0.00138282 -0.0189222 -0.117639 -0.166503 0.018864 0.0272617
internal_count=2862 251 121 2611 130 2362 106 249 101 1871 1485 935 882 550 443
shrinkage=0.1


Tree=39
num_leaves=16
num_cat=0
split_feature=1 12 1 7 7 0 0 3 4 1 7 12 12 10 9
split_gain=4.62376 4.41327 5.28412 4.06292 3.82171 3.67492 3.57346 3.31075 2.95754 2.69436 2.64142 2.69464 3.83608 3.77455 7.59203
threshold=0.12409928439546213 0.49240000000000006 0.22175523088072222 0.087457723578409197 0.65212687801254188 0.037239686527724226 0.084208943848609233 188529.50000000003 2.0580938697318012 0.018631674032489252 113.25306039553054 0.65545000000000009 0.66435000000000011 0.62805000000000011 0.66505000000000014
decision_type=2 2 2 2 2 2 2 2 2 2 2 2 2 2 2
left_child=3 2 8 -1 7 9 -7 -3 -2 -5 11 13 -13 14 -11
right_child=1 4 -4 5 -6 6 -8 -9 -10 10 -12 12 -14 -15 -16
leaf_value=-0.014626595667023047 -0.029687868367869765 0.018299999294873494 0.011570245547597962 -0.032636311885679017 -0.026694062721495822 -0.02701115963115476 0.0086120526660340129 -0.032180964428107021 0.0016908438421929844 0.0019092564669520584 -0.02793884618946136 -0.032860644779039661 -0.0031171641498885651 0.0069436774147743395 -0.018510122768262229
leaf_count=528 84 90 20 36 24 183 29 16 17 704 44 45 277 580 185
internal_value=0 0.0765349 -0.026498 -0.0155499 0.141823 -0.00592426 -0.166312 0.165104 -0.172523 0.00169397 0.00455444 0.00782264 -0.0647984 0.0210086 -0.0117179
internal_count=2862 251 121 2611 130 2083 212 106 101 1871 1835 1791 322 1469 889
shrinkage=0.1


Tree=40
num_leaves=16
num_cat=0
split_feature=1 1 0 3 5 0 1 1 3 0 0 9 0 7 2
split_gain=3.97971 2.91393 3.83009 5.73825 6.26246 5.52253 7.70469 5.41135 6.14825 5.30625 5.77751 5.2143 4.97224 4.09539 8.09346
threshold=0.39431671014620789 0.022526980423878452 0.00094320037513132276 201973.00000000003 0.30703332535000005 0.001643290006434024 0.035224657612822306 0.032629366756668603 173219.50000000003 0.00088482102087477559 0.00066099870883146639 0.66550000000000009 0.00055652378008422862 8.3141181009748255 17311.500000000004
decision_type=2 2 2 2 2 2 2 2 2 2 2 2 2 2 2
left_child=1 -1 9 4 5 6 -4 8 -6 10 12 -8 -3 14 -7
right_child=-2 2 3 -5 7 13 11 -9 -10 -11 -12 -13 -14 -15 -16
leaf_value=-0.010272568296420778 0.022736028502187526 -0.011545785721856456 -0.032337972201420574 -0.014347016962462354 -0.02203731122987965 -0.019732198158686751 0.033781151237276867 -0.024296779347072705 0.026256172102715337 0.030146672253465429 -0.017440145568205261 -0.038683686501682496 0.022597052567548435 0.013905742425114956 0.0014535941861015579
leaf_count=250 12 24 35 257 122 326 10 207 19 7 42 9 15 80 1447
internal_value=0 -0.00448754 0.00326704 -0.0083599 0.00511885 0.020611 0.195681 -0.135969 0.0424357 0.0961849 0.0306263 0.283811 0.12492 0.00839221 -0.00459571
internal_count=2862 2850 2600 2512 2255 1907 54 348 141 88 81 19 39 1853 1773
shrinkage=0.1


Tree=41
num_leaves=16
num_cat=0
split_feature=0 0 1 13 10 1 13 4 13 10 12 3 13 0 4
split_gain=5.25477 6.38225 4.51144 4.06876 4.43501 3.53864 3.45957 3.73091 3.3855 7.3441 5.27465 4.6782 5.50969 3.81113 8.16822
threshold=0.00055652378008422862 0.00066099870883146639 0.022526980423878452 0.036150000000000009 0.6795500000000001 0.097727053977053988 0.028250000000000001 3.5766442188473406 0.10750000000000003 0.48780000000000007 0.38090000000000007 142059.00000000003 0.049150000000000006 0.0040484359965869696 8.4470279307563541
decision_type=2 2 2 2 2 2 2 2 2 2 2 2 2 2 2
left_child=-1 2 -2 4 6 -6 7 -3 11 10 -10 -5 -13 -11 -15
right_child=1 3 -4 8 5 -7 -8 -9 9 13 -12 12 -14 14 -16
leaf_value=-0.017834220103670563 -0.038197955021509168 -0.02499543592795081 0.024857618723919995 -0.0018491708880188928 -0.012487261943377891 0.024647916525181498 0.013678096747271599 0.013145048214722985 -0.012255507803851526 0.0029188291096905465 0.023732720009182889 0.0056280849873212892 -0.0305304534987524 -0.014348612375140748 0.0024848736626793696
leaf_count=97 9 67 15 423 34 36 50 14 48 589 59 41 190 864 326
internal_value=0 0.00781927 0.201132 -0.00132642 0.0915617 0.193606 -0.0132123 -0.125905 -0.0140345 0.00293117 0.16443 -0.0798484 -0.202546 -0.0159332 -0.0550641
internal_count=2862 2765 24 2741 201 70 131 81 2540 1886 107 654 231 1779 1190
shrinkage=0.1


Tree=42
num_leaves=16
num_cat=0
split_feature=13 10 13 10 3 13 13 2 2 4 12 10 13 9 9
split_gain=3.82309 3.83604 3.54073 6.86343 4.70548 4.99457 4.26036 3.7807 4.33865 4.5941 4.27458 3.6693 3.60701 3.72611 3.66751
threshold=0.036150000000000009 0.68745000000000012 0.10750000000000003 0.52070000000000005 142059.00000000003 0.049150000000000006 0.28325000000000006 178460.50000000003 135612.50000000003 0.15652894856024197 0.48715000000000003 0.5837500000000001 0.13705000000000003 0.79700000000000004 0.88775000000000015
decision_type=2 2 2 2 2 2 2 2 2 2 2 2 2 2 2
left_child=1 -1 4 6 7 11 -4 8 9 10 -2 -6 13 -5 -14
right_child=2 -3 3 12 5 -7 -8 -9 -10 -11 -12 -13 14 -15 -16
leaf_value=-0.00026320326015667061 0.03092861858056908 0.019319807359359731 0.019346194499044185 -0.02725561268488871 -0.033325817620533729 -0.030336214693027937 -0.0066148138906113986 -0.021338158502027197 0.013952815025963912 -0.022150237439531942 -0.025232183345802434 0.020657570613414677 -0.00021863789002652745 0.021876070778173027 -0.039404648394169878
leaf_count=134 10 68 84 146 26 194 84 102 60 217 36 15 1648 16 22
internal_value=0 0.0922601 -0.0112073 0.0045223 -0.0794828 -0.20354 0.133684 -0.0180418 0.0288371 -0.0888839 0.125808 0.0411592 -0.0153084 -0.190895 -0.00646507
internal_count=2862 202 2660 2000 660 235 168 425 323 263 46 41 1832 162 1670
shrinkage=0.1


Tree=43
num_leaves=16
num_cat=0
split_feature=1 0 0 11 4 0 0 12 4 4 3 7 2 4 11
split_gain=3.08585 2.77619 4.79455 3.96293 3.51153 3.4886 2.74247 4.91155 4.06662 10.1712 9.01319 5.86742 5.51081 4.35201 4.2826
threshold=0.39431671014620789 0.00055652378008422862 0.00066099870883146639 0.60420000000000007 0.053243033907074945 0.00070853267064118202 0.00094320037513132276 0.38740000000000002 1.919651029673521 0.61219677923469662 115293.00000000001 0.0032700314184544712 105794.50000000001 0.031111787562227728 0.27700000000000008
decision_type=2 2 2 2 2 2 2 2 2 2 2 2 2 2 2
left_child=1 -1 3 4 -3 -4 7 -7 9 10 -8 -11 -10 -12 -15
right_child=-2 2 5 -5 -6 6 8 -9 12 11 13 -13 -14 14 -16
leaf_value=-0.014069060870795564 0.021541508762113779 0.02004552973189401 -0.038056272399258538 0.027894704096105477 -0.042420737117092551 0.034284599068280831 -0.028965697217219658 -0.0010640111455484577 -0.018394608314728264 0.0079037186509060883 -0.01367457290027238 -0.024476640926121375 0.004611665708523476 -0.010681161489838283 0.0074722266404992112
leaf_count=97 12 5 12 10 9 5 332 55 308 49 71 736 675 109 377
internal_value=0 -0.00392507 0.00173816 0.181616 -0.104988 -0.00600614 -0.00318352 0.12124 -0.00991355 -0.0440777 -0.0007568 -0.187032 0.0283972 0.0239953 0.0473163
internal_count=2862 2850 2753 24 14 2729 2717 60 2657 1674 889 785 983 557 486
shrinkage=0.1


Tree=44
num_leaves=16
num_cat=0
split_feature=0 0 9 3 7 5 13 13 7 9 2 3 4 3 2
split_gain=3.97231 4.59981 4.32681 3.79704 4.46044 4.09541 4.15136 7.45489 3.98244 5.38171 5.26337 8.26894 4.53746 4.17001 4.35928
threshold=0.00055652378008422862 0.00094320037513132276 0.72330000000000017 201973.00000000003 20.766240200308975 0.30703332535000005 0.31605000000000005 0.27950000000000003 4.9964310290104903 0.72735000000000005 44732.500000000007 115293.00000000001 0.072620377858162097 173219.50000000003 17311.500000000004
decision_type=2 2 2 2 2 2 2 2 2 2 2 2 2 2 2
left_child=2 -2 -1 5 -5 8 7 -7 10 12 11 -3 -10 -13 -15
right_child=1 3 -4 4 -6 6 -8 -9 9 -11 -12 13 -14 14 -16
leaf_value=-0.0050721946340211415 0.012034373168199074 -0.029513220629351272 -0.042504136534172621 -0.016802368662163031 0.024848000947771114 -0.018072478154279158 -0.026205782013645981 0.02749915942524038 0.022625302427611432 -0.034551460075734695 0.0027305237866077949 0.010750155250123366 -0.0067682270398476147 -0.032378585857557228 0.0014263846940070447
leaf_count=66 96 526 31 242 16 142 240 17 44 18 1205 76 58 42 43
internal_value=0 0.00694498 -0.159338 -0.00484754 -0.121158 0.00563017 -0.113624 -0.00671902 0.0176452 0.122343 0.00299635 -0.0920556 0.158434 -0.00428494 -0.119448
internal_count=2862 2765 97 2669 258 2411 399 159 2012 120 1892 687 102 161 85
shrinkage=0.1


Tree=45
num_leaves=16
num_cat=0
split_feature=13 10 13 10 13 2 2 9 4 12 0 12 10 0 4
split_gain=3.81264 3.74562 3.61219 6.79111 5.29934 4.87032 8.18143 3.532 3.61151 6.47936 5.93952 8.11961 5.88666 5.63492 4.77008
threshold=0.036150000000000009 0.6795500000000001 0.10750000000000003 0.48780000000000007 0.20115000000000002 178460.50000000003 135612.50000000003 0.88775000000000015 0.026988386449934752 0.50145000000000006 0.00088482102087477559 0.56230000000000013 0.75455000000000017 0.015887094984940734 30.991570740310109
decision_type=2 2 2 2 2 2 2 2 2 2 2 2 2 2 2
left_child=1 -1 5 4 -4 6 -2 8 10 13 11 -5 -11 -10 -14
right_child=2 -3 3 7 -6 -7 -8 -9 9 12 -12 -13 14 -15 -16
leaf_value=-0.0010079614676034704 -0.014491438412144987 0.01868817326613886 0.025018227178724602 -0.046728046980279804 -0.0072900608611041629 -0.026487324957261634 0.01239874872734292 -0.035829002922878481 -0.025818800608654609 0.0022349481380661094 0.024568089134942253 0.01015549243987965 -0.026992635119855054 0.0021509702715374578 0.0076903341102166111
leaf_count=132 405 70 46 12 62 160 95 26 270 1158 19 23 250 105 29
internal_value=0 0.093644 -0.0114775 0.00468202 0.160308 -0.0822159 -0.0368411 -0.0122818 -0.00788101 -0.0222038 0.102209 -0.0547954 0.00181293 -0.155318 -0.165136
internal_count=2862 202 2660 2000 108 660 500 1892 1866 1812 54 35 1437 375 279
shrinkage=0.1


Tree=46
num_leaves=16
num_cat=0
split_feature=13 1 10 13 10 13 4 3 12 2 11 10 8 0 11
split_gain=3.24834 3.38222 3.26924 3.21848 4.5822 5.04896 4.29168 6.2901 6.12763 6.07759 5.93903 5.56761 4.18443 4.43007 6.89151
threshold=0.036150000000000009 0.097727053977053988 0.48780000000000007 0.10750000000000003 0.52990000000000015 0.12490000000000001 0.026988386449934752 210139.00000000003 0.50145000000000006 5201.0000000000009 0.49670000000000009 0.75455000000000017 0.8660500000000001 0.0040484359965869696 0.53270000000000006
decision_type=2 2 2 2 2 2 2 2 2 2 2 2 2 2 2
left_child=1 -1 -3 -2 5 -5 9 8 -8 10 -6 12 -10 -14 -15
right_child=3 2 -4 4 6 -7 7 -9 11 -11 -12 -13 13 14 -16
leaf_value=-0.010849937936015743 -0.0079105869821301453 -0.021968025236212455 0.016374045982167282 0.027572906931050613 -0.040077355591091712 0.0027210555786398912 -0.01731770434461451 -0.029924335711114514 -0.017494135539425904 0.031373915617009911 0.0075015310172140831 -0.016094130602663625 0.0098502817910597756 -0.018623118408060045 0.0044178700865431823
leaf_count=92 660 18 92 32 15 160 322 79 98 8 35 287 307 277 380
internal_value=0 0.0877091 0.133449 -0.0105617 0.0044413 0.106312 -0.0130767 -0.030579 -0.0182217 0.0988429 0.00339016 0.00361016 0.0249217 0.0398169 -0.0178909
internal_count=2862 202 110 2660 2000 192 1808 1750 1671 58 50 1349 1062 964 657
shrinkage=0.1


Tree=47
num_leaves=16
num_cat=0
split_feature=0 5 1 0 0 5 12 3 7 5 7 11 2 4 5
split_gain=3.21179 3.37291 2.23371 2.15498 5.7482 4.40334 5.10845 4.03263 4.74432 3.31435 4.04448 4.33118 4.27481 7.25173 5.46724
threshold=0.15734882319304136 0.057592116605000007 0.018920767524617337 0.00094320037513132276 0.00088482102087477559 0.23945875685000004 0.55210000000000015 201973.00000000003 20.766240200308975 0.30703332535000005 4.9964310290104903 0.62860000000000005 115293.00000000001 0.32040915509200912 0.12216791500000002
decision_type=2 2 2 2 2 2 2 2 2 2 2 2 2 2 2
left_child=2 -2 -1 4 5 -4 -7 9 -9 10 12 -12 13 14 -5
right_child=1 -3 3 7 -6 6 -8 8 -10 -11 11 -13 -14 -15 -16
leaf_value=-0.028048283288514872 -0.033104052610219217 0.021140249950964331 0.015425300419110839 0.01532354375965036 0.02796529350573191 -0.03462236404579469 0.00056245568780916618 -0.018186240325182988 0.023609785206843467 -0.011645591245712461 0.0054773337441656779 0.034975487805322475 0.0025158066863501809 -0.021381687209289051 -0.0085970772653497559
leaf_count=60 5 25 21 66 9 44 86 242 16 381 106 8 911 649 233
internal_value=0 0.156566 -0.00605735 -0.00356091 0.0620905 0.00106964 -0.0839408 -0.0137199 -0.132334 -0.00156955 0.00979675 0.121413 -0.00589226 -0.07388 0.00774541
internal_count=2862 30 2832 2772 160 151 130 2612 258 2354 1973 114 1859 948 299
shrinkage=0.1


Tree=48
num_leaves=16
num_cat=0
split_feature=0 5 7 4 4 4 3 2 7 12 12 12 9 7 1
split_gain=2.52883 3.48366 2.04493 4.77088 3.79493 7.09479 7.70123 5.42376 5.19772 4.7184 6.59975 4.52976 3.92839 3.80883 3.51135
threshold=0.15734882319304136 0.057592116605000007 8.3141181009748255 0.12599576566075679 1.919651029673521 0.61219677923469662 115293.00000000001 105794.50000000001 0.0032700314184544712 0.59430000000000016 0.59165000000000012 0.57055000000000011 0.49135000000000006 0.12596744596338297 0.094065847034241382
decision_type=2 2 2 2 2 2 2 2 2 2 2 2 2 2 2
left_child=2 -2 4 14 5 6 -1 -6 -7 10 11 -8 -9 -11 -4
right_child=1 -3 3 -5 7 8 9 12 -10 13 -12 -13 -14 -15 -16
leaf_value=-0.030093276535626524 -0.033048217779886348 0.020227231643334363 0.0033256178628930963 -0.027544749290284554 -0.022775745461074942 0.0097459997840313624 0.0044783506417610868 0.016884913725909206 -0.024491950425638009 0.018412311972023507 0.032000481440992691 -0.032828969203392948 0.0014161235581536932 -0.012752512924863854 0.023729725414408986
leaf_count=358 5 25 131 156 298 52 247 53 672 38 7 29 581 191 19
internal_value=0 0.141551 -0.00543689 0.0522358 -0.0166421 -0.053128 -0.0142324 0.0226135 -0.185957 0.0110563 0.0612512 0.0215012 0.039586 -0.0852467 0.0805182
internal_count=2862 30 2832 306 2526 1594 870 932 724 512 283 276 634 229 150
shrinkage=0.1


Tree=49
num_leaves=16
num_cat=0
split_feature=0 6 2 0 0 3 7 9 5 3 9 1 1 13 4
split_gain=2.60908 2.48777 1.89576 1.88525 3.25783 3.04745 3.88363 3.02389 4.52076 3.6628 3.74567 3.6097 5.88374 3.13048 3.68181
threshold=0.15734882319304136 0.10765939725000001 212965.50000000003 0.00055652378008422862 0.00094320037513132276 201973.00000000003 20.766240200308975 0.68680000000000008 0.30703332535000005 170053.50000000003 0.7722500000000001 0.033623536812239473 0.097727053977053988 0.093800000000000008 13.295762904570607
decision_type=2 2 2 2 2 2 2 2 2 2 2 2 2 2 2
left_child=2 -2 3 -1 -5 7 -7 8 -6 10 13 -11 -13 14 -9
right_child=1 -3 -4 4 5 6 -8 9 -10 11 -12 12 -14 -15 -16
leaf_value=-0.012444840334599645 -0.013280506655631652 0.022592922718762926 -0.026142180571781932 0.010164142054879347 0.0032047768660378334 -0.0164095244407324 0.023185930059410376 -0.033745513878149384 -0.018460320355527159 0.022482393618247175 -0.0010929800874409209 -0.031189400061526065 0.020181982537209948 -0.029600007033946902 0.017864830874695328
leaf_count=97 14 16 53 96 1456 237 16 66 223 15 215 42 23 282 11
internal_value=0 0.148455 -0.00548533 -0.00308806 0.0019866 -0.00913931 -0.117232 0.00152688 0.0203047 -0.0654096 -0.121079 0.0594284 -0.0748407 -0.214371 -0.0200484
internal_count=2862 30 2832 2779 2682 2586 253 2333 1679 654 574 80 65 359 77
shrinkage=0.1


Tree=50
num_leaves=16
num_cat=0
split_feature=0 7 4 5 4 5 10 0 3 9 7 13 13 3 3
split_gain=2.6383 1.89641 4.11659 3.44272 2.78719 5.34546 3.6305 2.81581 5.36416 3.13014 2.70387 2.6929 2.65332 4.82506 4.81885
threshold=0.15734882319304136 8.3141181009748255 0.12599576566075679 0.32269361140000002 0.026988386449934752 0.23945875685000004 0.65605000000000013 0.00085917701942633394 201973.00000000003 0.38095000000000007 0.51642013372774476 0.21740000000000001 0.36345000000000005 173219.50000000003 173219.50000000003
decision_type=2 2 2 2 2 2 2 2 2 2 2 2 2 2 2
left_child=1 3 12 4 6 7 10 -6 -9 -10 -1 -5 14 -14 -3
right_child=-2 2 -4 11 5 -7 -8 8 9 -11 -12 -13 13 -15 -16
leaf_value=0.024946232243753943 0.015320279051152999 -0.027616911634047326 -0.027072941118756452 -0.0033440177688712929 0.015481912120998973 -0.017966648629768749 0.03186698093847623 0.00038861978585625896 0.021551114132310284 -0.025733940222321616 -0.024239703633076155 -0.033244435576639059 0.009830636607148717 -0.027954749636838385 0.01691561007359052
leaf_count=5 30 21 156 77 22 381 5 1667 5 194 16 154 34 29 66
internal_value=0 -0.00547459 0.0512952 -0.0164737 -0.00827156 -0.015499 0.150843 -0.00145414 -0.00989117 -0.202042 -0.0545803 -0.181453 0.0772289 -0.0319419 0.130506
internal_count=2862 2832 306 2526 2295 2269 26 1888 1866 199 21 231 150 63 87
shrinkage=0.1


Tree=51
num_leaves=16
num_cat=0
split_feature=1 10 13 6 10 13 13 0 0 5 13 9 1 9 9
split_gain=2.3228 3.64501 3.16119 2.71147 4.32605 4.60778 4.11968 2.65364 2.69809 2.3664 2.14118 2.07675 6.96388 4.87882 4.76785
threshold=0.12108476054407666 0.42780000000000001 0.028250000000000001 0.12216791500000002 0.48780000000000007 0.036150000000000009 0.12275000000000001 0.029302557815136847 0.027774172827925051 0.033850979850000011 0.49440000000000006 0.71040000000000014 0.033136408287280067 0.70135000000000014 0.68365000000000009
decision_type=2 2 2 2 2 2 2 2 2 2 2 2 2 2 2
left_child=2 -2 -1 4 6 -6 -3 8 11 10 -9 13 -13 14 -4
right_child=1 3 7 -5 5 -7 -8 9 -10 -11 -12 12 -14 -15 -16
leaf_value=-0.028396568686783072 -0.033462352716085768 -0.012993801316404284 0.00098249841121440091 0.015627410952362791 0.0069505078806564287 -0.02600519183913487 0.030991923043030774 -0.032400498753405435 0.022504748689374715 -0.017640386858388733 0.028923376235995613 0.0015031226371535354 -0.024098196826190729 0.023001949515155395 -0.028084762419885414
leaf_count=84 18 25 1469 84 28 116 7 13 22 287 5 306 253 42 103
internal_value=0 0.060345 -0.0125836 0.0778299 0.00944141 -0.0875912 0.174552 -0.00798145 0.00112124 -0.125111 0.131941 -0.00409609 -0.0600515 0.0123492 -0.000501162
internal_count=2862 278 2584 260 176 144 32 2500 2195 305 18 2173 559 1614 1572
shrinkage=0.1


Tree=52
num_leaves=16
num_cat=0
split_feature=8 4 10 2 10 4 4 1 0 9 10 12 13 9 10
split_gain=2.41728 2.97272 4.33849 2.59754 2.5952 3.81839 3.22697 3.06492 3.28004 2.63149 3.21648 4.83085 4.43211 3.80511 4.90088
threshold=0.64585000000000015 1.3187549744798368 0.51155000000000006 197945.50000000003 0.75455000000000017 0.026988386449934752 10.373093323033512 0.033136408287280067 0.00088482102087477559 0.79810000000000014 0.65975000000000017 0.66435000000000011 0.10750000000000003 0.61680000000000013 0.59435000000000016
decision_type=2 2 2 2 2 2 2 2 2 2 2 2 2 2 2
left_child=1 2 -1 4 9 7 -7 8 -6 10 12 -12 -2 -14 -15
right_child=3 -3 -4 -5 5 6 -8 -9 -10 -11 11 -13 13 14 -16
leaf_value=-0.019964821785676986 -0.011959164057256819 0.016048308550937612 0.0092480776167648947 -0.011459820296456574 -0.0134632451058789 -0.025182976174039185 -0.0033783332789165121 -0.02173517960757354 0.025165417498746803 -0.021839578106683171 0.01805861335833317 -0.015292501834355113 0.0063455334872767159 -0.026241045651066178 0.0001416564781572658
leaf_count=60 402 75 69 354 11 410 93 17 6 66 127 110 580 145 337
internal_value=0 0.0702333 -0.00807496 -0.0115914 -0.00169697 -0.0739357 -0.142815 0.0613763 0.140943 0.0137529 0.0196703 0.117699 0.00210493 0.0250952 -0.0493522
internal_count=2862 204 129 2658 2304 537 503 34 17 1767 1701 237 1464 1062 482
shrinkage=0.1


Tree=53
num_leaves=16
num_cat=0
split_feature=8 4 10 9 8 4 4 6 9 13 8 9 10 13 9
split_gain=2.99395 2.94399 3.39695 2.41794 2.98038 2.77035 6.13599 4.29609 3.26601 3.36657 3.11307 2.6589 2.58109 4.07853 2.71435
threshold=0.64585000000000015 1.3187549744798368 0.51155000000000006 0.47785000000000005 0.81665000000000021 0.15652894856024197 1.9654240071531792 0.90828310730000017 0.69080000000000008 0.17655000000000004 0.96875000000000011 0.66930000000000012 0.86790000000000012 0.096650000000000014 0.80075000000000018
decision_type=2 2 2 2 2 2 2 2 2 2 2 2 2 2 2
left_child=1 2 -1 -2 -5 -6 7 -7 9 -8 -11 -12 13 -10 -14
right_child=3 -3 -4 4 5 6 8 -9 12 10 11 -13 14 -15 -16
leaf_value=-0.017586312146006852 0.0077265498810779295 0.016734648441835493 0.0088194788358045614 -0.024781612223363766 0.0021814759906303178 -0.02277684272166149 -0.0094809578482244732 0.0099674034040784232 0.010999123081629756 -0.018454691053704751 0.005447362724173687 0.025259261037576298 0.020909654171096068 -0.028090778787558487 -0.023673447809702826
leaf_count=60 189 75 69 79 529 985 235 29 25 49 272 30 19 180 37
internal_value=0 0.0787579 -0.00151595 -0.0130679 -0.023796 -0.0178305 -0.0499983 -0.174929 -0.00904336 0.0239836 0.0648266 0.0890035 -0.118534 -0.189341 0.0556301
internal_count=2862 204 129 2658 2469 2390 1861 1014 847 586 351 302 261 205 56
shrinkage=0.1


Tree=54
num_leaves=16
num_cat=0
split_feature=8 9 0 0 9 4 4 6 2 2 4 3 0 9 9
split_gain=2.51945 2.33697 3.14225 2.32825 2.1751 2.36508 5.67939 4.20121 2.94507 2.52287 2.50992 2.43034 2.42676 2.2619 3.47094
threshold=0.64585000000000015 0.54155000000000009 0.014951080102368638 0.1136954438283926 0.47785000000000005 0.15652894856024197 1.9654240071531792 0.90828310730000017 135612.50000000003 128209.00000000001 33.486712699992772 115293.00000000001 0.00055652378008422862 0.53445000000000009 0.54595000000000005
decision_type=2 2 2 2 2 2 2 2 2 2 2 2 2 2 2
left_child=1 2 -1 -4 -2 11 7 -7 -8 -9 -10 -6 -13 -14 -15
right_child=4 -3 3 -5 5 6 8 9 10 -11 -12 12 13 14 -16
leaf_value=-0.035033755241694296 0.0072751204932820935 0.014690485007963425 0.0099173903010007381 -0.018854994851006231 -0.029649631509315835 -0.022833190035792643 -0.017123615237607501 0.022635110548777343 0.0029563943156751009 -0.031191047128201178 -0.013937494640903797 -0.012022334569637326 -0.021123122776085898 0.020077309267413503 0.0021691694486289459
leaf_count=30 189 102 53 19 107 1018 344 10 425 19 101 70 31 25 319
internal_value=0 0.0729286 -0.00490339 0.0410879 -0.0121864 -0.0227291 -0.0530414 -0.174775 -0.0133248 0.0966829 0.00773182 0.0133799 0.0213334 0.0391646 0.0497438
internal_count=2862 204 102 72 2658 2469 1917 1047 870 29 526 552 445 375 344
shrinkage=0.1


Tree=55
num_leaves=16
num_cat=0
split_feature=0 9 9 4 2 10 1 1 4 2 12 4 2 11 12
split_gain=2.65785 1.53918 3.25606 2.7167 2.9189 2.09551 1.98124 4.00961 1.76324 5.71857 2.84043 3.84271 5.07704 4.49832 3.88761
threshold=0.15734882319304136 0.49135000000000006 0.52750000000000008 1.5991275444204032 142059.00000000003 0.45760000000000006 0.12648854324604372 0.0300210150109281 0.15652894856024197 105794.50000000001 0.60055000000000014 0.072620377858162097 11965.500000000002 0.62860000000000005 0.61825000000000008
decision_type=2 2 2 2 2 2 2 2 2 2 2 2 2 2 2
left_child=1 3 -3 4 6 -4 7 -1 10 -10 -7 12 13 -12 -15
right_child=-2 2 5 -5 -6 8 -8 -9 9 -11 11 -13 -14 14 -16
leaf_value=0.025506882353533405 0.016864861170868085 -0.01933199166385885 0.024410353371267898 0.013734856916487754 -0.026001479891273535 0.0065892578490940523 0.013688526176844433 -0.021985167578076781 -0.019021492672712897 -0.00053757827926536673 -0.014766991069977399 -0.036440995888991454 0.032948134094025777 -0.045839797079652661 0.013262552349587503
leaf_count=9 30 151 12 82 80 273 22 87 905 942 158 61 5 6 39
internal_value=0 -0.00572478 -0.0159435 0.0508477 -0.0262523 -0.00780357 0.0317229 -0.0774446 -0.0116615 -0.038438 0.0193461 -0.042664 -0.0143593 -0.0524313 0.0828372
internal_count=2862 2832 2552 280 198 2401 118 96 2389 1847 542 269 208 203 45
shrinkage=0.1


Tree=56
num_leaves=16
num_cat=0
split_feature=0 9 9 6 9 7 2 5 13 9 1 0 5 10 8
split_gain=2.2947 1.57588 2.16954 2.0517 2.33949 1.71487 3.78508 2.43687 2.11816 1.71378 4.71092 2.45486 2.36681 2.13179 2.09285
threshold=0.21290867847410314 0.49135000000000006 0.52750000000000008 0.09639928572500002 0.47340000000000004 0.49308247183050619 105794.50000000001 0.26674901150000008 0.19495000000000004 0.54595000000000005 0.034337730041871288 0.017288182479245139 0.30703332535000005 0.69400000000000006 0.64585000000000015
decision_type=2 2 2 2 2 2 2 2 2 2 2 2 2 2 2
left_child=1 3 -3 4 -1 6 -5 -7 -8 10 -4 12 -12 -13 -11
right_child=-2 2 9 5 -6 7 8 -9 -10 14 11 13 -14 -15 -16
leaf_value=-0.016588888327467383 0.017524079509399014 -0.016083422814240692 -0.019340446658039592 -0.023453449016702148 0.015240291872970947 0.02584595539393076 0.014066896734035939 -0.015387195113137278 -0.034845521215602977 0.0094674605948419921 0.02218055460750127 -0.024988100706209132 -0.033642177391172465 0.020231428204890881 -0.0029047091870018481
leaf_count=85 20 152 44 65 14 18 64 24 14 89 66 46 12 11 2138
internal_value=0 -0.00483931 -0.0153225 0.0522499 -0.0663718 0.0945897 0.0375787 0.194504 0.110147 -0.00862044 0.0675178 0.13708 0.194122 -0.072934 -0.0192043
internal_count=2862 2842 2558 284 99 185 143 42 78 2406 179 135 78 57 2227
shrinkage=0.1


Tree=57
num_leaves=16
num_cat=0
split_feature=0 5 2 4 10 11 6 4 3 5 5 13 2 1 13
split_gain=2.04423 1.80988 1.43318 2.51637 2.46849 3.23325 2.36865 1.86631 4.73783 3.06941 3.84917 6.99307 3.02164 1.7754 1.69
threshold=0.15734882319304136 0.057592116605000007 184261.00000000003 1.262744091973093 0.48780000000000007 0.53270000000000006 0.24671745040000001 8.1533655023323686 20595.500000000004 0.12607263790000003 0.067795626470000009 0.10325000000000002 175411.00000000003 0.08326661662663265 0.11205000000000001
decision_type=2 2 2 2 2 2 2 2 2 2 2 2 2 2 2
left_child=2 -2 7 -4 -5 -6 -7 8 -1 10 -9 12 13 -12 -11
right_child=1 -3 3 4 5 6 -8 9 -10 14 11 -13 -14 -15 -16
leaf_value=-0.025409726839565445 -0.028152275465813809 0.020134050205356187 -0.028987335760381785 0.01637117227544109 -0.023554089170571987 -0.012349585539717137 0.01166169950892313 0.011213009547661593 -6.5052031134560316e-05 -0.0046598382504718146 0.021127972671060112 -0.029536154859584458 -0.034302568051168873 -0.032754459259263478 0.019204951301481636
leaf_count=502 5 25 154 25 139 136 66 69 1496 32 24 95 16 14 64
internal_value=0 0.152382 -0.00507686 -0.0650571 -0.032583 -0.0743381 0.006425 0.00426698 -0.0124463 0.0547365 -0.00333354 -0.100523 0.0921938 0.166345 0.150766
internal_count=2862 30 2832 520 366 341 202 2312 1998 314 218 149 54 38 96
shrinkage=0.1


Tree=58
num_leaves=16
num_cat=0
split_feature=1 0 6 1 0 9 13 10 7 13 1 6 1 1 1
split_gain=1.83869 2.35289 2.2904 1.66317 1.65674 1.54089 2.50188 2.47459 1.63346 1.60768 1.51918 2.58806 3.95571 2.37882 2.50018
threshold=0.12409928439546213 0.037239686527724226 0.12216791500000002 0.11310179274550773 0.084208943848609233 0.49135000000000006 0.12275000000000001 0.70430000000000015 0.083678386236370444 0.17925000000000005 0.091882695345465573 0.050262852335000004 0.10038028823299987 0.052952921362270602 0.05094073461093674
decision_type=2 2 2 2 2 2 2 2 2 2 2 2 2 2 2
left_child=1 3 5 10 -3 6 7 -2 -7 -8 13 -12 -13 14 -1
right_child=2 4 -4 -5 -6 8 9 -9 -10 -11 11 12 -14 -15 -16
leaf_value=-0.00083770549691451117 -0.01627467170071888 -0.024744697853649661 0.014389617190800126 -0.032389590435727686 0.0043170817374420627 0.0068234318307316289 0.029661594798499304 0.022546300320249263 -0.020600935069028031 -0.031319968419239418 0.027624937843454753 0.012569886563093782 -0.026634506407212523 -0.013867083270524086 0.017851727773861705
leaf_count=1849 41 216 76 45 33 42 5 5 76 6 9 70 90 269 30
internal_value=0 -0.0115601 0.0616903 -0.00447406 -0.164478 -0.00678377 0.0641117 -0.0472823 -0.104693 0.238548 -0.00196501 0.087397 0.00870538 -0.0102214 -0.000396161
internal_count=2862 2611 251 2362 249 175 57 46 118 11 2317 169 160 2148 1879
shrinkage=0.1


Tree=59
num_leaves=16
num_cat=0
split_feature=0 9 1 6 8 8 12 5 1 1 0 5 0 11 6
split_gain=1.75236 1.60202 2.95185 2.21509 1.84218 3.40337 2.60461 3.36871 3.44289 3.06899 3.31409 2.71759 2.60116 2.57723 2.56648
threshold=0.21290867847410314 0.58400000000000007 0.028439820305177953 0.33266211420000008 0.64585000000000015 0.96875000000000011 0.59815000000000007 0.10765939725000001 0.05094073461093674 0.032422696211802347 0.015377024543179607 0.10139280220000001 0.036540847177489282 0.62860000000000005 0.32269361140000002
decision_type=2 2 2 2 2 2 2 2 2 2 2 2 2 2 2
left_child=1 2 -1 -4 -3 -6 7 8 -7 -9 -11 14 -12 -13 -8
right_child=-2 4 3 -5 5 6 11 9 -10 10 12 13 -14 -15 -16
leaf_value=-0.020240076183302216 0.016312318024989836 0.0094480291138409871 0.0025494274208961703 0.023050546659351745 -0.016427071225044144 -0.024958240965670717 0.008304360809748763 0.013817398258562317 0.0069484240717866616 -0.015098685827314086 0.020008862057247126 -0.019164683901415812 -0.030764960756535304 -0.0011299667772624977 -0.028585450778949046
leaf_count=66 20 71 929 16 331 130 105 195 70 226 59 423 49 138 34
internal_value=0 -0.00425138 0.0245937 0.0366281 -0.0268037 -0.0377936 -0.0165596 0.0287151 -0.108454 0.0706756 -0.0307732 -0.0695778 0.123188 -0.121622 0.034897
internal_count=2862 2842 1011 945 1831 1760 1429 729 200 529 334 700 108 561 139
shrinkage=0.1


Tree=60
num_leaves=16
num_cat=0
split_feature=0 6 1 9 5 10 13 9 6 7 12 13 13 8 2
split_gain=1.60729 1.3953 1.3849 1.31314 2.13528 2.15502 2.25603 3.8185 2.86259 2.23418 1.87424 1.8014 2.89513 2.32551 1.83309
threshold=0.21290867847410314 0.10765939725000001 0.018631674032489252 0.58400000000000007 0.30703332535000005 0.63140000000000007 0.10750000000000003 0.57205000000000017 0.081250183295000014 0.32522412630611514 0.43200000000000005 0.12490000000000001 0.14345000000000002 0.84520000000000006 22859.500000000004
decision_type=2 2 2 2 2 2 2 2 2 2 2 2 2 2 2
left_child=2 -2 -1 4 5 6 8 11 -4 -10 -11 13 -13 -8 -15
right_child=1 -3 3 -5 -6 -7 7 -9 9 10 -12 12 -14 14 -16
leaf_value=-0.030786264717863811 -0.018491516128652383 0.02245200433888573 -0.025319736087572139 -0.0023083022437576303 -0.01721743730281294 0.012781233991475752 -0.034284694705281331 -0.018812430250428565 -0.013166637581588281 -0.02010706587456669 0.015294064792125526 -0.023455442740159201 0.0071516998110976258 -0.029951642323910663 0.028367415327445779
leaf_count=48 7 13 118 1791 78 169 13 90 131 25 54 33 255 9 28
internal_value=0 0.159041 -0.00408685 -0.00219587 0.0240432 0.0342907 0.0114584 0.0462318 -0.0685207 -0.0054626 0.0911454 0.0750509 0.0463207 0.199589 0.245017
internal_count=2862 20 2842 2794 1003 925 756 428 328 210 79 338 288 50 37
shrinkage=0.1


Tree=61
num_leaves=16
num_cat=0
split_feature=1 1 7 5 1 9 3 9 10 10 13 4 4 10 1
split_gain=1.57362 2.69066 2.18071 2.98965 2.09574 3.67591 1.94464 1.92836 1.73008 2.22022 1.81596 2.16795 1.70615 1.62958 1.53421
threshold=0.091882695345465573 0.052952921362270602 8.3141181009748255 0.12855163655000001 0.05094073461093674 0.67060000000000008 194170.00000000003 0.88775000000000015 0.62170000000000014 0.50095000000000012 0.12275000000000001 2.9315085949785806 0.12599576566075679 0.42780000000000001 0.12648854324604372
decision_type=2 2 2 2 2 2 2 2 2 2 2 2 2 2 2
left_child=1 4 3 8 7 -6 12 -1 9 10 11 -2 -4 -12 -5
right_child=2 -3 6 14 5 -7 -8 -9 -10 -11 13 -13 -14 -15 -16
leaf_value=-0.00068164138224523685 -0.023688419092760999 -0.014183344617361369 0.026251583502636785 -0.023670450686777457 0.026758074142546384 -0.0360387713751575 -0.03334793285872717 -0.033181740805292376 0.012756639863607019 -0.014264654198694098 -0.031956182183598913 0.012535694912635962 -0.028737710991304195 0.025688410006572782 -0.0017918549321889077
leaf_count=1832 45 330 16 165 18 12 6 26 160 149 8 20 18 14 43
internal_value=0 -0.0148056 0.0434329 0.0185041 -0.00319928 0.167037 0.184045 -0.0105612 0.061575 -0.00430519 0.0762851 -0.0365828 0.224154 0.204144 -0.112851
internal_count=2862 2218 644 604 1888 30 40 1858 396 236 87 65 34 22 208
shrinkage=0.1


Tree=62
num_leaves=16
num_cat=0
split_feature=1 0 7 1 1 3 7 3 7 0 10 1 1 9 9
split_gain=1.64144 1.90478 1.76135 1.51526 1.84259 1.78708 3.95638 1.91394 1.6463 1.45357 1.43527 1.36493 2.12763 2.70878 1.53134
threshold=0.12409928439546213 0.037239686527724226 0.65212687801254188 0.11310179274550773 0.091882695345465573 10589.000000000002 8.3141181009748255 194170.00000000003 55.915600365720984 0.084208943848609233 0.42780000000000001 0.052952921362270602 0.05094073461093674 0.67060000000000008 0.60155000000000014
decision_type=2 2 2 2 2 2 2 2 2 2 2 2 2 2 2
left_child=1 3 10 4 8 -6 -7 -8 11 -3 -2 12 14 -14 -1
right_child=2 9 -4 -5 5 6 7 -9 -10 -11 -12 -13 13 -15 -16
leaf_value=0.0026052837226074581 -0.025182936579856624 -0.024182796432726736 -0.013396103510624187 -0.032399836037277689 0.033699153989045424 -0.015057169765427087 0.023856477239755643 -0.033223542815860235 -0.026718527723216503 0.0045230355313574363 0.0099991679212685682 -0.01118559061340314 0.026350893048542587 -0.035847229431095473 -0.0036466834788368022
leaf_count=679 16 216 43 45 5 136 22 6 70 33 192 258 14 10 1117
internal_value=0 -0.0109942 0.0620231 -0.00463639 -0.00221528 0.0990724 0.0533889 0.194018 -0.0115685 -0.157516 0.0868189 -0.00795136 -0.000469193 0.182011 -0.0075884
internal_count=2862 2611 251 2362 2317 169 164 28 2148 249 208 2078 1820 24 1796
shrinkage=0.1


Tree=63
num_leaves=16
num_cat=0
split_feature=9 10 10 0 0 0 10 3 0 9 9 1 13 13 8
split_gain=1.79618 2.21039 2.25195 2.75759 4.71467 2.95647 2.4789 3.29527 2.37091 2.04748 2.57661 1.72589 1.72026 2.96684 2.58227
threshold=0.8711500000000002 0.88190000000000002 0.75455000000000017 0.00080750822906943949 0.00094320037513132276 0.018371490635136978 0.66350000000000009 205071.50000000003 0.031652318356003517 0.75395000000000012 0.7492000000000002 0.023418735926240431 0.10750000000000003 0.12490000000000001 0.8660500000000001
decision_type=2 2 2 2 2 2 2 2 2 2 2 2 2 2 2
left_child=1 2 6 -4 -5 -6 9 11 -7 10 12 -8 14 -14 -1
right_child=-2 -3 3 4 5 8 7 -9 -10 -11 -12 -13 13 -15 -16
leaf_value=-0.00056961841178144047 -0.019774917270814107 0.014696109422167215 -0.0355444322547201 0.025885574291454695 -0.020648502262269195 0.01935592729016548 -0.033049929092502449 -0.030025943897255204 -0.015016220206800386 -0.020733232627309226 0.027544598183968233 0.012872431052044084 0.017640181401934959 -0.00036526525929236582 -0.019187449009140094
leaf_count=227 50 70 46 10 344 44 22 26 64 124 10 278 74 1196 277
internal_value=0 0.00383004 -0.00280789 -0.0861902 -0.0499643 -0.11123 0.00933916 0.0895723 0.0380345 -0.00658128 -0.000282988 0.115879 -0.00623472 0.0112105 -0.0703957
internal_count=2862 2812 2742 508 462 452 2234 326 108 1908 1784 300 1774 1270 504
shrinkage=0.1


Tree=64
num_leaves=16
num_cat=0
split_feature=9 10 10 1 12 10 10 2 2 4 3 13 4 13 12
split_gain=2.28232 2.46875 1.77176 3.70324 2.53115 1.50287 2.22003 1.94961 1.85728 2.05281 3.74364 2.18023 4.0558 2.85295 3.37808
threshold=0.8711500000000002 0.88190000000000002 0.82960000000000023 0.099689721747367885 0.67135000000000011 0.8207500000000002 0.76855000000000007 207049.00000000003 184261.00000000003 3.6550744081769557 50793.500000000007 0.52550000000000008 0.068034196788356496 0.50645000000000007 0.59165000000000012
decision_type=2 2 2 2 2 2 2 2 2 2 2 2 2 2 2
left_child=1 2 5 4 -4 6 8 -8 9 10 -1 13 -13 14 -12
right_child=-2 -3 3 -5 -6 -7 7 -9 -10 -11 11 12 -14 -15 -16
leaf_value=-0.021930954221635632 -0.024015427451853744 0.015390943765722136 -0.032076249142746933 0.027790841427210496 0.011826147076959592 0.01872599259217218 -0.020123282197213242 0.02563984658970981 -0.0068495992491930772 0.0072111466328396469 -0.002314162899804652 -0.00011218272441830101 -0.032556172042616259 0.030782153816662383 0.011192567600922227
leaf_count=409 50 70 177 7 16 40 198 6 480 371 601 85 136 14 202
internal_value=0 0.00407619 -0.00311082 -0.135497 -0.228202 0.0030069 -0.000893887 -0.150557 0.00635027 0.0190554 -0.00411744 0.0108524 -0.0816017 0.0325561 0.0207779
internal_count=2862 2812 2742 200 193 2542 2502 204 2298 1818 1447 1038 221 817 803
shrinkage=0.1


Tree=65
num_leaves=16
num_cat=0
split_feature=1 7 13 12 4 7 13 3 10 9 4 3 12 12 13
split_gain=1.54143 2.01145 1.74411 1.52269 2.04672 1.51953 2.68867 2.81994 2.30995 2.64871 2.1933 3.20662 3.14461 3.36998 3.74051
threshold=0.12409928439546213 0.65212687801254188 0.028250000000000001 0.49240000000000006 1.919651029673521 8.3141181009748255 0.32190000000000002 173219.50000000003 0.75520000000000009 0.77340000000000009 4.7472598131455603 92735.000000000015 0.60435000000000005 0.59165000000000012 0.45785000000000003
decision_type=2 2 2 2 2 2 2 2 2 2 2 2 2 2 2
left_child=2 3 -1 4 -2 10 7 -7 -9 -10 11 -4 13 14 -13
right_child=1 -3 5 -5 -6 6 -8 8 9 -11 -12 12 -14 -15 -16
leaf_value=-0.02556008117039979 -0.013940057971474962 -0.015421181022285983 -0.021146587520678266 0.013648089710137375 0.013740319441559882 -0.022833560040012628 -0.0059063682203223562 0.023154998811440244 -0.033988196235364497 0.011464622725286026 0.002103635795562967 -0.0076786725514883568 -0.013083094666492649 0.020105781755849823 0.013888932495805938
leaf_count=84 78 43 734 106 24 45 191 38 18 8 609 451 343 38 52
internal_value=0 0.0604689 -0.0112395 0.0868259 -0.0100282 -0.00750752 0.0503686 0.117572 0.153564 0.00918543 -0.021445 -0.0554531 -0.0310766 0.0121519 -0.0229127
internal_count=2862 251 2611 208 102 2527 300 109 64 26 2227 1618 884 541 503
shrinkage=0.1


Tree=66
num_leaves=16
num_cat=0
split_feature=1 7 4 4 0 3 5 12 12 12 6 7 6 13 7
split_gain=1.35651 1.61804 2.35986 2.21618 3.10937 2.69825 2.63431 2.55209 3.72012 2.85447 2.6578 2.57453 2.45438 2.36547 2.32608
threshold=0.12409928439546213 8.3141181009748255 0.12599576566075679 4.7472598131455603 0.0069870629798837978 92735.000000000015 0.13335932000000003 0.59430000000000016 0.59165000000000012 0.57055000000000011 0.074220883130000012 0.15910328463486226 0.35146694560000008 0.098600000000000007 0.036007987698342611
decision_type=2 2 2 2 2 2 2 2 2 2 2 2 2 2 2
left_child=1 3 -3 4 5 -1 12 8 9 10 -7 -12 -5 -8 -9
right_child=-2 2 -4 6 -6 7 13 14 -10 -11 11 -13 -14 -15 -16
leaf_value=-0.027234590575857809 0.005775374616724803 0.0070592843982391976 -0.02618513437350355 -0.00027718836655954665 -0.017064586925120577 -0.02678237159047353 -0.02688163127244534 0.033154526205932983 0.028065821132173638 -0.030781610565190867 -0.026092531881003352 0.0082470424748780809 -0.026509796083212203 0.013798742385679208 -0.012601304929223196
leaf_count=396 251 150 155 409 767 28 27 16 8 40 43 159 66 120 227
internal_value=0 -0.010581 0.0495961 -0.0249129 -0.0591649 -0.0259923 0.0177886 -0.00908946 0.0373339 -0.000790008 0.0260256 0.0543918 -0.0250587 0.108949 -0.0997494
internal_count=2862 2611 305 2306 1684 917 622 521 278 270 230 202 475 147 243
shrinkage=0.1


Tree=67
num_leaves=16
num_cat=0
split_feature=9 10 10 1 12 4 4 9 10 9 9 9 7 13 10
split_gain=1.3646 1.65549 1.47937 3.12924 2.39986 1.32667 2.48091 1.54249 1.43229 1.39889 1.84193 1.76769 1.81603 2.24588 2.96765
threshold=0.8711500000000002 0.88190000000000002 0.82960000000000023 0.099689721747367885 0.67135000000000011 33.486712699992772 28.305746199514569 0.79810000000000014 0.59435000000000016 0.78705000000000014 0.75395000000000012 0.7492000000000002 8.3141181009748255 0.36245000000000011 0.75520000000000009
decision_type=2 2 2 2 2 2 2 2 2 2 2 2 2 2 2
left_child=1 2 5 4 -4 6 7 9 -7 10 11 12 -1 14 -14
right_child=-2 -3 3 -5 -6 8 -8 -9 -10 -11 -12 -13 13 -15 -16
leaf_value=-0.0015321496396961578 -0.020213209655604757 0.013081743794235354 -0.031759466081393024 0.027276180423159765 0.012285106649166065 -0.033497820963624428 0.015221554702927681 -0.022694107403150979 -0.0031349435594751961 0.023223073714712879 -0.02581218133675714 0.025011497095327413 0.018241809214876184 -0.0052812738386547649 -0.031248818490968628
leaf_count=1993 50 70 177 7 16 26 56 71 56 18 84 12 79 129 18
internal_value=0 0.00312358 -0.00296755 -0.1304 -0.219421 0.00274693 0.00779274 -0.0013719 -0.13248 0.00250784 -0.00100651 0.00319114 -0.00107207 0.0761343 0.143854
internal_count=2862 2812 2742 200 193 2542 2460 2404 82 2333 2315 2231 2219 226 97
shrinkage=0.1


Tree=68
num_leaves=16
num_cat=0
split_feature=0 5 13 13 13 10 12 8 4 0 5 10 0 0 0
split_gain=1.25615 1.26982 1.09621 1.26499 1.36933 1.72554 1.5937 1.49114 1.30837 2.19986 2.01463 1.34275 1.75813 1.27349 1.72611
threshold=0.15734882319304136 0.057592116605000007 0.019050000000000001 0.045700000000000011 0.071850000000000011 0.48780000000000007 0.45975000000000005 0.73215000000000019 0.27886622366427377 0.0055158276121772048 0.12855163655000001 0.69400000000000006 0.01766051947631693 0.029302557815136847 0.068632531195706822
decision_type=2 2 2 2 2 2 2 2 2 2 2 2 2 2 2
left_child=2 -2 -1 8 7 6 -6 -5 9 -4 11 12 -10 -7 -15
right_child=1 -3 3 4 5 13 -8 -9 10 -11 -12 -13 -14 14 -16
leaf_value=-0.017458208813525281 -0.026475828697623618 0.019014665961071878 -0.020456781153988191 0.0019385539086234406 0.0013163658104870695 -0.0003780105423512284 0.020308199594185991 -0.020717030418218919 0.013804551264262797 0.023527950236604145 -0.026705770036867596 0.019766551311582475 -0.023532985033868407 -0.020112064814600462 0.001660034695117843
leaf_count=57 5 25 21 50 104 1870 33 199 26 20 70 27 55 215 85
internal_value=0 0.139823 -0.00422036 -0.00110631 -0.00941934 -0.00217364 0.08931 -0.112875 0.0738829 0.166884 0.00441049 0.0684341 -0.0423435 -0.0132223 -0.101768
internal_count=2862 30 2832 2775 2556 2307 137 249 219 41 178 108 81 2170 300
shrinkage=0.1


Tree=69
num_leaves=16
num_cat=0
split_feature=8 4 10 8 1 2 9 9 7 4 12 1 3 7 0
split_gain=1.24526 1.5481 1.78217 1.41382 1.40745 1.29991 1.28112 2.12069 1.67753 2.08866 1.78282 1.69109 2.05612 1.88425 1.59779
threshold=0.73215000000000019 1.3187549744798368 0.51155000000000006 0.81665000000000021 0.22175523088072222 100579.00000000001 0.54595000000000005 0.5394000000000001 0.48794216040792449 2.1503543137775698 0.49775000000000008 0.035431889054787377 183118.50000000003 16.577729777118414 0.0010662057149850091
decision_type=2 2 2 2 2 2 2 2 2 2 2 2 2 2 2
left_child=1 2 4 -2 -1 -3 7 8 9 14 -10 13 -13 -12 -5
right_child=3 5 -4 6 -6 -7 -8 -9 10 -11 11 12 -14 -15 -16
leaf_value=-0.032320301173377392 -0.023180624145300706 -0.026871367620780337 0.0069252867792475017 0.0097730460087795245 0.0005744298510885358 0.015542610266982119 -0.0021924819431698756 0.019220427214428241 0.016411554025508999 0.0030106394646337376 -0.025601342984245219 0.017302365020521873 -0.031335300943240628 0.021230035111358406 -0.028135681198479486
leaf_count=52 81 19 71 5 9 63 2081 50 60 89 41 34 19 8 180
internal_value=0 0.0603764 -0.0119034 -0.009853 -0.160785 0.133307 -0.00631337 0.0400149 0.00880329 -0.069322 0.0667622 -0.0193399 0.0912472 -0.154827 -0.202455
internal_count=2862 214 132 2648 61 82 2567 486 436 274 162 102 53 49 185
shrinkage=0.1


Tree=70
num_leaves=16
num_cat=0
split_feature=0 1 7 4 9 13 7 3 7 13 1 4 4 3 7
split_gain=1.19239 1.03251 0.957225 2.11699 1.82723 1.75053 2.43736 2.00148 1.48126 2.69736 2.01268 1.44767 3.32746 3.37414 3.0518
threshold=0.21290867847410314 0.018631674032489252 8.3141181009748255 0.12599576566075679 0.88775000000000015 0.36345000000000005 41.40822970207217 173219.50000000003 9.6440762064922918 0.11565000000000002 0.031027925443457876 1.919651029673521 0.61219677923469662 115293.00000000001 0.0032700314184544712
decision_type=2 2 2 2 2 2 2 2 2 2 2 2 2 2 2
left_child=1 -1 11 4 5 7 -7 -4 -9 -10 -11 12 13 -3 -14
right_child=-2 2 3 -5 -6 6 -8 8 9 10 -12 -13 14 -15 -16
leaf_value=-0.030432818273534307 0.015703389147017049 -0.027198977596588559 -0.023116355080044448 -0.026041080322153645 -0.036559770216169976 -0.015889174194628274 0.015690782105267927 0.028374339169615181 -0.026817213695473404 -0.038036204543160597 0.019159358414527469 0.001807374876404816 0.010854745051797291 0.0010956502415884325 -0.022534408302860191
leaf_count=48 20 355 19 153 5 45 18 12 25 5 21 925 51 500 660
internal_value=0 -0.00369325 -0.00198351 0.0468405 0.0674486 0.0809154 -0.0270567 0.134269 0.161199 0.0973853 0.156625 -0.0117992 -0.0409394 -0.00833405 -0.162165
internal_count=2862 2842 2794 303 150 145 63 82 63 51 26 2491 1566 855 711
shrinkage=0.1


Tree=71
num_leaves=16
num_cat=0
split_feature=9 7 13 3 4 3 2 5 1 13 11 2 13 1 2
split_gain=1.22911 1.22377 2.24258 2.00462 1.71933 2.8392 2.69438 1.99736 2.02118 2.88695 2.72299 1.97697 1.96153 1.92515 2.21009
threshold=0.8711500000000002 8.3141181009748255 0.32190000000000002 173219.50000000003 1.9654240071531792 92735.000000000015 142059.00000000003 0.12216791500000002 0.0300210150109281 0.45785000000000003 0.56640000000000013 20595.500000000004 0.38805000000000006 0.13978387032219333 74438.000000000015
decision_type=2 2 2 2 2 2 2 2 2 2 2 2 2 2 2
left_child=1 4 3 -3 5 -1 7 12 9 11 -10 -9 -7 14 -6
right_child=-2 2 -4 -5 13 6 -8 8 10 -11 -12 -13 -14 -15 -16
leaf_value=-0.025532275874673157 -0.019551598743998398 -0.020457051546496022 -0.004148281360546356 0.016747337050969327 -0.025811379861745084 0.011639343127972475 -0.016428512824850354 -0.019422747397820558 -0.021732837744089285 0.019225630541882831 -0.0016702420432132801 0.010224112323025288 -0.027854557593102985 0.016810020394615391 0.0019646578219087571
leaf_count=544 50 40 190 65 219 142 388 71 176 19 199 19 45 36 659
internal_value=0 0.00312539 0.0618787 0.134038 -0.00739545 -0.0393236 -0.0237018 0.000723342 -0.0335151 0.053359 -0.0819716 -0.067541 0.0879858 0.0246751 0.00865161
internal_count=2862 2812 295 105 2517 1603 1059 671 484 109 375 90 187 914 878
shrinkage=0.1


Tree=72
num_leaves=16
num_cat=0
split_feature=9 7 7 13 1 1 6 9 0 4 2 3 0 2 5
split_gain=1.36232 1.32443 2.27965 2.76743 1.79135 2.11381 1.80046 1.85757 1.63507 1.60308 2.39234 3.13784 1.86168 2.09795 2.25127
threshold=0.8711500000000002 8.3141181009748255 9.6440762064922918 0.37585000000000007 0.027733244287737886 0.033323444245856745 0.057592116605000007 0.71040000000000014 0.014793977199090038 1.919651029673521 142059.00000000003 100579.00000000001 0.076511067055955714 115293.00000000001 0.13335932000000003
decision_type=2 2 2 2 2 2 2 2 2 2 2 2 2 2 2
left_child=1 9 3 -3 -4 6 7 -6 -7 10 11 -1 13 -11 -15
right_child=-2 2 4 -5 5 8 -8 -9 -10 12 -12 -13 -14 14 -16
leaf_value=-0.023051892588560552 -0.02016904542582635 0.027197967760160997 -0.023142891033856652 -0.038472576619557768 -0.0300875145064829 -0.011619410099858181 0.026126363745640153 0.025389028368541584 0.014847068990575278 -0.018467682518289091 -0.017453659131321901 0.00032213867579313003 0.013170503769910242 -0.0020796705953954522 0.010730868086116861
leaf_count=566 50 21 71 12 7 116 21 5 42 303 387 640 86 424 111
internal_value=0 0.00339555 0.0641473 0.212142 0.0133483 0.0457673 0.166746 -0.0607071 -0.0418847 -0.00774833 -0.0391056 -0.0175847 0.0231778 0.00256634 0.0185858
internal_count=2862 2812 295 33 262 191 33 12 158 2517 1593 1206 924 838 535
shrinkage=0.1


Tree=73
num_leaves=16
