tree
version=v2
num_class=1
num_tree_per_iteration=1
label_index=0
max_feature_idx=13
objective=lambdarank
feature_names=Column_0 Column_1 Column_2 Column_3 Column_4 Column_5 Column_6 Column_7 Column_8 Column_9 Column_10 Column_11 Column_12 Column_13
feature_infos=[4.3251875634222218e-05:0.18988547396267541] [0.0047161030096183679:0.27096335660878701] [3317:214111] [3317:214111] [0.015491964448346886:64.54959300572807] [0.017032063752969933:0.94998301496263293] [0.017032063752969933:0.94998301496263293] [1.1870853535025485e-09:3000.4270736553231] [0.125:1] [0:0.92000000000000004] [0:1] [0:1] [0:0.70279999999999998] [0:1]
tree_sizes=1347 1343 1349 1341 1347 1338

Tree=0
num_leaves=16
num_cat=0
split_feature=1 0 5 4 1 3 3 1 2 7 4 5 1 4 6
split_gain=29.7416 20.9554 8.76063 10.6005 6.23358 5.99154 5.48788 5.24854 4.51551 4.31583 6.98429 4.93957 4.75652 4.12484 3.88765
threshold=0.049440559586724872 0.0017150247706009555 0.09695096852271691 0.15652894856024197 0.0085397309063204949 100579.00000000001 115293.00000000001 0.073783924873784004 105794.50000000001 0.5778672510263293 0.14704736480936906 0.051478600591620828 0.012216194452220412 0.031111787562227728 0.4839581778408687
decision_type=2 2 2 2 2 2 2 2 2 2 2 2 2 2 2
left_child=1 4 5 6 8 -3 -4 -2 -1 -6 12 -12 -11 -8 -5
right_child=7 2 3 14 9 -7 13 -9 -10 10 11 -13 -14 -15 -16
leaf_value=-0.033918663962086225 0.0167437993508695 0.015965993754998433 -0.049137501400904143 -0.043606141094193807 0.024330133021758613 -0.027484732768752958 -0.031531799344804379 0.046117476605569599 0.017788704425912183 0.028504384090551328 0.028281728414692165 -0.043889186784617736 -0.019701405538030015 0.012029278749807387 -0.00026808226456451456
leaf_count=226 240 264 68 835 216 221 33 58 62 93 16 166 59 158 41
internal_value=0 -0.076988 -0.205962 -0.279197 0.0871286 0.00982466 -0.0655378 0.313226 -0.171085 0.142542 0.0231231 -0.273117 0.166759 0.0210974 -0.39907
internal_count=2756 2458 1620 1135 838 485 259 298 288 550 334 182 152 191 876
shrinkage=0.1


Tree=1
num_leaves=16
num_cat=0
split_feature=1 0 8 5 2 2 3 6 5 6 4 1 4 12 12
split_gain=1677.36 724.754 522.579 467.576 281.764 603.269 798.981 249.761 297.862 186.64 158.924 165.722 199.191 152.895 147.154
threshold=0.073783924873784004 0.0019599222180971564 0.70715000000000006 0.20334608381313682 183118.50000000003 142059.00000000003 115293.00000000001 0.31697542618930957 0.1540071165945828 0.66824636590960973 0.07312263536448399 0.051558179835495557 3.1544377236551946 0.47525000000000006 0.66435000000000011
decision_type=2 2 2 2 2 2 2 2 2 2 2 2 2 2 2
left_child=1 4 -3 -2 5 6 -1 14 -9 10 -4 -12 -13 -7 -6
right_child=3 2 9 -5 7 13 -8 8 -10 -11 11 12 -14 -15 -16
leaf_value=-0.039384104342010721 0.038704801570003333 0.01338918603349034 -0.00057057819227534785 -0.048950114105314406 -0.04434911269080203 -0.021265452686158239 0.011017222823274976 -0.044519253986922441 0.034916006342829216 0.022119951412386596 -0.034492162950055409 -0.028716404972630852 0.019834147691877566 0.033413547312088558 -0.0044959716025164929
leaf_count=333 48 142 113 10 134 9 292 39 19 45 1322 116 26 81 27
internal_value=0 -0.0722495 -0.19381 0.339954 0.0336071 0.0834297 -0.0343905 -0.154243 0.112428 -0.254638 -0.272376 -0.300333 -0.107705 0.298614 -0.302649
internal_count=2756 2698 1764 58 934 715 625 219 58 1622 1577 1464 142 90 161
shrinkage=0.1


Tree=2
num_leaves=16
num_cat=0
split_feature=1 0 8 9 1 1 5 5 2 11 4 4 4 2 0
split_gain=887.941 325.245 341.309 230.651 215.005 192.885 157.767 150.179 111.517 103.854 161.834 108.232 195.236 100.613 100.309
threshold=0.073783924873784004 0.0019599222180971564 0.58570000000000011 0.43500000000000005 0.049843531885744564 0.0090486832804324169 0.66824636590960973 0.07784884874776922 142059.00000000003 0.28375000000000006 0.027598731221636093 6.8889082363741601 0.12860352835922401 23416.000000000004 0.029395734849930539
decision_type=2 2 2 2 2 2 2 2 2 2 2 2 2 2 2
left_child=1 5 -3 7 -5 8 9 -4 -1 10 -7 12 -11 -2 -6
right_child=13 2 3 4 14 6 -8 -9 -10 11 -12 -13 -14 -15 -16
leaf_value=-0.033964915259572452 -0.013659548977157732 0.013312512444019577 0.036965300070188667 -0.030347592790406004 0.010683990182941026 0.031092194563671002 -0.039013670347846752 -0.042016715257119266 0.0011877695577808915 0.010163392547605701 -0.02539701483097791 0.022971640452851549 -0.044537205739527935 0.036478975685261504 -0.025074931929246359
leaf_count=260 15 128 23 1386 90 10 89 49 64 168 115 133 95 43 88
internal_value=0 -0.0552721 -0.145156 -0.205307 -0.240208 0.0323032 0.0762872 0.188849 -0.177241 0.0958422 -0.0926398 0.129033 0.0528776 0.333534 -0.0195731
internal_count=2756 2698 1764 1636 1564 934 610 72 324 521 125 396 263 58 178
shrinkage=0.1


Tree=3
num_leaves=16
num_cat=0
split_feature=8 1 0 4 9 5 3 5 10 2 7 12 6 7 9
split_gain=574.747 264.416 428.67 257.366 219.402 131.424 233.853 144.618 160.399 132.157 121.186 119.903 107.481 115.486 88.2528
threshold=0.51665000000000016 0.061502459103056295 0.0019599222180971564 1.9474709214659673 0.48500000000000004 0.16217379476095545 115293.00000000001 0.12847706258482841 0.65000000000000002 175411.00000000003 2.9270881181837223 0.43125000000000008 0.34281263486567842 0.11318092511815904 0.69500000000000006
decision_type=2 2 2 2 2 2 2 2 2 2 2 2 2 2 2
left_child=-1 2 5 -3 11 7 -7 9 -9 12 -8 -4 13 -2 -12
right_child=1 3 4 -5 -6 6 10 8 -10 -11 14 -13 -14 -15 -16
leaf_value=0.027140414222990902 -0.036633705314859856 -0.024130539562428693 -0.041235365059754281 0.040677239656379094 -0.028265023685258468 -0.040713699375037139 -0.016209127836779923 0.034132513991069459 -0.021503978146736616 -0.02751758470769285 -0.005535494952279927 0.022183475569946251 -0.040688263182569059 0.021691585197543908 0.025715631231643915
leaf_count=140 33 64 60 18 1470 291 113 46 25 128 80 84 46 90 68
internal_value=0 -0.055203 -0.0847715 0.225322 -0.226536 0.0200837 -0.0750813 0.103393 0.250691 -0.00768183 0.0159329 0.0923496 0.0903613 0.148978 0.128019
internal_count=2756 2616 2534 82 1614 920 552 368 71 297 261 144 169 123 148
shrinkage=0.1


Tree=4
num_leaves=16
num_cat=0
split_feature=8 9 4 4 4 4 4 7 1 7 11 9 8 1 12
split_gain=442.782 215.215 195.674 197.033 155.618 127.471 200.521 119.884 115.708 90.9618 94.2212 87.6767 117.747 73.7923 73.4549
threshold=0.44950000000000007 0.55500000000000016 0.027598731221636093 3.8830345674169036 0.12860352835922401 1.6067538474584173 0.31125618735128585 0.67565511245784793 0.012148091465961844 0.47204967021810956 0.28375000000000006 0.6150000000000001 0.35415000000000002 0.01193871142459794 0.61825000000000008
decision_type=2 2 2 2 2 2 2 2 2 2 2 2 2 2 2
left_child=11 5 13 4 14 6 7 -2 -7 10 -5 12 -1 -3 -4
right_child=1 2 3 9 -6 8 -8 -9 -10 -11 -12 -13 -14 -15 -16
leaf_value=0.025680515975675257 0.024182142897744344 0.026704628212097709 -0.0014731105545519919 -0.027083057628045627 -0.034498630504453412 -0.029424594044520858 -0.035393806067698118 -0.018124274990948343 0.022801524118356439 -0.016924460008029052 0.013329603612000005 0.039925153030423884 -0.028703448256900039 -0.024598055474213454 -0.032290792171737102
leaf_count=32 65 35 235 104 1044 41 262 94 176 261 193 24 32 31 127
internal_value=0 -0.0480678 -0.110459 -0.146132 -0.236922 0.0736776 -0.0503477 0.0981576 0.180736 -0.0161685 0.0703562 0.277052 0.131094 0.18236 -0.0904401
internal_count=2756 2668 2030 1964 1406 638 421 159 217 558 297 88 64 66 362
shrinkage=0.1


Tree=5
num_leaves=16
num_cat=0
split_feature=1 0 2 6 1 1 9 2 11 2 8 4 0 6 2
split_gain=356.78 317.97 120.466 120.007 109.335 99.8047 84.69 83.4246 76.7066 84.0819 69.6366 81.9632 65.3651 114.309 92.1982
threshold=0.049440559586724872 0.0019599222180971564 170053.50000000003 0.19348666312824433 0.0085397309063204949 0.026851204728395507 0.6150000000000001 183118.50000000003 0.36540000000000006 142059.00000000003 0.51665000000000016 1.9474709214659673 0.00063623857323066109 0.32721266157026418 142059.00000000003
decision_type=2 2 2 2 2 2 2 2 2 2 2 2 2 2 2
left_child=1 4 -3 -4 8 6 -5 12 9 -1 -2 -12 -6 14 -14
right_child=10 2 3 5 7 -7 -8 -9 -10 -11 11 -13 13 -15 -16
leaf_value=-0.033242562329531045 0.030039475799766638 -0.029949872747724961 -0.027298178736353203 0.037623131515811488 0.027511334712157467 -0.023200605863932505 -0.034596964849637861 -0.014080241686936737 -0.035844943159589429 0.02728809694534879 -0.009853978965390281 0.022597850758208415 0.0031567462924071104 -0.02609913131479237 0.029532008178563714
leaf_count=93 62 1100 308 22 51 68 26 184 182 13 167 69 263 109 39
internal_value=0 -0.0637806 -0.208779 -0.058046 0.0401464 0.110639 0.267704 0.081921 -0.172794 0.0321715 0.201324 0.0961749 0.118374 0.0711454 0.121866
internal_count=2756 2458 1524 424 934 116 48 646 288 106 298 236 462 411 302
shrinkage=0.1


end of trees

feature importances:
Column_1=15
Column_4=15
Column_2=10
Column_5=8
Column_0=7
Column_6=6
Column_8=6
Column_9=6
Column_7=5
Column_3=4
Column_12=4
Column_11=3
Column_10=1

parameters:
[boosting: gbdt]
[objective: lambdarank]
[metric: ndcg,lambdarank]
[tree_learner: serial]
[device_type: cpu]
[data: ]
[valid: ]
[num_iterations: 100]
[learning_rate: 0.1]
[num_leaves: 16]
[num_threads: -1]
[max_depth: -1]
[min_data_in_leaf: 5]
[min_sum_hessian_in_leaf: 0.001]
[bagging_fraction: 1]
[bagging_freq: 0]
[bagging_seed: 3]
[feature_fraction: 1]
[feature_fraction_seed: 2]
[early_stopping_round: 0]
[max_delta_step: 0]
[lambda_l1: 0]
[lambda_l2: 0]
[min_gain_to_split: 0]
[drop_rate: 0.1]
[max_drop: 50]
[skip_drop: 0.5]
[xgboost_dart_mode: 0]
[uniform_drop: 0]
[drop_seed: 4]
[top_rate: 0.2]
[other_rate: 0.1]
[min_data_per_group: 100]
[max_cat_threshold: 32]
[cat_l2: 10]
[cat_smooth: 10]
[max_cat_to_onehot: 4]
[top_k: 20]
[monotone_constraints: ]
[feature_contri: ]
[forcedsplits_filename: ]
[refit_decay_rate: 0.9]
[verbosity: -1]
[max_bin: 255]
[min_data_in_bin: 3]
[bin_construct_sample_cnt: 200000]
[histogram_pool_size: -1]
[data_random_seed: 1]
[output_model: LightGBM_model.txt]
[snapshot_freq: -1]
[input_model: ]
[output_result: LightGBM_predict_result.txt]
[initscore_filename: ]
[valid_data_initscores: ]
[pre_partition: 0]
[enable_bundle: 1]
[max_conflict_rate: 0]
[is_enable_sparse: 1]
[sparse_threshold: 0.8]
[use_missing: 1]
[zero_as_missing: 0]
[two_round: 0]
[save_binary: 0]
[enable_load_from_binary_file: 1]
[header: 0]
[label_column: ]
[weight_column: ]
[group_column: ]
[ignore_column: ]
[categorical_feature: ]
[predict_raw_score: 0]
[predict_leaf_index: 0]
[predict_contrib: 0]
[num_iteration_predict: -1]
[pred_early_stop: 0]
[pred_early_stop_freq: 10]
[pred_early_stop_margin: 10]
[convert_model_language: ]
[convert_model: gbdt_prediction.cpp]
[num_class: 1]
[is_unbalance: 0]
[scale_pos_weight: 1]
[sigmoid: 1]
[boost_from_average: 1]
[reg_sqrt: 0]
[alpha: 0.9]
[fair_c: 1]
[poisson_max_delta_step: 0.7]
[tweedie_variance_power: 1.5]
[max_position: 20]
[label_gain: ]
[metric_freq: 1]
[is_provide_training_metric: 0]
[eval_at: 3]
[num_machines: 1]
[local_listen_port: 12400]
[time_out: 120]
[machine_list_filename: ]
[machines: ]
[gpu_platform_id: -1]
[gpu_device_id: -1]
[gpu_use_dp: 0]

end of parameters

pandas_categorical:null
